%YAML:1.0
---
opencv_ml_rtrees:
   format: 3
   is_classifier: 1
   var_all: 309
   var_count: 308
   ord_var_count: 308
   cat_var_count: 1
   training_params:
      use_surrogates: 0
      max_categories: 10
      regression_accuracy: 0.
      max_depth: 5
      min_sample_count: 10
      cross_validation_folds: 0
      nactive_vars: 0
   global_var_idx: 1
   var_idx: [ 0, 1, 2, 3, 4, 5, 6, 7, 8, 9, 10, 11, 12, 13, 14, 15, 16,
       17, 18, 19, 20, 21, 22, 23, 24, 25, 26, 27, 28, 29, 30, 31, 32,
       33, 34, 35, 36, 37, 38, 39, 40, 41, 42, 43, 44, 45, 46, 47, 48,
       49, 50, 51, 52, 53, 54, 55, 56, 57, 58, 59, 60, 61, 62, 63, 64,
       65, 66, 67, 68, 69, 70, 71, 72, 73, 74, 75, 76, 77, 78, 79, 80,
       81, 82, 83, 84, 85, 86, 87, 88, 89, 90, 91, 92, 93, 94, 95, 96,
       97, 98, 99, 100, 101, 102, 103, 104, 105, 106, 107, 108, 109, 110,
       111, 112, 113, 114, 115, 116, 117, 118, 119, 120, 121, 122, 123,
       124, 125, 126, 127, 128, 129, 130, 131, 132, 133, 134, 135, 136,
       137, 138, 139, 140, 141, 142, 143, 144, 145, 146, 147, 148, 149,
       150, 151, 152, 153, 154, 155, 156, 157, 158, 159, 160, 161, 162,
       163, 164, 165, 166, 167, 168, 169, 170, 171, 172, 173, 174, 175,
       176, 177, 178, 179, 180, 181, 182, 183, 184, 185, 186, 187, 188,
       189, 190, 191, 192, 193, 194, 195, 196, 197, 198, 199, 200, 201,
       202, 203, 204, 205, 206, 207, 208, 209, 210, 211, 212, 213, 214,
       215, 216, 217, 218, 219, 220, 221, 222, 223, 224, 225, 226, 227,
       228, 229, 230, 231, 232, 233, 234, 235, 236, 237, 238, 239, 240,
       241, 242, 243, 244, 245, 246, 247, 248, 249, 250, 251, 252, 253,
       254, 255, 256, 257, 258, 259, 260, 261, 262, 263, 264, 265, 266,
       267, 268, 269, 270, 271, 272, 273, 274, 275, 276, 277, 278, 279,
       280, 281, 282, 283, 284, 285, 286, 287, 288, 289, 290, 291, 292,
       293, 294, 295, 296, 297, 298, 299, 300, 301, 302, 303, 304, 305,
       306, 307 ]
   var_type: [ 0, 0, 0, 0, 0, 0, 0, 0, 0, 0, 0, 0, 0, 0, 0, 0, 0, 0, 0,
       0, 0, 0, 0, 0, 0, 0, 0, 0, 0, 0, 0, 0, 0, 0, 0, 0, 0, 0, 0, 0, 0,
       0, 0, 0, 0, 0, 0, 0, 0, 0, 0, 0, 0, 0, 0, 0, 0, 0, 0, 0, 0, 0, 0,
       0, 0, 0, 0, 0, 0, 0, 0, 0, 0, 0, 0, 0, 0, 0, 0, 0, 0, 0, 0, 0, 0,
       0, 0, 0, 0, 0, 0, 0, 0, 0, 0, 0, 0, 0, 0, 0, 0, 0, 0, 0, 0, 0, 0,
       0, 0, 0, 0, 0, 0, 0, 0, 0, 0, 0, 0, 0, 0, 0, 0, 0, 0, 0, 0, 0, 0,
       0, 0, 0, 0, 0, 0, 0, 0, 0, 0, 0, 0, 0, 0, 0, 0, 0, 0, 0, 0, 0, 0,
       0, 0, 0, 0, 0, 0, 0, 0, 0, 0, 0, 0, 0, 0, 0, 0, 0, 0, 0, 0, 0, 0,
       0, 0, 0, 0, 0, 0, 0, 0, 0, 0, 0, 0, 0, 0, 0, 0, 0, 0, 0, 0, 0, 0,
       0, 0, 0, 0, 0, 0, 0, 0, 0, 0, 0, 0, 0, 0, 0, 0, 0, 0, 0, 0, 0, 0,
       0, 0, 0, 0, 0, 0, 0, 0, 0, 0, 0, 0, 0, 0, 0, 0, 0, 0, 0, 0, 0, 0,
       0, 0, 0, 0, 0, 0, 0, 0, 0, 0, 0, 0, 0, 0, 0, 0, 0, 0, 0, 0, 0, 0,
       0, 0, 0, 0, 0, 0, 0, 0, 0, 0, 0, 0, 0, 0, 0, 0, 0, 0, 0, 0, 0, 0,
       0, 0, 0, 0, 0, 0, 0, 0, 0, 0, 0, 0, 0, 0, 0, 0, 0, 0, 0, 0, 0, 0,
       0, 0, 0, 1 ]
   cat_ofs: [ 0, 0, 0, 0, 0, 0, 0, 0, 0, 0, 0, 0, 0, 0, 0, 0, 0, 0, 0, 0,
       0, 0, 0, 0, 0, 0, 0, 0, 0, 0, 0, 0, 0, 0, 0, 0, 0, 0, 0, 0, 0, 0,
       0, 0, 0, 0, 0, 0, 0, 0, 0, 0, 0, 0, 0, 0, 0, 0, 0, 0, 0, 0, 0, 0,
       0, 0, 0, 0, 0, 0, 0, 0, 0, 0, 0, 0, 0, 0, 0, 0, 0, 0, 0, 0, 0, 0,
       0, 0, 0, 0, 0, 0, 0, 0, 0, 0, 0, 0, 0, 0, 0, 0, 0, 0, 0, 0, 0, 0,
       0, 0, 0, 0, 0, 0, 0, 0, 0, 0, 0, 0, 0, 0, 0, 0, 0, 0, 0, 0, 0, 0,
       0, 0, 0, 0, 0, 0, 0, 0, 0, 0, 0, 0, 0, 0, 0, 0, 0, 0, 0, 0, 0, 0,
       0, 0, 0, 0, 0, 0, 0, 0, 0, 0, 0, 0, 0, 0, 0, 0, 0, 0, 0, 0, 0, 0,
       0, 0, 0, 0, 0, 0, 0, 0, 0, 0, 0, 0, 0, 0, 0, 0, 0, 0, 0, 0, 0, 0,
       0, 0, 0, 0, 0, 0, 0, 0, 0, 0, 0, 0, 0, 0, 0, 0, 0, 0, 0, 0, 0, 0,
       0, 0, 0, 0, 0, 0, 0, 0, 0, 0, 0, 0, 0, 0, 0, 0, 0, 0, 0, 0, 0, 0,
       0, 0, 0, 0, 0, 0, 0, 0, 0, 0, 0, 0, 0, 0, 0, 0, 0, 0, 0, 0, 0, 0,
       0, 0, 0, 0, 0, 0, 0, 0, 0, 0, 0, 0, 0, 0, 0, 0, 0, 0, 0, 0, 0, 0,
       0, 0, 0, 0, 0, 0, 0, 0, 0, 0, 0, 0, 0, 0, 0, 0, 0, 0, 0, 0, 0, 0,
       0, 0, 0, 0, 0, 0, 0, 0, 0, 0, 0, 0, 0, 0, 0, 0, 0, 0, 0, 0, 0, 0,
       0, 0, 0, 0, 0, 0, 0, 0, 0, 0, 0, 0, 0, 0, 0, 0, 0, 0, 0, 0, 0, 0,
       0, 0, 0, 0, 0, 0, 0, 0, 0, 0, 0, 0, 0, 0, 0, 0, 0, 0, 0, 0, 0, 0,
       0, 0, 0, 0, 0, 0, 0, 0, 0, 0, 0, 0, 0, 0, 0, 0, 0, 0, 0, 0, 0, 0,
       0, 0, 0, 0, 0, 0, 0, 0, 0, 0, 0, 0, 0, 0, 0, 0, 0, 0, 0, 0, 0, 0,
       0, 0, 0, 0, 0, 0, 0, 0, 0, 0, 0, 0, 0, 0, 0, 0, 0, 0, 0, 0, 0, 0,
       0, 0, 0, 0, 0, 0, 0, 0, 0, 0, 0, 0, 0, 0, 0, 0, 0, 0, 0, 0, 0, 0,
       0, 0, 0, 0, 0, 0, 0, 0, 0, 0, 0, 0, 0, 0, 0, 0, 0, 0, 0, 0, 0, 0,
       0, 0, 0, 0, 0, 0, 0, 0, 0, 0, 0, 0, 0, 0, 0, 0, 0, 0, 0, 0, 0, 0,
       0, 0, 0, 0, 0, 0, 0, 0, 0, 0, 0, 0, 0, 0, 0, 0, 0, 0, 0, 0, 0, 0,
       0, 0, 0, 0, 0, 0, 0, 0, 0, 0, 0, 0, 0, 0, 0, 0, 0, 0, 0, 0, 0, 0,
       0, 0, 0, 0, 0, 0, 0, 0, 0, 0, 0, 0, 0, 0, 0, 0, 0, 0, 0, 0, 0, 0,
       0, 0, 0, 0, 0, 0, 0, 0, 0, 0, 0, 0, 0, 0, 0, 0, 0, 0, 0, 0, 0, 0,
       0, 0, 0, 0, 0, 0, 0, 0, 0, 0, 0, 0, 0, 0, 0, 0, 0, 0, 0, 0, 0, 0,
       0, 0 ]
   class_labels: [ 0, 1, 2, 3, 4, 5, 6, 7, 8, 9 ]
   missing_subst: [ 0., 0., 0., 0., 0., 0., 0., 0., 0., 0., 0., 0., 0.,
       0., 0., 0., 0., 0., 0., 0., 0., 0., 0., 0., 0., 0., 0., 0., 0.,
       0., 0., 0., 0., 0., 0., 0., 0., 0., 0., 0., 0., 0., 0., 0., 0.,
       0., 0., 0., 0., 0., 0., 0., 0., 0., 0., 0., 0., 0., 0., 0., 0.,
       0., 0., 0., 0., 0., 0., 0., 0., 0., 0., 0., 0., 0., 0., 0., 0.,
       0., 0., 0., 0., 0., 0., 0., 0., 0., 0., 0., 0., 0., 0., 0., 0.,
       0., 0., 0., 0., 0., 0., 0., 0., 0., 0., 0., 0., 0., 0., 0., 0.,
       0., 0., 0., 0., 0., 0., 0., 0., 0., 0., 0., 0., 0., 0., 0., 0.,
       0., 0., 0., 0., 0., 0., 0., 0., 0., 0., 0., 0., 0., 0., 0., 0.,
       0., 0., 0., 0., 0., 0., 0., 0., 0., 0., 0., 0., 0., 0., 0., 0.,
       0., 0., 0., 0., 0., 0., 0., 0., 0., 0., 0., 0., 0., 0., 0., 0.,
       0., 0., 0., 0., 0., 0., 0., 0., 0., 0., 0., 0., 0., 0., 0., 0.,
       0., 0., 0., 0., 0., 0., 0., 0., 0., 0., 0., 0., 0., 0., 0., 0.,
       0., 0., 0., 0., 0., 0., 0., 0., 0., 0., 0., 0., 0., 0., 0., 0.,
       0., 0., 0., 0., 0., 0., 0., 0., 0., 0., 0., 0., 0., 0., 0., 0.,
       0., 0., 0., 0., 0., 0., 0., 0., 0., 0., 0., 0., 0., 0., 0., 0.,
       0., 0., 0., 0., 0., 0., 0., 0., 0., 0., 0., 0., 0., 0., 0., 0.,
       0., 0., 0., 0., 0., 0., 0., 0., 0., 0., 0., 0., 0., 0., 0., 0.,
       0., 0., 0., 0., 0., 0., 0., 0., 0., 0., 0., 0., 0., 0., 0., 0.,
       0., 0., 0., 0., 0., 0., 0., 0. ]
   oob_error: 0.
   ntrees: 50
   trees:
      -
         nodes:
            -
               depth: 0
               value: 7.
               norm_class_idx: 7
               splits:
                  - { var:19, quality:4.2913018798828125e+02,
                      le:3.4865643829107285e-03 }
            -
               depth: 1
               value: 7.
               norm_class_idx: 7
               splits:
                  - { var:106, quality:3.6254092407226562e+02,
                      le:1.9187154248356819e-02 }
            -
               depth: 2
               value: 7.
               norm_class_idx: 7
               splits:
                  - { var:124, quality:3.2740924072265625e+02,
                      le:9.3947362620383501e-04 }
            -
               depth: 3
               value: 7.
               norm_class_idx: 7
               splits:
                  - { var:112, quality:2.8112640380859375e+02,
                      le:6.7453819792717695e-04 }
            -
               depth: 4
               value: 7.
               norm_class_idx: 7
               splits:
                  - { var:153, quality:1.7777122497558594e+02,
                      le:5.7450067251920700e-03 }
            -
               depth: 5
               value: 7.
               norm_class_idx: 7
            -
               depth: 5
               value: 9.
               norm_class_idx: 9
            -
               depth: 4
               value: 4.
               norm_class_idx: 4
               splits:
                  - { var:96, quality:2.5704595947265625e+02,
                      le:2.0806277170777321e-02 }
            -
               depth: 5
               value: 4.
               norm_class_idx: 4
            -
               depth: 5
               value: 9.
               norm_class_idx: 9
            -
               depth: 3
               value: 6.
               norm_class_idx: 6
               splits:
                  - { var:23, quality:1.5430000305175781e+02,
                      le:4.0721699595451355e-02 }
            -
               depth: 4
               value: 4.
               norm_class_idx: 4
               splits:
                  - { var:52, quality:1.0399999618530273e+01,
                      le:1.0386812500655651e-03 }
            -
               depth: 5
               value: 9.
               norm_class_idx: 9
            -
               depth: 5
               value: 4.
               norm_class_idx: 4
            -
               depth: 4
               value: 6.
               norm_class_idx: 6
            -
               depth: 2
               value: 8.
               norm_class_idx: 8
               splits:
                  - { var:167, quality:2.6549877929687500e+02,
                      le:2.4473429657518864e-03 }
            -
               depth: 3
               value: 8.
               norm_class_idx: 8
               splits:
                  - { var:288, quality:1.8024887084960938e+02,
                      le:3.4941593185067177e-03 }
            -
               depth: 4
               value: 2.
               norm_class_idx: 2
               splits:
                  - { var:57, quality:17., le:9.0799219906330109e-03 }
            -
               depth: 5
               value: 2.
               norm_class_idx: 2
            -
               depth: 5
               value: 8.
               norm_class_idx: 8
            -
               depth: 4
               value: 8.
               norm_class_idx: 8
               splits:
                  - { var:302, quality:1.7217977905273438e+02,
                      le:1.0120231658220291e-02 }
            -
               depth: 5
               value: 8.
               norm_class_idx: 8
            -
               depth: 5
               value: 0.
               norm_class_idx: 0
            -
               depth: 3
               value: 2.
               norm_class_idx: 2
               splits:
                  - { var:97, quality:1.1823339843750000e+02,
                      le:8.1848888657987118e-04 }
            -
               depth: 4
               value: 6.
               norm_class_idx: 6
               splits:
                  - { var:67, quality:14., le:8.8312737643718719e-03 }
            -
               depth: 5
               value: 6.
               norm_class_idx: 6
            -
               depth: 5
               value: 8.
               norm_class_idx: 8
            -
               depth: 4
               value: 2.
               norm_class_idx: 2
               splits:
                  - { var:147, quality:1.1424509429931641e+02,
                      le:9.0846354141831398e-03 }
            -
               depth: 5
               value: 2.
               norm_class_idx: 2
            -
               depth: 5
               value: 8.
               norm_class_idx: 8
            -
               depth: 1
               value: 0.
               norm_class_idx: 0
               splits:
                  - { var:51, quality:2.9287643432617188e+02,
                      le:3.2565474975854158e-04 }
            -
               depth: 2
               value: 1.
               norm_class_idx: 1
               splits:
                  - { var:13, quality:2.0129786682128906e+02,
                      le:3.2927165739238262e-03 }
            -
               depth: 3
               value: 0.
               norm_class_idx: 0
               splits:
                  - { var:28, quality:48., le:1.7825311806518584e-04 }
            -
               depth: 4
               value: 1.
               norm_class_idx: 1
            -
               depth: 4
               value: 0.
               norm_class_idx: 0
            -
               depth: 3
               value: 1.
               norm_class_idx: 1
               splits:
                  - { var:118, quality:1.7690806579589844e+02,
                      le:8.5549093782901764e-03 }
            -
               depth: 4
               value: 1.
               norm_class_idx: 1
               splits:
                  - { var:149, quality:1.7304571533203125e+02,
                      le:9.9330358207225800e-03 }
            -
               depth: 5
               value: 1.
               norm_class_idx: 1
            -
               depth: 5
               value: 0.
               norm_class_idx: 0
            -
               depth: 4
               value: 0.
               norm_class_idx: 0
               splits:
                  - { var:174, quality:11., le:3.7078633904457092e-03 }
            -
               depth: 5
               value: 0.
               norm_class_idx: 0
            -
               depth: 5
               value: 1.
               norm_class_idx: 1
            -
               depth: 2
               value: 0.
               norm_class_idx: 0
               splits:
                  - { var:33, quality:1.7039375305175781e+02,
                      le:3.0141081660985947e-03 }
            -
               depth: 3
               value: 0.
               norm_class_idx: 0
               splits:
                  - { var:130, quality:1.6204968261718750e+02,
                      le:7.0428950712084770e-03 }
            -
               depth: 4
               value: 0.
               norm_class_idx: 0
               splits:
                  - { var:32, quality:161., le:8.1683797761797905e-03 }
            -
               depth: 5
               value: 0.
               norm_class_idx: 0
            -
               depth: 5
               value: 1.
               norm_class_idx: 1
            -
               depth: 4
               value: 1.
               norm_class_idx: 1
            -
               depth: 3
               value: 1.
               norm_class_idx: 1
               splits:
                  - { var:289, quality:2.0666666030883789e+01,
                      le:1.0787126608192921e-02 }
            -
               depth: 4
               value: 1.
               norm_class_idx: 1
            -
               depth: 4
               value: 8.
               norm_class_idx: 8
      -
         nodes:
            -
               depth: 0
               value: 4.
               norm_class_idx: 4
               splits:
                  - { var:18, quality:4.2060186767578125e+02,
                      le:1.2195874005556107e-03 }
            -
               depth: 1
               value: 4.
               norm_class_idx: 4
               splits:
                  - { var:125, quality:3.6076608276367188e+02,
                      le:7.8104744898155332e-04 }
            -
               depth: 2
               value: 9.
               norm_class_idx: 9
               splits:
                  - { var:92, quality:3.6023190307617188e+02,
                      le:3.4436606802046299e-03 }
            -
               depth: 3
               value: 8.
               norm_class_idx: 8
               splits:
                  - { var:68, quality:2.8278280639648438e+02,
                      le:1.4960847795009613e-02 }
            -
               depth: 4
               value: 8.
               norm_class_idx: 8
               splits:
                  - { var:167, quality:2.3423046875000000e+02,
                      le:2.4112621322274208e-03 }
            -
               depth: 5
               value: 8.
               norm_class_idx: 8
            -
               depth: 5
               value: 2.
               norm_class_idx: 2
            -
               depth: 4
               value: 9.
               norm_class_idx: 9
               splits:
                  - { var:112, quality:1.4859210205078125e+02,
                      le:1.4668675139546394e-02 }
            -
               depth: 5
               value: 9.
               norm_class_idx: 9
            -
               depth: 5
               value: 5.
               norm_class_idx: 5
            -
               depth: 3
               value: 4.
               norm_class_idx: 4
               splits:
                  - { var:116, quality:2.9337863159179688e+02,
                      le:7.6883035944774747e-04 }
            -
               depth: 4
               value: 4.
               norm_class_idx: 4
               splits:
                  - { var:91, quality:2.1177671813964844e+02,
                      le:4.1137758642435074e-02 }
            -
               depth: 5
               value: 4.
               norm_class_idx: 4
            -
               depth: 5
               value: 2.
               norm_class_idx: 2
            -
               depth: 4
               value: 7.
               norm_class_idx: 7
               splits:
                  - { var:59, quality:2.0023362731933594e+02,
                      le:6.1685848049819469e-04 }
            -
               depth: 5
               value: 7.
               norm_class_idx: 7
            -
               depth: 5
               value: 3.
               norm_class_idx: 3
            -
               depth: 2
               value: 6.
               norm_class_idx: 6
               splits:
                  - { var:97, quality:1.6121258544921875e+02,
                      le:2.7111680246889591e-03 }
            -
               depth: 3
               value: 6.
               norm_class_idx: 6
               splits:
                  - { var:146, quality:159., le:8.3591341972351074e-03 }
            -
               depth: 4
               value: 6.
               norm_class_idx: 6
            -
               depth: 4
               value: 8.
               norm_class_idx: 8
            -
               depth: 3
               value: 8.
               norm_class_idx: 8
            -
               depth: 1
               value: 1.
               norm_class_idx: 1
               splits:
                  - { var:151, quality:2.6243890380859375e+02,
                      le:4.1955458000302315e-03 }
            -
               depth: 2
               value: 1.
               norm_class_idx: 1
               splits:
                  - { var:301, quality:1.5265133666992188e+02,
                      le:1.5975270653143525e-03 }
            -
               depth: 3
               value: 0.
               norm_class_idx: 0
               splits:
                  - { var:282, quality:12., le:7.8403260558843613e-03 }
            -
               depth: 4
               value: 1.
               norm_class_idx: 1
            -
               depth: 4
               value: 0.
               norm_class_idx: 0
            -
               depth: 3
               value: 1.
               norm_class_idx: 1
               splits:
                  - { var:137, quality:1.4802024841308594e+02,
                      le:1.0279982816427946e-03 }
            -
               depth: 4
               value: 0.
               norm_class_idx: 0
            -
               depth: 4
               value: 1.
               norm_class_idx: 1
               splits:
                  - { var:175, quality:1.5020645141601562e+02,
                      le:1.0600774548947811e-03 }
            -
               depth: 5
               value: 0.
               norm_class_idx: 0
            -
               depth: 5
               value: 1.
               norm_class_idx: 1
            -
               depth: 2
               value: 0.
               norm_class_idx: 0
               splits:
                  - { var:66, quality:2.0794235229492188e+02,
                      le:1.6647940501570702e-02 }
            -
               depth: 3
               value: 0.
               norm_class_idx: 0
               splits:
                  - { var:77, quality:1.5801315307617188e+02,
                      le:2.2779042774345726e-04 }
            -
               depth: 4
               value: 1.
               norm_class_idx: 1
            -
               depth: 4
               value: 0.
               norm_class_idx: 0
               splits:
                  - { var:101, quality:1.5033332824707031e+02,
                      le:9.4278156757354736e-03 }
            -
               depth: 5
               value: 0.
               norm_class_idx: 0
            -
               depth: 5
               value: 0.
               norm_class_idx: 0
            -
               depth: 3
               value: 1.
               norm_class_idx: 1
               splits:
                  - { var:164, quality:67., le:9.4161956803873181e-04 }
            -
               depth: 4
               value: 0.
               norm_class_idx: 0
            -
               depth: 4
               value: 1.
               norm_class_idx: 1
      -
         nodes:
            -
               depth: 0
               value: 1.
               norm_class_idx: 1
               splits:
                  - { var:97, quality:3.5704190063476562e+02,
                      le:1.5270558651536703e-03 }
            -
               depth: 1
               value: 1.
               norm_class_idx: 1
               splits:
                  - { var:81, quality:2.5666778564453125e+02,
                      le:7.7399381552822888e-05 }
            -
               depth: 2
               value: 1.
               norm_class_idx: 1
               splits:
                  - { var:101, quality:1.5687757873535156e+02,
                      le:1.5082481550052762e-03 }
            -
               depth: 3
               value: 1.
               norm_class_idx: 1
               splits:
                  - { var:298, quality:150., le:1.1996891116723418e-03 }
            -
               depth: 4
               value: 6.
               norm_class_idx: 6
            -
               depth: 4
               value: 1.
               norm_class_idx: 1
            -
               depth: 3
               value: 8.
               norm_class_idx: 8
               splits:
                  - { var:297, quality:2.4404762268066406e+01,
                      le:1.0834897868335247e-02 }
            -
               depth: 4
               value: 0.
               norm_class_idx: 0
               splits:
                  - { var:289, quality:12., le:7.4974736198782921e-03 }
            -
               depth: 5
               value: 1.
               norm_class_idx: 1
            -
               depth: 5
               value: 0.
               norm_class_idx: 0
            -
               depth: 4
               value: 8.
               norm_class_idx: 8
               splits:
                  - { var:288, quality:1.9500000000000000e+01,
                      le:1.7323920037597418e-03 }
            -
               depth: 5
               value: 2.
               norm_class_idx: 2
            -
               depth: 5
               value: 8.
               norm_class_idx: 8
            -
               depth: 2
               value: 6.
               norm_class_idx: 6
               splits:
                  - { var:23, quality:2.5756463623046875e+02,
                      le:5.0196345895528793e-02 }
            -
               depth: 3
               value: 0.
               norm_class_idx: 0
               splits:
                  - { var:108, quality:1.2151500701904297e+02,
                      le:2.5733524933457375e-02 }
            -
               depth: 4
               value: 0.
               norm_class_idx: 0
               splits:
                  - { var:93, quality:1.2659729766845703e+02,
                      le:8.0579705536365509e-03 }
            -
               depth: 5
               value: 0.
               norm_class_idx: 0
            -
               depth: 5
               value: 1.
               norm_class_idx: 1
            -
               depth: 4
               value: 7.
               norm_class_idx: 7
               splits:
                  - { var:136, quality:28., le:4.8792638699524105e-04 }
            -
               depth: 5
               value: 7.
               norm_class_idx: 7
            -
               depth: 5
               value: 6.
               norm_class_idx: 6
            -
               depth: 3
               value: 6.
               norm_class_idx: 6
               splits:
                  - { var:164, quality:1.7690596008300781e+02,
                      le:2.9596744570881128e-03 }
            -
               depth: 4
               value: 1.
               norm_class_idx: 1
            -
               depth: 4
               value: 6.
               norm_class_idx: 6
               splits:
                  - { var:90, quality:1.7713536071777344e+02,
                      le:3.0499964486807585e-04 }
            -
               depth: 5
               value: 6.
               norm_class_idx: 6
            -
               depth: 5
               value: 6.
               norm_class_idx: 6
            -
               depth: 1
               value: 4.
               norm_class_idx: 4
               splits:
                  - { var:307, quality:2.9801318359375000e+02,
                      le:7.7881617471575737e-05 }
            -
               depth: 2
               value: 8.
               norm_class_idx: 8
               splits:
                  - { var:162, quality:1.2943750000000000e+02,
                      le:3.0538255814462900e-03 }
            -
               depth: 3
               value: 0.
               norm_class_idx: 0
            -
               depth: 3
               value: 8.
               norm_class_idx: 8
               splits:
                  - { var:26, quality:1.3782511901855469e+02,
                      le:1.4150731265544891e-02 }
            -
               depth: 4
               value: 6.
               norm_class_idx: 6
               splits:
                  - { var:91, quality:2.5133333206176758e+01,
                      le:9.7034638747572899e-03 }
            -
               depth: 5
               value: 6.
               norm_class_idx: 6
            -
               depth: 5
               value: 0.
               norm_class_idx: 0
            -
               depth: 4
               value: 8.
               norm_class_idx: 8
               splits:
                  - { var:291, quality:1.3101538085937500e+02,
                      le:1.5654802322387695e-02 }
            -
               depth: 5
               value: 8.
               norm_class_idx: 8
            -
               depth: 5
               value: 0.
               norm_class_idx: 0
            -
               depth: 2
               value: 4.
               norm_class_idx: 4
               splits:
                  - { var:117, quality:2.6530340576171875e+02,
                      le:2.5356397964060307e-04 }
            -
               depth: 3
               value: 5.
               norm_class_idx: 5
               splits:
                  - { var:62, quality:1.7980891418457031e+02,
                      le:8.4691373631358147e-03 }
            -
               depth: 4
               value: 4.
               norm_class_idx: 4
               splits:
                  - { var:119, quality:1.5267167663574219e+02,
                      le:2.4933199165388942e-04 }
            -
               depth: 5
               value: 5.
               norm_class_idx: 5
            -
               depth: 5
               value: 9.
               norm_class_idx: 9
            -
               depth: 4
               value: 2.
               norm_class_idx: 2
               splits:
                  - { var:104, quality:8.2263069152832031e+01,
                      le:1.6784984618425369e-02 }
            -
               depth: 5
               value: 2.
               norm_class_idx: 2
            -
               depth: 5
               value: 9.
               norm_class_idx: 9
            -
               depth: 3
               value: 7.
               norm_class_idx: 7
               splits:
                  - { var:78, quality:2.0034045410156250e+02,
                      le:9.3720715085510164e-05 }
            -
               depth: 4
               value: 9.
               norm_class_idx: 9
               splits:
                  - { var:140, quality:2.1324708557128906e+02,
                      le:5.3833648562431335e-03 }
            -
               depth: 5
               value: 9.
               norm_class_idx: 9
            -
               depth: 5
               value: 7.
               norm_class_idx: 7
            -
               depth: 4
               value: 3.
               norm_class_idx: 3
               splits:
                  - { var:94, quality:1.6284143066406250e+02,
                      le:3.8178928662091494e-03 }
            -
               depth: 5
               value: 2.
               norm_class_idx: 2
            -
               depth: 5
               value: 3.
               norm_class_idx: 3
      -
         nodes:
            -
               depth: 0
               value: 9.
               norm_class_idx: 9
               splits:
                  - { var:128, quality:3.6063333129882812e+02,
                      le:4.3996854219585657e-04 }
            -
               depth: 1
               value: 9.
               norm_class_idx: 9
               splits:
                  - { var:27, quality:3.1037219238281250e+02,
                      le:8.4728933870792389e-03 }
            -
               depth: 2
               value: 5.
               norm_class_idx: 5
               splits:
                  - { var:93, quality:2.8336727905273438e+02,
                      le:5.1150424405932426e-04 }
            -
               depth: 3
               value: 6.
               norm_class_idx: 6
               splits:
                  - { var:33, quality:1.1529279327392578e+02,
                      le:5.5284635163843632e-04 }
            -
               depth: 4
               value: 6.
               norm_class_idx: 6
               splits:
                  - { var:140, quality:1.0966666412353516e+02,
                      le:3.7342470604926348e-03 }
            -
               depth: 5
               value: 6.
               norm_class_idx: 6
            -
               depth: 5
               value: 5.
               norm_class_idx: 5
            -
               depth: 4
               value: 9.
               norm_class_idx: 9
               splits:
                  - { var:305, quality:12., le:2.4017468094825745e-03 }
            -
               depth: 5
               value: 8.
               norm_class_idx: 8
            -
               depth: 5
               value: 9.
               norm_class_idx: 9
            -
               depth: 3
               value: 5.
               norm_class_idx: 5
               splits:
                  - { var:32, quality:2.8411102294921875e+02,
                      le:3.4884898923337460e-03 }
            -
               depth: 4
               value: 2.
               norm_class_idx: 2
               splits:
                  - { var:133, quality:1.2655019378662109e+02,
                      le:1.6922261565923691e-03 }
            -
               depth: 5
               value: 2.
               norm_class_idx: 2
            -
               depth: 5
               value: 0.
               norm_class_idx: 0
            -
               depth: 4
               value: 5.
               norm_class_idx: 5
               splits:
                  - { var:91, quality:2.7025573730468750e+02,
                      le:3.4292030613869429e-04 }
            -
               depth: 5
               value: 9.
               norm_class_idx: 9
            -
               depth: 5
               value: 7.
               norm_class_idx: 7
            -
               depth: 2
               value: 8.
               norm_class_idx: 8
               splits:
                  - { var:145, quality:1.8845767211914062e+02,
                      le:6.5065962262451649e-03 }
            -
               depth: 3
               value: 9.
               norm_class_idx: 9
               splits:
                  - { var:18, quality:7.7346221923828125e+01,
                      le:4.2241750634275377e-04 }
            -
               depth: 4
               value: 9.
               norm_class_idx: 9
               splits:
                  - { var:94, quality:7.1282592773437500e+01,
                      le:3.9948304183781147e-03 }
            -
               depth: 5
               value: 8.
               norm_class_idx: 8
            -
               depth: 5
               value: 9.
               norm_class_idx: 9
            -
               depth: 4
               value: 0.
               norm_class_idx: 0
               splits:
                  - { var:87, quality:4.1049999237060547e+01,
                      le:7.1929469704627991e-03 }
            -
               depth: 5
               value: 0.
               norm_class_idx: 0
            -
               depth: 5
               value: 8.
               norm_class_idx: 8
            -
               depth: 3
               value: 8.
               norm_class_idx: 8
               splits:
                  - { var:84, quality:1.5095237731933594e+02,
                      le:2.0905679557472467e-03 }
            -
               depth: 4
               value: 8.
               norm_class_idx: 8
               splits:
                  - { var:159, quality:1.5313836669921875e+02,
                      le:1.1523688444867730e-03 }
            -
               depth: 5
               value: 0.
               norm_class_idx: 0
            -
               depth: 5
               value: 8.
               norm_class_idx: 8
            -
               depth: 4
               value: 0.
               norm_class_idx: 0
            -
               depth: 1
               value: 1.
               norm_class_idx: 1
               splits:
                  - { var:293, quality:2.3525373840332031e+02,
                      le:1.1215129634365439e-03 }
            -
               depth: 2
               value: 6.
               norm_class_idx: 6
               splits:
                  - { var:267, quality:70., le:5.8118341257795691e-04 }
            -
               depth: 3
               value: 1.
               norm_class_idx: 1
            -
               depth: 3
               value: 6.
               norm_class_idx: 6
            -
               depth: 2
               value: 1.
               norm_class_idx: 1
               splits:
                  - { var:129, quality:2.5249920654296875e+02,
                      le:4.8456978984177113e-03 }
            -
               depth: 3
               value: 0.
               norm_class_idx: 0
               splits:
                  - { var:22, quality:1.1762010955810547e+02,
                      le:5.0023112446069717e-02 }
            -
               depth: 4
               value: 0.
               norm_class_idx: 0
               splits:
                  - { var:96, quality:1.1999238586425781e+02,
                      le:2.3952182382345200e-03 }
            -
               depth: 5
               value: 0.
               norm_class_idx: 0
            -
               depth: 5
               value: 1.
               norm_class_idx: 1
            -
               depth: 4
               value: 6.
               norm_class_idx: 6
            -
               depth: 3
               value: 1.
               norm_class_idx: 1
               splits:
                  - { var:159, quality:1.9635165405273438e+02,
                      le:7.8789908438920975e-03 }
            -
               depth: 4
               value: 1.
               norm_class_idx: 1
               splits:
                  - { var:49, quality:1.7804469299316406e+02,
                      le:1.5555764548480511e-03 }
            -
               depth: 5
               value: 1.
               norm_class_idx: 1
            -
               depth: 5
               value: 0.
               norm_class_idx: 0
            -
               depth: 4
               value: 0.
               norm_class_idx: 0
               splits:
                  - { var:143, quality:26., le:1.4644351322203875e-03 }
            -
               depth: 5
               value: 1.
               norm_class_idx: 1
            -
               depth: 5
               value: 0.
               norm_class_idx: 0
      -
         nodes:
            -
               depth: 0
               value: 8.
               norm_class_idx: 8
               splits:
                  - { var:14, quality:4.0081234741210938e+02,
                      le:3.4566217800602317e-04 }
            -
               depth: 1
               value: 8.
               norm_class_idx: 8
               splits:
                  - { var:93, quality:3.9469378662109375e+02,
                      le:1.0647869203239679e-03 }
            -
               depth: 2
               value: 6.
               norm_class_idx: 6
               splits:
                  - { var:167, quality:3.8371887207031250e+02,
                      le:3.7311213091015816e-03 }
            -
               depth: 3
               value: 8.
               norm_class_idx: 8
               splits:
                  - { var:103, quality:1.9563017272949219e+02,
                      le:6.5332558006048203e-03 }
            -
               depth: 4
               value: 2.
               norm_class_idx: 2
               splits:
                  - { var:24, quality:1.1199999809265137e+01,
                      le:4.4872656464576721e-02 }
            -
               depth: 5
               value: 9.
               norm_class_idx: 9
            -
               depth: 5
               value: 2.
               norm_class_idx: 2
            -
               depth: 4
               value: 8.
               norm_class_idx: 8
               splits:
                  - { var:173, quality:1.9804040527343750e+02,
                      le:4.9921111203730106e-03 }
            -
               depth: 5
               value: 8.
               norm_class_idx: 8
            -
               depth: 5
               value: 6.
               norm_class_idx: 6
            -
               depth: 3
               value: 6.
               norm_class_idx: 6
               splits:
                  - { var:143, quality:2.1897154235839844e+02,
                      le:2.4414574727416039e-03 }
            -
               depth: 4
               value: 1.
               norm_class_idx: 1
            -
               depth: 4
               value: 6.
               norm_class_idx: 6
               splits:
                  - { var:305, quality:2.2187315368652344e+02,
                      le:5.2523724734783173e-03 }
            -
               depth: 5
               value: 6.
               norm_class_idx: 6
            -
               depth: 5
               value: 9.
               norm_class_idx: 9
            -
               depth: 2
               value: 5.
               norm_class_idx: 5
               splits:
                  - { var:91, quality:2.8381796264648438e+02,
                      le:3.6968704080209136e-04 }
            -
               depth: 3
               value: 9.
               norm_class_idx: 9
               splits:
                  - { var:146, quality:1.6296217346191406e+02,
                      le:6.6140554845333099e-03 }
            -
               depth: 4
               value: 9.
               norm_class_idx: 9
               splits:
                  - { var:138, quality:1.2784906005859375e+02,
                      le:3.5345952492207289e-03 }
            -
               depth: 5
               value: 9.
               norm_class_idx: 9
            -
               depth: 5
               value: 5.
               norm_class_idx: 5
            -
               depth: 4
               value: 2.
               norm_class_idx: 2
               splits:
                  - { var:30, quality:1.0458036041259766e+02,
                      le:4.3746731244027615e-03 }
            -
               depth: 5
               value: 2.
               norm_class_idx: 2
            -
               depth: 5
               value: 8.
               norm_class_idx: 8
            -
               depth: 3
               value: 7.
               norm_class_idx: 7
               splits:
                  - { var:115, quality:2.6606036376953125e+02,
                      le:5.2164010703563690e-03 }
            -
               depth: 4
               value: 3.
               norm_class_idx: 3
               splits:
                  - { var:116, quality:2.0180802917480469e+02,
                      le:3.8097449578344822e-04 }
            -
               depth: 5
               value: 4.
               norm_class_idx: 4
            -
               depth: 5
               value: 3.
               norm_class_idx: 3
            -
               depth: 4
               value: 7.
               norm_class_idx: 7
               splits:
                  - { var:32, quality:1.3474230957031250e+02,
                      le:2.1362554281949997e-02 }
            -
               depth: 5
               value: 2.
               norm_class_idx: 2
            -
               depth: 5
               value: 7.
               norm_class_idx: 7
            -
               depth: 1
               value: 1.
               norm_class_idx: 1
               splits:
                  - { var:152, quality:2.3916633605957031e+02,
                      le:4.7552371397614479e-03 }
            -
               depth: 2
               value: 1.
               norm_class_idx: 1
               splits:
                  - { var:129, quality:1.8984147644042969e+02,
                      le:4.1492031887173653e-03 }
            -
               depth: 3
               value: 0.
               norm_class_idx: 0
               splits:
                  - { var:177, quality:5.6509803771972656e+01,
                      le:7.1106324903666973e-03 }
            -
               depth: 4
               value: 0.
               norm_class_idx: 0
               splits:
                  - { var:31, quality:4.7177776336669922e+01,
                      le:4.1015241295099258e-03 }
            -
               depth: 5
               value: 0.
               norm_class_idx: 0
            -
               depth: 5
               value: 1.
               norm_class_idx: 1
            -
               depth: 4
               value: 1.
               norm_class_idx: 1
            -
               depth: 3
               value: 1.
               norm_class_idx: 1
               splits:
                  - { var:135, quality:154., le:5.2495580166578293e-04 }
            -
               depth: 4
               value: 1.
               norm_class_idx: 1
            -
               depth: 4
               value: 0.
               norm_class_idx: 0
            -
               depth: 2
               value: 0.
               norm_class_idx: 0
               splits:
                  - { var:65, quality:1.2534029388427734e+02,
                      le:1.2226307764649391e-02 }
            -
               depth: 3
               value: 0.
               norm_class_idx: 0
               splits:
                  - { var:56, quality:9.6020622253417969e+01,
                      le:2.0040079834870994e-04 }
            -
               depth: 4
               value: 1.
               norm_class_idx: 1
            -
               depth: 4
               value: 0.
               norm_class_idx: 0
               splits:
                  - { var:268, quality:9.5666664123535156e+01,
                      le:5.9474385343492031e-03 }
            -
               depth: 5
               value: 0.
               norm_class_idx: 0
            -
               depth: 5
               value: 0.
               norm_class_idx: 0
            -
               depth: 3
               value: 1.
               norm_class_idx: 1
               splits:
                  - { var:129, quality:43., le:5.4672667756676674e-03 }
            -
               depth: 4
               value: 0.
               norm_class_idx: 0
            -
               depth: 4
               value: 1.
               norm_class_idx: 1
      -
         nodes:
            -
               depth: 0
               value: 7.
               norm_class_idx: 7
               splits:
                  - { var:17, quality:4.1583355712890625e+02,
                      le:3.6698358599096537e-04 }
            -
               depth: 1
               value: 7.
               norm_class_idx: 7
               splits:
                  - { var:125, quality:3.5508306884765625e+02,
                      le:1.5550873940810561e-03 }
            -
               depth: 2
               value: 7.
               norm_class_idx: 7
               splits:
                  - { var:93, quality:3.4332849121093750e+02,
                      le:3.9309384301304817e-03 }
            -
               depth: 3
               value: 8.
               norm_class_idx: 8
               splits:
                  - { var:27, quality:2.6181268310546875e+02,
                      le:7.9589439556002617e-03 }
            -
               depth: 4
               value: 2.
               norm_class_idx: 2
               splits:
                  - { var:28, quality:1.4332154846191406e+02,
                      le:1.4563438016921282e-03 }
            -
               depth: 5
               value: 6.
               norm_class_idx: 6
            -
               depth: 5
               value: 2.
               norm_class_idx: 2
            -
               depth: 4
               value: 8.
               norm_class_idx: 8
               splits:
                  - { var:176, quality:1.9963816833496094e+02,
                      le:2.7268074918538332e-03 }
            -
               depth: 5
               value: 8.
               norm_class_idx: 8
            -
               depth: 5
               value: 6.
               norm_class_idx: 6
            -
               depth: 3
               value: 7.
               norm_class_idx: 7
               splits:
                  - { var:85, quality:2.6087002563476562e+02,
                      le:8.3344249287620187e-04 }
            -
               depth: 4
               value: 7.
               norm_class_idx: 7
               splits:
                  - { var:155, quality:2.4882826232910156e+02,
                      le:6.8913139402866364e-03 }
            -
               depth: 5
               value: 7.
               norm_class_idx: 7
            -
               depth: 5
               value: 9.
               norm_class_idx: 9
            -
               depth: 4
               value: 5.
               norm_class_idx: 5
               splits:
                  - { var:115, quality:1.5471592712402344e+02,
                      le:1.0678138351067901e-03 }
            -
               depth: 5
               value: 5.
               norm_class_idx: 5
            -
               depth: 5
               value: 3.
               norm_class_idx: 3
            -
               depth: 2
               value: 6.
               norm_class_idx: 6
               splits:
                  - { var:92, quality:153., le:3.0410597100853920e-03 }
            -
               depth: 3
               value: 6.
               norm_class_idx: 6
            -
               depth: 3
               value: 4.
               norm_class_idx: 4
            -
               depth: 1
               value: 1.
               norm_class_idx: 1
               splits:
                  - { var:28, quality:2.7920590209960938e+02,
                      le:3.2615161035209894e-04 }
            -
               depth: 2
               value: 1.
               norm_class_idx: 1
               splits:
                  - { var:283, quality:1.4405192565917969e+02,
                      le:7.1816616691648960e-03 }
            -
               depth: 3
               value: 1.
               norm_class_idx: 1
               splits:
                  - { var:99, quality:1.1914516448974609e+02,
                      le:1.4178790152072906e-03 }
            -
               depth: 4
               value: 1.
               norm_class_idx: 1
               splits:
                  - { var:165, quality:1.2006504058837891e+02,
                      le:9.6013082657009363e-04 }
            -
               depth: 5
               value: 0.
               norm_class_idx: 0
            -
               depth: 5
               value: 1.
               norm_class_idx: 1
            -
               depth: 4
               value: 0.
               norm_class_idx: 0
            -
               depth: 3
               value: 1.
               norm_class_idx: 1
               splits:
                  - { var:140, quality:4.2523811340332031e+01,
                      le:3.9813960902392864e-03 }
            -
               depth: 4
               value: 0.
               norm_class_idx: 0
               splits:
                  - { var:173, quality:1.7571428298950195e+01,
                      le:3.6252653226256371e-03 }
            -
               depth: 5
               value: 0.
               norm_class_idx: 0
            -
               depth: 5
               value: 1.
               norm_class_idx: 1
            -
               depth: 4
               value: 1.
               norm_class_idx: 1
            -
               depth: 2
               value: 0.
               norm_class_idx: 0
               splits:
                  - { var:95, quality:2.0089610290527344e+02,
                      le:3.3285166136920452e-03 }
            -
               depth: 3
               value: 0.
               norm_class_idx: 0
               splits:
                  - { var:68, quality:1.5880120849609375e+02,
                      le:4.7985371202230453e-03 }
            -
               depth: 4
               value: 6.
               norm_class_idx: 6
            -
               depth: 4
               value: 0.
               norm_class_idx: 0
               splits:
                  - { var:306, quality:1.6204907226562500e+02,
                      le:7.6103303581476212e-03 }
            -
               depth: 5
               value: 0.
               norm_class_idx: 0
            -
               depth: 5
               value: 1.
               norm_class_idx: 1
            -
               depth: 3
               value: 1.
               norm_class_idx: 1
               splits:
                  - { var:93, quality:6.3676692962646484e+01,
                      le:6.7424243316054344e-03 }
            -
               depth: 4
               value: 0.
               norm_class_idx: 0
               splits:
                  - { var:128, quality:14., le:3.4958347678184509e-03 }
            -
               depth: 5
               value: 0.
               norm_class_idx: 0
            -
               depth: 5
               value: 1.
               norm_class_idx: 1
            -
               depth: 4
               value: 1.
               norm_class_idx: 1
               splits:
                  - { var:154, quality:56., le:5.0164014101028442e-03 }
            -
               depth: 5
               value: 1.
               norm_class_idx: 1
            -
               depth: 5
               value: 0.
               norm_class_idx: 0
      -
         nodes:
            -
               depth: 0
               value: 3.
               norm_class_idx: 3
               splits:
                  - { var:176, quality:3.1487936401367188e+02,
                      le:7.2531364858150482e-03 }
            -
               depth: 1
               value: 3.
               norm_class_idx: 3
               splits:
                  - { var:130, quality:3.4646099853515625e+02,
                      le:4.4248002814128995e-04 }
            -
               depth: 2
               value: 3.
               norm_class_idx: 3
               splits:
                  - { var:51, quality:2.9023373413085938e+02,
                      le:1.4957333914935589e-03 }
            -
               depth: 3
               value: 2.
               norm_class_idx: 2
               splits:
                  - { var:176, quality:2.8173629760742188e+02,
                      le:1.8838350661098957e-03 }
            -
               depth: 4
               value: 8.
               norm_class_idx: 8
               splits:
                  - { var:105, quality:1.7455235290527344e+02,
                      le:1.2566860765218735e-02 }
            -
               depth: 5
               value: 9.
               norm_class_idx: 9
            -
               depth: 5
               value: 8.
               norm_class_idx: 8
            -
               depth: 4
               value: 2.
               norm_class_idx: 2
               splits:
                  - { var:24, quality:2.5260308837890625e+02,
                      le:4.2452204972505569e-02 }
            -
               depth: 5
               value: 7.
               norm_class_idx: 7
            -
               depth: 5
               value: 2.
               norm_class_idx: 2
            -
               depth: 3
               value: 4.
               norm_class_idx: 4
               splits:
                  - { var:148, quality:1.3302459716796875e+02,
                      le:5.4512871429324150e-03 }
            -
               depth: 4
               value: 3.
               norm_class_idx: 3
               splits:
                  - { var:98, quality:6.3957447052001953e+01,
                      le:1.0574260726571083e-02 }
            -
               depth: 5
               value: 5.
               norm_class_idx: 5
            -
               depth: 5
               value: 3.
               norm_class_idx: 3
            -
               depth: 4
               value: 4.
               norm_class_idx: 4
               splits:
                  - { var:117, quality:1.2874388122558594e+02,
                      le:5.3153757471591234e-04 }
            -
               depth: 5
               value: 4.
               norm_class_idx: 4
            -
               depth: 5
               value: 3.
               norm_class_idx: 3
            -
               depth: 2
               value: 0.
               norm_class_idx: 0
               splits:
                  - { var:53, quality:1.9756054687500000e+02,
                      le:3.1833373941481113e-04 }
            -
               depth: 3
               value: 1.
               norm_class_idx: 1
               splits:
                  - { var:103, quality:6.8242103576660156e+01,
                      le:3.6691606510430574e-03 }
            -
               depth: 4
               value: 1.
               norm_class_idx: 1
               splits:
                  - { var:73, quality:6.7694442749023438e+01,
                      le:2.4528349749743938e-03 }
            -
               depth: 5
               value: 9.
               norm_class_idx: 9
            -
               depth: 5
               value: 1.
               norm_class_idx: 1
            -
               depth: 4
               value: 0.
               norm_class_idx: 0
            -
               depth: 3
               value: 0.
               norm_class_idx: 0
               splits:
                  - { var:22, quality:2.2734170532226562e+02,
                      le:5.1894478499889374e-02 }
            -
               depth: 4
               value: 0.
               norm_class_idx: 0
               splits:
                  - { var:300, quality:1.7250431823730469e+02,
                      le:9.9893156439065933e-03 }
            -
               depth: 5
               value: 0.
               norm_class_idx: 0
            -
               depth: 5
               value: 1.
               norm_class_idx: 1
            -
               depth: 4
               value: 6.
               norm_class_idx: 6
            -
               depth: 1
               value: 1.
               norm_class_idx: 1
               splits:
                  - { var:298, quality:1.0607476806640625e+02,
                      le:1.4128326438367367e-03 }
            -
               depth: 2
               value: 0.
               norm_class_idx: 0
            -
               depth: 2
               value: 1.
               norm_class_idx: 1
               splits:
                  - { var:24, quality:1.0501886749267578e+02,
                      le:4.2701646685600281e-02 }
            -
               depth: 3
               value: 1.
               norm_class_idx: 1
               splits:
                  - { var:17, quality:106., le:2.0099043846130371e-02 }
            -
               depth: 4
               value: 1.
               norm_class_idx: 1
            -
               depth: 4
               value: 0.
               norm_class_idx: 0
            -
               depth: 3
               value: 0.
               norm_class_idx: 0
      -
         nodes:
            -
               depth: 0
               value: 4.
               norm_class_idx: 4
               splits:
                  - { var:131, quality:3.7602154541015625e+02,
                      le:3.8508867146447301e-04 }
            -
               depth: 1
               value: 4.
               norm_class_idx: 4
               splits:
                  - { var:32, quality:3.4775473022460938e+02,
                      le:5.1686046645045280e-03 }
            -
               depth: 2
               value: 8.
               norm_class_idx: 8
               splits:
                  - { var:176, quality:2.8199960327148438e+02,
                      le:2.1588909439742565e-03 }
            -
               depth: 3
               value: 8.
               norm_class_idx: 8
               splits:
                  - { var:28, quality:1.7406401062011719e+02,
                      le:2.8639736119657755e-03 }
            -
               depth: 4
               value: 4.
               norm_class_idx: 4
               splits:
                  - { var:25, quality:9.5555553436279297e+00,
                      le:1.0140437632799149e-02 }
            -
               depth: 5
               value: 4.
               norm_class_idx: 4
            -
               depth: 5
               value: 6.
               norm_class_idx: 6
            -
               depth: 4
               value: 8.
               norm_class_idx: 8
               splits:
                  - { var:20, quality:1.7624494934082031e+02,
                      le:3.9703985676169395e-03 }
            -
               depth: 5
               value: 8.
               norm_class_idx: 8
            -
               depth: 5
               value: 0.
               norm_class_idx: 0
            -
               depth: 3
               value: 6.
               norm_class_idx: 6
               splits:
                  - { var:78, quality:2.2274142456054688e+02,
                      le:5.8529395610094070e-03 }
            -
               depth: 4
               value: 2.
               norm_class_idx: 2
               splits:
                  - { var:30, quality:1.3016047668457031e+02,
                      le:9.4602350145578384e-04 }
            -
               depth: 5
               value: 1.
               norm_class_idx: 1
            -
               depth: 5
               value: 2.
               norm_class_idx: 2
            -
               depth: 4
               value: 6.
               norm_class_idx: 6
               splits:
                  - { var:93, quality:1.3973117065429688e+02,
                      le:9.9347264040261507e-04 }
            -
               depth: 5
               value: 6.
               norm_class_idx: 6
            -
               depth: 5
               value: 2.
               norm_class_idx: 2
            -
               depth: 2
               value: 7.
               norm_class_idx: 7
               splits:
                  - { var:92, quality:3.2098159790039062e+02,
                      le:3.1390360090881586e-03 }
            -
               depth: 3
               value: 9.
               norm_class_idx: 9
               splits:
                  - { var:108, quality:1.3939602661132812e+02,
                      le:1.7564846202731133e-02 }
            -
               depth: 4
               value: 9.
               norm_class_idx: 9
               splits:
                  - { var:172, quality:1.4261038208007812e+02,
                      le:5.5840080603957176e-03 }
            -
               depth: 5
               value: 9.
               norm_class_idx: 9
            -
               depth: 5
               value: 5.
               norm_class_idx: 5
            -
               depth: 4
               value: 8.
               norm_class_idx: 8
            -
               depth: 3
               value: 7.
               norm_class_idx: 7
               splits:
                  - { var:60, quality:2.7116415405273438e+02,
                      le:6.7768199369311333e-04 }
            -
               depth: 4
               value: 7.
               norm_class_idx: 7
               splits:
                  - { var:31, quality:1.3491062927246094e+02,
                      le:7.4714487418532372e-03 }
            -
               depth: 5
               value: 7.
               norm_class_idx: 7
            -
               depth: 5
               value: 2.
               norm_class_idx: 2
            -
               depth: 4
               value: 4.
               norm_class_idx: 4
               splits:
                  - { var:26, quality:2.3298043823242188e+02,
                      le:1.0033189319074154e-02 }
            -
               depth: 5
               value: 4.
               norm_class_idx: 4
            -
               depth: 5
               value: 7.
               norm_class_idx: 7
            -
               depth: 1
               value: 0.
               norm_class_idx: 0
               splits:
                  - { var:287, quality:2.3730207824707031e+02,
                      le:1.4562833821401000e-03 }
            -
               depth: 2
               value: 6.
               norm_class_idx: 6
               splits:
                  - { var:150, quality:6.7778900146484375e+01,
                      le:6.1067864298820496e-03 }
            -
               depth: 3
               value: 6.
               norm_class_idx: 6
               splits:
                  - { var:22, quality:7.1250793457031250e+01,
                      le:5.3269691765308380e-02 }
            -
               depth: 4
               value: 1.
               norm_class_idx: 1
            -
               depth: 4
               value: 6.
               norm_class_idx: 6
               splits:
                  - { var:96, quality:70., le:7.5004724785685539e-03 }
            -
               depth: 5
               value: 6.
               norm_class_idx: 6
            -
               depth: 5
               value: 9.
               norm_class_idx: 9
            -
               depth: 3
               value: 0.
               norm_class_idx: 0
               splits:
                  - { var:107, quality:1.3333333015441895e+01,
                      le:1.1824879329651594e-03 }
            -
               depth: 4
               value: 0.
               norm_class_idx: 0
            -
               depth: 4
               value: 4.
               norm_class_idx: 4
            -
               depth: 2
               value: 0.
               norm_class_idx: 0
               splits:
                  - { var:14, quality:2.6033258056640625e+02,
                      le:3.2201996073126793e-03 }
            -
               depth: 3
               value: 0.
               norm_class_idx: 0
               splits:
                  - { var:33, quality:1.3006600952148438e+02,
                      le:5.0093247555196285e-03 }
            -
               depth: 4
               value: 0.
               norm_class_idx: 0
               splits:
                  - { var:125, quality:1.4159928894042969e+02,
                      le:8.3519490435719490e-03 }
            -
               depth: 5
               value: 0.
               norm_class_idx: 0
            -
               depth: 5
               value: 1.
               norm_class_idx: 1
            -
               depth: 4
               value: 3.
               norm_class_idx: 3
               splits:
                  - { var:125, quality:8.6000003814697266e+00,
                      le:2.1881838620174676e-04 }
            -
               depth: 5
               value: 3.
               norm_class_idx: 3
            -
               depth: 5
               value: 9.
               norm_class_idx: 9
            -
               depth: 3
               value: 1.
               norm_class_idx: 1
               splits:
                  - { var:153, quality:1.9077296447753906e+02,
                      le:5.5867666378617287e-03 }
            -
               depth: 4
               value: 1.
               norm_class_idx: 1
               splits:
                  - { var:150, quality:1.5473484802246094e+02,
                      le:4.1080424562096596e-03 }
            -
               depth: 5
               value: 1.
               norm_class_idx: 1
            -
               depth: 5
               value: 1.
               norm_class_idx: 1
            -
               depth: 4
               value: 0.
               norm_class_idx: 0
               splits:
                  - { var:54, quality:53., le:1.9801979942712933e-04 }
            -
               depth: 5
               value: 1.
               norm_class_idx: 1
            -
               depth: 5
               value: 0.
               norm_class_idx: 0
      -
         nodes:
            -
               depth: 0
               value: 3.
               norm_class_idx: 3
               splits:
                  - { var:23, quality:3.6770901489257812e+02,
                      le:4.9959216266870499e-02 }
            -
               depth: 1
               value: 3.
               norm_class_idx: 3
               splits:
                  - { var:23, quality:2.8547320556640625e+02,
                      le:2.8342846781015396e-02 }
            -
               depth: 2
               value: 3.
               norm_class_idx: 3
               splits:
                  - { var:128, quality:2.8392034912109375e+02,
                      le:7.4422138277441263e-04 }
            -
               depth: 3
               value: 3.
               norm_class_idx: 3
               splits:
                  - { var:57, quality:2.8306127929687500e+02,
                      le:8.8105727627407759e-05 }
            -
               depth: 4
               value: 7.
               norm_class_idx: 7
               splits:
                  - { var:137, quality:2.1609570312500000e+02,
                      le:2.0663244649767876e-03 }
            -
               depth: 5
               value: 9.
               norm_class_idx: 9
            -
               depth: 5
               value: 7.
               norm_class_idx: 7
            -
               depth: 4
               value: 3.
               norm_class_idx: 3
               splits:
                  - { var:137, quality:2.1267678833007812e+02,
                      le:3.8792245322838426e-04 }
            -
               depth: 5
               value: 9.
               norm_class_idx: 9
            -
               depth: 5
               value: 3.
               norm_class_idx: 3
            -
               depth: 3
               value: 1.
               norm_class_idx: 1
               splits:
                  - { var:83, quality:1.6340554809570312e+02,
                      le:3.5156332887709141e-04 }
            -
               depth: 4
               value: 1.
               norm_class_idx: 1
               splits:
                  - { var:102, quality:1.0719642639160156e+02,
                      le:7.7896118164062500e-03 }
            -
               depth: 5
               value: 1.
               norm_class_idx: 1
            -
               depth: 5
               value: 0.
               norm_class_idx: 0
            -
               depth: 4
               value: 0.
               norm_class_idx: 0
               splits:
                  - { var:90, quality:8.6307693481445312e+01,
                      le:3.5884995013475418e-02 }
            -
               depth: 5
               value: 0.
               norm_class_idx: 0
            -
               depth: 5
               value: 1.
               norm_class_idx: 1
            -
               depth: 2
               value: 8.
               norm_class_idx: 8
               splits:
                  - { var:91, quality:2.2494758605957031e+02,
                      le:1.0616069193929434e-03 }
            -
               depth: 3
               value: 8.
               norm_class_idx: 8
               splits:
                  - { var:99, quality:2.1389437866210938e+02,
                      le:3.3070279750972986e-03 }
            -
               depth: 4
               value: 2.
               norm_class_idx: 2
               splits:
                  - { var:100, quality:4.0796295166015625e+01,
                      le:2.1246070973575115e-03 }
            -
               depth: 5
               value: 4.
               norm_class_idx: 4
            -
               depth: 5
               value: 2.
               norm_class_idx: 2
            -
               depth: 4
               value: 8.
               norm_class_idx: 8
               splits:
                  - { var:27, quality:1.9743029785156250e+02,
                      le:7.0975730195641518e-03 }
            -
               depth: 5
               value: 2.
               norm_class_idx: 2
            -
               depth: 5
               value: 8.
               norm_class_idx: 8
            -
               depth: 3
               value: 0.
               norm_class_idx: 0
               splits:
                  - { var:131, quality:1.1996274566650391e+02,
                      le:2.8237441438250244e-04 }
            -
               depth: 4
               value: 7.
               norm_class_idx: 7
               splits:
                  - { var:107, quality:6.8339622497558594e+01,
                      le:1.6762357205152512e-02 }
            -
               depth: 5
               value: 4.
               norm_class_idx: 4
            -
               depth: 5
               value: 7.
               norm_class_idx: 7
            -
               depth: 4
               value: 0.
               norm_class_idx: 0
               splits:
                  - { var:13, quality:1.5242124938964844e+02,
                      le:4.2037917301058769e-03 }
            -
               depth: 5
               value: 0.
               norm_class_idx: 0
            -
               depth: 5
               value: 1.
               norm_class_idx: 1
            -
               depth: 1
               value: 6.
               norm_class_idx: 6
               splits:
                  - { var:29, quality:2.7482754516601562e+02,
                      le:1.8974591512233019e-03 }
            -
               depth: 2
               value: 6.
               norm_class_idx: 6
               splits:
                  - { var:123, quality:2.1231594848632812e+02,
                      le:1.7649322398938239e-04 }
            -
               depth: 3
               value: 7.
               norm_class_idx: 7
               splits:
                  - { var:102, quality:3.0344827651977539e+01,
                      le:7.4830632656812668e-03 }
            -
               depth: 4
               value: 7.
               norm_class_idx: 7
               splits:
                  - { var:30, quality:25., le:3.9123633177950978e-04 }
            -
               depth: 5
               value: 0.
               norm_class_idx: 0
            -
               depth: 5
               value: 7.
               norm_class_idx: 7
            -
               depth: 4
               value: 6.
               norm_class_idx: 6
            -
               depth: 3
               value: 6.
               norm_class_idx: 6
               splits:
                  - { var:79, quality:1.9741093444824219e+02,
                      le:8.4368018433451653e-03 }
            -
               depth: 4
               value: 6.
               norm_class_idx: 6
               splits:
                  - { var:165, quality:1.8166667175292969e+02,
                      le:3.8473447784781456e-03 }
            -
               depth: 5
               value: 6.
               norm_class_idx: 6
            -
               depth: 5
               value: 6.
               norm_class_idx: 6
            -
               depth: 4
               value: 6.
               norm_class_idx: 6
               splits:
                  - { var:33, quality:20., le:3.1421837047673762e-04 }
            -
               depth: 5
               value: 6.
               norm_class_idx: 6
            -
               depth: 5
               value: 7.
               norm_class_idx: 7
            -
               depth: 2
               value: 2.
               norm_class_idx: 2
               splits:
                  - { var:105, quality:9.1800003051757812e+01,
                      le:1.1589299887418747e-02 }
            -
               depth: 3
               value: 3.
               norm_class_idx: 3
            -
               depth: 3
               value: 2.
               norm_class_idx: 2
      -
         nodes:
            -
               depth: 0
               value: 6.
               norm_class_idx: 6
               splits:
                  - { var:16, quality:3.9396273803710938e+02,
                      le:6.6587945912033319e-04 }
            -
               depth: 1
               value: 6.
               norm_class_idx: 6
               splits:
                  - { var:33, quality:3.3378018188476562e+02,
                      le:2.4498654529452324e-03 }
            -
               depth: 2
               value: 6.
               norm_class_idx: 6
               splits:
                  - { var:143, quality:2.7079235839843750e+02,
                      le:5.5730678141117096e-03 }
            -
               depth: 3
               value: 6.
               norm_class_idx: 6
               splits:
                  - { var:126, quality:2.0680052185058594e+02,
                      le:1.2303404510021210e-03 }
            -
               depth: 4
               value: 6.
               norm_class_idx: 6
               splits:
                  - { var:78, quality:1.1574350738525391e+02,
                      le:5.9531675651669502e-03 }
            -
               depth: 5
               value: 0.
               norm_class_idx: 0
            -
               depth: 5
               value: 6.
               norm_class_idx: 6
            -
               depth: 4
               value: 6.
               norm_class_idx: 6
               splits:
                  - { var:108, quality:1.4866667175292969e+02,
                      le:1.4819249510765076e-02 }
            -
               depth: 5
               value: 0.
               norm_class_idx: 0
            -
               depth: 5
               value: 6.
               norm_class_idx: 6
            -
               depth: 3
               value: 8.
               norm_class_idx: 8
               splits:
                  - { var:22, quality:2.3010021972656250e+02,
                      le:2.5905326008796692e-02 }
            -
               depth: 4
               value: 8.
               norm_class_idx: 8
               splits:
                  - { var:135, quality:1.5998146057128906e+02,
                      le:9.2936803412158042e-05 }
            -
               depth: 5
               value: 8.
               norm_class_idx: 8
            -
               depth: 5
               value: 3.
               norm_class_idx: 3
            -
               depth: 4
               value: 2.
               norm_class_idx: 2
               splits:
                  - { var:100, quality:1.0932432556152344e+02,
                      le:6.6398549824953079e-03 }
            -
               depth: 5
               value: 2.
               norm_class_idx: 2
            -
               depth: 5
               value: 8.
               norm_class_idx: 8
            -
               depth: 2
               value: 4.
               norm_class_idx: 4
               splits:
                  - { var:21, quality:2.7729284667968750e+02,
                      le:1.4051522128283978e-02 }
            -
               depth: 3
               value: 4.
               norm_class_idx: 4
               splits:
                  - { var:77, quality:2.4047998046875000e+02,
                      le:6.8870525865349919e-05 }
            -
               depth: 4
               value: 9.
               norm_class_idx: 9
               splits:
                  - { var:91, quality:1.6577708435058594e+02,
                      le:3.5810910165309906e-02 }
            -
               depth: 5
               value: 9.
               norm_class_idx: 9
            -
               depth: 5
               value: 2.
               norm_class_idx: 2
            -
               depth: 4
               value: 4.
               norm_class_idx: 4
               splits:
                  - { var:29, quality:1.9043740844726562e+02,
                      le:4.2866542935371399e-03 }
            -
               depth: 5
               value: 4.
               norm_class_idx: 4
            -
               depth: 5
               value: 3.
               norm_class_idx: 3
            -
               depth: 3
               value: 7.
               norm_class_idx: 7
               splits:
                  - { var:109, quality:1.3368280029296875e+02,
                      le:2.5894735008478165e-03 }
            -
               depth: 4
               value: 7.
               norm_class_idx: 7
               splits:
                  - { var:298, quality:124., le:1.0724016465246677e-03 }
            -
               depth: 5
               value: 9.
               norm_class_idx: 9
            -
               depth: 5
               value: 7.
               norm_class_idx: 7
            -
               depth: 4
               value: 9.
               norm_class_idx: 9
               splits:
                  - { var:177, quality:1.7470588684082031e+01,
                      le:1.0418479796499014e-03 }
            -
               depth: 5
               value: 4.
               norm_class_idx: 4
            -
               depth: 5
               value: 9.
               norm_class_idx: 9
            -
               depth: 1
               value: 1.
               norm_class_idx: 1
               splits:
                  - { var:49, quality:2.5713375854492188e+02,
                      le:3.1619431683793664e-04 }
            -
               depth: 2
               value: 1.
               norm_class_idx: 1
               splits:
                  - { var:86, quality:1.9289146423339844e+02,
                      le:3.8691813824698329e-04 }
            -
               depth: 3
               value: 1.
               norm_class_idx: 1
               splits:
                  - { var:102, quality:1.9199502563476562e+02,
                      le:5.9938384220004082e-03 }
            -
               depth: 4
               value: 1.
               norm_class_idx: 1
               splits:
                  - { var:169, quality:1.8771388244628906e+02,
                      le:8.6777396500110626e-03 }
            -
               depth: 5
               value: 1.
               norm_class_idx: 1
            -
               depth: 5
               value: 0.
               norm_class_idx: 0
            -
               depth: 4
               value: 0.
               norm_class_idx: 0
            -
               depth: 3
               value: 0.
               norm_class_idx: 0
               splits:
                  - { var:143, quality:20., le:2.6570628397166729e-03 }
            -
               depth: 4
               value: 1.
               norm_class_idx: 1
            -
               depth: 4
               value: 0.
               norm_class_idx: 0
            -
               depth: 2
               value: 0.
               norm_class_idx: 0
               splits:
                  - { var:147, quality:1.0421414184570312e+02,
                      le:3.1435335986316204e-03 }
            -
               depth: 3
               value: 1.
               norm_class_idx: 1
               splits:
                  - { var:9, quality:15., le:4.4345899368636310e-04 }
            -
               depth: 4
               value: 1.
               norm_class_idx: 1
            -
               depth: 4
               value: 0.
               norm_class_idx: 0
            -
               depth: 3
               value: 0.
               norm_class_idx: 0
               splits:
                  - { var:74, quality:97., le:2.9720410238951445e-03 }
            -
               depth: 4
               value: 0.
               norm_class_idx: 0
            -
               depth: 4
               value: 0.
               norm_class_idx: 0
      -
         nodes:
            -
               depth: 0
               value: 6.
               norm_class_idx: 6
               splits:
                  - { var:13, quality:3.8272875976562500e+02,
                      le:3.4206570126116276e-04 }
            -
               depth: 1
               value: 6.
               norm_class_idx: 6
               splits:
                  - { var:166, quality:3.4321319580078125e+02,
                      le:2.3619870189577341e-03 }
            -
               depth: 2
               value: 8.
               norm_class_idx: 8
               splits:
                  - { var:21, quality:1.6936421203613281e+02,
                      le:3.8379430770874023e-03 }
            -
               depth: 3
               value: 8.
               norm_class_idx: 8
               splits:
                  - { var:77, quality:1.6654789733886719e+02,
                      le:2.9023608658462763e-03 }
            -
               depth: 4
               value: 4.
               norm_class_idx: 4
               splits:
                  - { var:60, quality:6.7428569793701172e+00,
                      le:6.3488828018307686e-03 }
            -
               depth: 5
               value: 4.
               norm_class_idx: 4
            -
               depth: 5
               value: 2.
               norm_class_idx: 2
            -
               depth: 4
               value: 8.
               norm_class_idx: 8
               splits:
                  - { var:109, quality:167., le:2.8406351804733276e-02 }
            -
               depth: 5
               value: 8.
               norm_class_idx: 8
            -
               depth: 5
               value: 2.
               norm_class_idx: 2
            -
               depth: 3
               value: 0.
               norm_class_idx: 0
               splits:
                  - { var:90, quality:2.4692308425903320e+01,
                      le:1.2468256056308746e-02 }
            -
               depth: 4
               value: 9.
               norm_class_idx: 9
               splits:
                  - { var:144, quality:9.8666667938232422e+00,
                      le:6.7976918071508408e-03 }
            -
               depth: 5
               value: 9.
               norm_class_idx: 9
            -
               depth: 5
               value: 3.
               norm_class_idx: 3
            -
               depth: 4
               value: 0.
               norm_class_idx: 0
            -
               depth: 2
               value: 6.
               norm_class_idx: 6
               splits:
                  - { var:107, quality:3.3640075683593750e+02,
                      le:9.7833862528204918e-03 }
            -
               depth: 3
               value: 3.
               norm_class_idx: 3
               splits:
                  - { var:84, quality:2.5465278625488281e+02,
                      le:5.0632912461878732e-05 }
            -
               depth: 4
               value: 9.
               norm_class_idx: 9
               splits:
                  - { var:154, quality:2.1146093750000000e+02,
                      le:6.2571680173277855e-03 }
            -
               depth: 5
               value: 7.
               norm_class_idx: 7
            -
               depth: 5
               value: 9.
               norm_class_idx: 9
            -
               depth: 4
               value: 4.
               norm_class_idx: 4
               splits:
                  - { var:102, quality:1.4750028991699219e+02,
                      le:6.1914585530757904e-03 }
            -
               depth: 5
               value: 4.
               norm_class_idx: 4
            -
               depth: 5
               value: 3.
               norm_class_idx: 3
            -
               depth: 3
               value: 6.
               norm_class_idx: 6
               splits:
                  - { var:31, quality:2.8933599853515625e+02,
                      le:1.0204256977885962e-03 }
            -
               depth: 4
               value: 6.
               norm_class_idx: 6
               splits:
                  - { var:162, quality:2.2564454650878906e+02,
                      le:3.0119507573544979e-03 }
            -
               depth: 5
               value: 0.
               norm_class_idx: 0
            -
               depth: 5
               value: 6.
               norm_class_idx: 6
            -
               depth: 4
               value: 2.
               norm_class_idx: 2
               splits:
                  - { var:278, quality:1.3897877502441406e+02,
                      le:3.0893355142325163e-04 }
            -
               depth: 5
               value: 2.
               norm_class_idx: 2
            -
               depth: 5
               value: 7.
               norm_class_idx: 7
            -
               depth: 1
               value: 1.
               norm_class_idx: 1
               splits:
                  - { var:119, quality:2.0876766967773438e+02,
                      le:7.0159547030925751e-03 }
            -
               depth: 2
               value: 1.
               norm_class_idx: 1
               splits:
                  - { var:128, quality:2.0174218750000000e+02,
                      le:1.3694136869162321e-03 }
            -
               depth: 3
               value: 0.
               norm_class_idx: 0
               splits:
                  - { var:90, quality:8.1268966674804688e+01,
                      le:3.5873562097549438e-02 }
            -
               depth: 4
               value: 0.
               norm_class_idx: 0
               splits:
                  - { var:305, quality:5.7034481048583984e+01,
                      le:5.9482166543602943e-03 }
            -
               depth: 5
               value: 0.
               norm_class_idx: 0
            -
               depth: 5
               value: 1.
               norm_class_idx: 1
            -
               depth: 4
               value: 1.
               norm_class_idx: 1
               splits:
                  - { var:265, quality:29., le:1.2658955529332161e-03 }
            -
               depth: 5
               value: 1.
               norm_class_idx: 1
            -
               depth: 5
               value: 0.
               norm_class_idx: 0
            -
               depth: 3
               value: 1.
               norm_class_idx: 1
               splits:
                  - { var:89, quality:1.7267857360839844e+02,
                      le:3.9100681897252798e-04 }
            -
               depth: 4
               value: 1.
               norm_class_idx: 1
               splits:
                  - { var:16, quality:168., le:2.4407170712947845e-03 }
            -
               depth: 5
               value: 0.
               norm_class_idx: 0
            -
               depth: 5
               value: 1.
               norm_class_idx: 1
            -
               depth: 4
               value: 0.
               norm_class_idx: 0
               splits:
                  - { var:270, quality:14., le:5.4165429901331663e-04 }
            -
               depth: 5
               value: 1.
               norm_class_idx: 1
            -
               depth: 5
               value: 0.
               norm_class_idx: 0
            -
               depth: 2
               value: 0.
               norm_class_idx: 0
               splits:
                  - { var:121, quality:53., le:7.0724901743233204e-03 }
            -
               depth: 3
               value: 1.
               norm_class_idx: 1
            -
               depth: 3
               value: 0.
               norm_class_idx: 0
      -
         nodes:
            -
               depth: 0
               value: 7.
               norm_class_idx: 7
               splits:
                  - { var:19, quality:4.2832949829101562e+02,
                      le:1.8715267069637775e-03 }
            -
               depth: 1
               value: 7.
               norm_class_idx: 7
               splits:
                  - { var:307, quality:3.8393963623046875e+02,
                      le:7.7339522249531001e-05 }
            -
               depth: 2
               value: 6.
               norm_class_idx: 6
               splits:
                  - { var:100, quality:3.1902383422851562e+02,
                      le:5.6913737207651138e-03 }
            -
               depth: 3
               value: 6.
               norm_class_idx: 6
               splits:
                  - { var:165, quality:2.0428971862792969e+02,
                      le:2.2861799225211143e-03 }
            -
               depth: 4
               value: 0.
               norm_class_idx: 0
            -
               depth: 4
               value: 6.
               norm_class_idx: 6
               splits:
                  - { var:84, quality:2.0513510131835938e+02,
                      le:1.2675178004428744e-03 }
            -
               depth: 5
               value: 6.
               norm_class_idx: 6
            -
               depth: 5
               value: 6.
               norm_class_idx: 6
            -
               depth: 3
               value: 8.
               norm_class_idx: 8
               splits:
                  - { var:124, quality:1.3146464538574219e+02,
                      le:1.9697207026183605e-03 }
            -
               depth: 4
               value: 8.
               norm_class_idx: 8
               splits:
                  - { var:298, quality:132., le:9.9632535129785538e-03 }
            -
               depth: 5
               value: 8.
               norm_class_idx: 8
            -
               depth: 5
               value: 9.
               norm_class_idx: 9
            -
               depth: 4
               value: 6.
               norm_class_idx: 6
            -
               depth: 2
               value: 7.
               norm_class_idx: 7
               splits:
                  - { var:29, quality:3.0593795776367188e+02,
                      le:5.7993009686470032e-03 }
            -
               depth: 3
               value: 7.
               norm_class_idx: 7
               splits:
                  - { var:90, quality:2.4075227355957031e+02,
                      le:3.1250191386789083e-04 }
            -
               depth: 4
               value: 5.
               norm_class_idx: 5
               splits:
                  - { var:32, quality:1.9077220153808594e+02,
                      le:3.6081916186958551e-03 }
            -
               depth: 5
               value: 2.
               norm_class_idx: 2
            -
               depth: 5
               value: 5.
               norm_class_idx: 5
            -
               depth: 4
               value: 7.
               norm_class_idx: 7
               splits:
                  - { var:114, quality:2.0318164062500000e+02,
                      le:2.7156099677085876e-03 }
            -
               depth: 5
               value: 4.
               norm_class_idx: 4
            -
               depth: 5
               value: 7.
               norm_class_idx: 7
            -
               depth: 3
               value: 9.
               norm_class_idx: 9
               splits:
                  - { var:94, quality:1.8867559814453125e+02,
                      le:1.7502330243587494e-02 }
            -
               depth: 4
               value: 9.
               norm_class_idx: 9
               splits:
                  - { var:104, quality:9.2416053771972656e+01,
                      le:1.6025035874918103e-03 }
            -
               depth: 5
               value: 2.
               norm_class_idx: 2
            -
               depth: 5
               value: 9.
               norm_class_idx: 9
            -
               depth: 4
               value: 9.
               norm_class_idx: 9
               splits:
                  - { var:85, quality:1.3572463989257812e+02,
                      le:1.4572811778634787e-03 }
            -
               depth: 5
               value: 9.
               norm_class_idx: 9
            -
               depth: 5
               value: 4.
               norm_class_idx: 4
            -
               depth: 1
               value: 0.
               norm_class_idx: 0
               splits:
                  - { var:94, quality:2.6729718017578125e+02,
                      le:4.9671144224703312e-03 }
            -
               depth: 2
               value: 0.
               norm_class_idx: 0
               splits:
                  - { var:140, quality:2.6576037597656250e+02,
                      le:4.0697162039577961e-03 }
            -
               depth: 3
               value: 0.
               norm_class_idx: 0
               splits:
                  - { var:56, quality:2.0565921020507812e+02,
                      le:2.3310023243539035e-04 }
            -
               depth: 4
               value: 1.
               norm_class_idx: 1
               splits:
                  - { var:80, quality:1.4133333206176758e+01,
                      le:2.4019731208682060e-03 }
            -
               depth: 5
               value: 1.
               norm_class_idx: 1
            -
               depth: 5
               value: 0.
               norm_class_idx: 0
            -
               depth: 4
               value: 0.
               norm_class_idx: 0
               splits:
                  - { var:22, quality:1.9901010131835938e+02,
                      le:7.7269403263926506e-03 }
            -
               depth: 5
               value: 1.
               norm_class_idx: 1
            -
               depth: 5
               value: 0.
               norm_class_idx: 0
            -
               depth: 3
               value: 1.
               norm_class_idx: 1
               splits:
                  - { var:98, quality:8.9089889526367188e+01,
                      le:4.4613104546442628e-04 }
            -
               depth: 4
               value: 1.
               norm_class_idx: 1
               splits:
                  - { var:161, quality:8.7022727966308594e+01,
                      le:8.9686096180230379e-04 }
            -
               depth: 5
               value: 0.
               norm_class_idx: 0
            -
               depth: 5
               value: 1.
               norm_class_idx: 1
            -
               depth: 4
               value: 0.
               norm_class_idx: 0
            -
               depth: 2
               value: 1.
               norm_class_idx: 1
               splits:
                  - { var:13, quality:1.0776905059814453e+02,
                      le:1.3984577963128686e-03 }
            -
               depth: 3
               value: 0.
               norm_class_idx: 0
            -
               depth: 3
               value: 1.
               norm_class_idx: 1
               splits:
                  - { var:175, quality:1.0340000152587891e+02,
                      le:4.1665160097181797e-03 }
            -
               depth: 4
               value: 1.
               norm_class_idx: 1
            -
               depth: 4
               value: 1.
               norm_class_idx: 1
      -
         nodes:
            -
               depth: 0
               value: 6.
               norm_class_idx: 6
               splits:
                  - { var:19, quality:4.2899191284179688e+02,
                      le:1.8499747384339571e-03 }
            -
               depth: 1
               value: 6.
               norm_class_idx: 6
               splits:
                  - { var:58, quality:3.3141296386718750e+02,
                      le:5.8004590682685375e-03 }
            -
               depth: 2
               value: 5.
               norm_class_idx: 5
               splits:
                  - { var:77, quality:2.6835327148437500e+02,
                      le:4.1453869198448956e-04 }
            -
               depth: 3
               value: 9.
               norm_class_idx: 9
               splits:
                  - { var:22, quality:2.1874467468261719e+02,
                      le:1.8380768597126007e-02 }
            -
               depth: 4
               value: 7.
               norm_class_idx: 7
               splits:
                  - { var:140, quality:1.4271543884277344e+02,
                      le:6.1149783432483673e-03 }
            -
               depth: 5
               value: 2.
               norm_class_idx: 2
            -
               depth: 5
               value: 7.
               norm_class_idx: 7
            -
               depth: 4
               value: 9.
               norm_class_idx: 9
               splits:
                  - { var:31, quality:1.6146804809570312e+02,
                      le:6.6438340581953526e-03 }
            -
               depth: 5
               value: 5.
               norm_class_idx: 5
            -
               depth: 5
               value: 9.
               norm_class_idx: 9
            -
               depth: 3
               value: 5.
               norm_class_idx: 5
               splits:
                  - { var:97, quality:1.9284539794921875e+02,
                      le:1.0771569795906544e-02 }
            -
               depth: 4
               value: 5.
               norm_class_idx: 5
               splits:
                  - { var:114, quality:1.6288008117675781e+02,
                      le:4.7337875002995133e-04 }
            -
               depth: 5
               value: 5.
               norm_class_idx: 5
