%YAML:1.0
---
opencv_ml_rtrees:
   format: 3
   is_classifier: 1
   var_all: 309
   var_count: 308
   ord_var_count: 308
   cat_var_count: 1
   training_params:
      use_surrogates: 0
      max_categories: 10
      regression_accuracy: 0.
      max_depth: 5
      min_sample_count: 10
      cross_validation_folds: 0
      nactive_vars: 0
   global_var_idx: 1
   var_idx: [ 0, 1, 2, 3, 4, 5, 6, 7, 8, 9, 10, 11, 12, 13, 14, 15, 16,
       17, 18, 19, 20, 21, 22, 23, 24, 25, 26, 27, 28, 29, 30, 31, 32,
       33, 34, 35, 36, 37, 38, 39, 40, 41, 42, 43, 44, 45, 46, 47, 48,
       49, 50, 51, 52, 53, 54, 55, 56, 57, 58, 59, 60, 61, 62, 63, 64,
       65, 66, 67, 68, 69, 70, 71, 72, 73, 74, 75, 76, 77, 78, 79, 80,
       81, 82, 83, 84, 85, 86, 87, 88, 89, 90, 91, 92, 93, 94, 95, 96,
       97, 98, 99, 100, 101, 102, 103, 104, 105, 106, 107, 108, 109, 110,
       111, 112, 113, 114, 115, 116, 117, 118, 119, 120, 121, 122, 123,
       124, 125, 126, 127, 128, 129, 130, 131, 132, 133, 134, 135, 136,
       137, 138, 139, 140, 141, 142, 143, 144, 145, 146, 147, 148, 149,
       150, 151, 152, 153, 154, 155, 156, 157, 158, 159, 160, 161, 162,
       163, 164, 165, 166, 167, 168, 169, 170, 171, 172, 173, 174, 175,
       176, 177, 178, 179, 180, 181, 182, 183, 184, 185, 186, 187, 188,
       189, 190, 191, 192, 193, 194, 195, 196, 197, 198, 199, 200, 201,
       202, 203, 204, 205, 206, 207, 208, 209, 210, 211, 212, 213, 214,
       215, 216, 217, 218, 219, 220, 221, 222, 223, 224, 225, 226, 227,
       228, 229, 230, 231, 232, 233, 234, 235, 236, 237, 238, 239, 240,
       241, 242, 243, 244, 245, 246, 247, 248, 249, 250, 251, 252, 253,
       254, 255, 256, 257, 258, 259, 260, 261, 262, 263, 264, 265, 266,
       267, 268, 269, 270, 271, 272, 273, 274, 275, 276, 277, 278, 279,
       280, 281, 282, 283, 284, 285, 286, 287, 288, 289, 290, 291, 292,
       293, 294, 295, 296, 297, 298, 299, 300, 301, 302, 303, 304, 305,
       306, 307 ]
   var_type: [ 0, 0, 0, 0, 0, 0, 0, 0, 0, 0, 0, 0, 0, 0, 0, 0, 0, 0, 0,
       0, 0, 0, 0, 0, 0, 0, 0, 0, 0, 0, 0, 0, 0, 0, 0, 0, 0, 0, 0, 0, 0,
       0, 0, 0, 0, 0, 0, 0, 0, 0, 0, 0, 0, 0, 0, 0, 0, 0, 0, 0, 0, 0, 0,
       0, 0, 0, 0, 0, 0, 0, 0, 0, 0, 0, 0, 0, 0, 0, 0, 0, 0, 0, 0, 0, 0,
       0, 0, 0, 0, 0, 0, 0, 0, 0, 0, 0, 0, 0, 0, 0, 0, 0, 0, 0, 0, 0, 0,
       0, 0, 0, 0, 0, 0, 0, 0, 0, 0, 0, 0, 0, 0, 0, 0, 0, 0, 0, 0, 0, 0,
       0, 0, 0, 0, 0, 0, 0, 0, 0, 0, 0, 0, 0, 0, 0, 0, 0, 0, 0, 0, 0, 0,
       0, 0, 0, 0, 0, 0, 0, 0, 0, 0, 0, 0, 0, 0, 0, 0, 0, 0, 0, 0, 0, 0,
       0, 0, 0, 0, 0, 0, 0, 0, 0, 0, 0, 0, 0, 0, 0, 0, 0, 0, 0, 0, 0, 0,
       0, 0, 0, 0, 0, 0, 0, 0, 0, 0, 0, 0, 0, 0, 0, 0, 0, 0, 0, 0, 0, 0,
       0, 0, 0, 0, 0, 0, 0, 0, 0, 0, 0, 0, 0, 0, 0, 0, 0, 0, 0, 0, 0, 0,
       0, 0, 0, 0, 0, 0, 0, 0, 0, 0, 0, 0, 0, 0, 0, 0, 0, 0, 0, 0, 0, 0,
       0, 0, 0, 0, 0, 0, 0, 0, 0, 0, 0, 0, 0, 0, 0, 0, 0, 0, 0, 0, 0, 0,
       0, 0, 0, 0, 0, 0, 0, 0, 0, 0, 0, 0, 0, 0, 0, 0, 0, 0, 0, 0, 0, 0,
       0, 0, 0, 1 ]
   cat_ofs: [ 0, 0, 0, 0, 0, 0, 0, 0, 0, 0, 0, 0, 0, 0, 0, 0, 0, 0, 0, 0,
       0, 0, 0, 0, 0, 0, 0, 0, 0, 0, 0, 0, 0, 0, 0, 0, 0, 0, 0, 0, 0, 0,
       0, 0, 0, 0, 0, 0, 0, 0, 0, 0, 0, 0, 0, 0, 0, 0, 0, 0, 0, 0, 0, 0,
       0, 0, 0, 0, 0, 0, 0, 0, 0, 0, 0, 0, 0, 0, 0, 0, 0, 0, 0, 0, 0, 0,
       0, 0, 0, 0, 0, 0, 0, 0, 0, 0, 0, 0, 0, 0, 0, 0, 0, 0, 0, 0, 0, 0,
       0, 0, 0, 0, 0, 0, 0, 0, 0, 0, 0, 0, 0, 0, 0, 0, 0, 0, 0, 0, 0, 0,
       0, 0, 0, 0, 0, 0, 0, 0, 0, 0, 0, 0, 0, 0, 0, 0, 0, 0, 0, 0, 0, 0,
       0, 0, 0, 0, 0, 0, 0, 0, 0, 0, 0, 0, 0, 0, 0, 0, 0, 0, 0, 0, 0, 0,
       0, 0, 0, 0, 0, 0, 0, 0, 0, 0, 0, 0, 0, 0, 0, 0, 0, 0, 0, 0, 0, 0,
       0, 0, 0, 0, 0, 0, 0, 0, 0, 0, 0, 0, 0, 0, 0, 0, 0, 0, 0, 0, 0, 0,
       0, 0, 0, 0, 0, 0, 0, 0, 0, 0, 0, 0, 0, 0, 0, 0, 0, 0, 0, 0, 0, 0,
       0, 0, 0, 0, 0, 0, 0, 0, 0, 0, 0, 0, 0, 0, 0, 0, 0, 0, 0, 0, 0, 0,
       0, 0, 0, 0, 0, 0, 0, 0, 0, 0, 0, 0, 0, 0, 0, 0, 0, 0, 0, 0, 0, 0,
       0, 0, 0, 0, 0, 0, 0, 0, 0, 0, 0, 0, 0, 0, 0, 0, 0, 0, 0, 0, 0, 0,
       0, 0, 0, 0, 0, 0, 0, 0, 0, 0, 0, 0, 0, 0, 0, 0, 0, 0, 0, 0, 0, 0,
       0, 0, 0, 0, 0, 0, 0, 0, 0, 0, 0, 0, 0, 0, 0, 0, 0, 0, 0, 0, 0, 0,
       0, 0, 0, 0, 0, 0, 0, 0, 0, 0, 0, 0, 0, 0, 0, 0, 0, 0, 0, 0, 0, 0,
       0, 0, 0, 0, 0, 0, 0, 0, 0, 0, 0, 0, 0, 0, 0, 0, 0, 0, 0, 0, 0, 0,
       0, 0, 0, 0, 0, 0, 0, 0, 0, 0, 0, 0, 0, 0, 0, 0, 0, 0, 0, 0, 0, 0,
       0, 0, 0, 0, 0, 0, 0, 0, 0, 0, 0, 0, 0, 0, 0, 0, 0, 0, 0, 0, 0, 0,
       0, 0, 0, 0, 0, 0, 0, 0, 0, 0, 0, 0, 0, 0, 0, 0, 0, 0, 0, 0, 0, 0,
       0, 0, 0, 0, 0, 0, 0, 0, 0, 0, 0, 0, 0, 0, 0, 0, 0, 0, 0, 0, 0, 0,
       0, 0, 0, 0, 0, 0, 0, 0, 0, 0, 0, 0, 0, 0, 0, 0, 0, 0, 0, 0, 0, 0,
       0, 0, 0, 0, 0, 0, 0, 0, 0, 0, 0, 0, 0, 0, 0, 0, 0, 0, 0, 0, 0, 0,
       0, 0, 0, 0, 0, 0, 0, 0, 0, 0, 0, 0, 0, 0, 0, 0, 0, 0, 0, 0, 0, 0,
       0, 0, 0, 0, 0, 0, 0, 0, 0, 0, 0, 0, 0, 0, 0, 0, 0, 0, 0, 0, 0, 0,
       0, 0, 0, 0, 0, 0, 0, 0, 0, 0, 0, 0, 0, 0, 0, 0, 0, 0, 0, 0, 0, 0,
       0, 0, 0, 0, 0, 0, 0, 0, 0, 0, 0, 0, 0, 0, 0, 0, 0, 0, 0, 0, 0, 0,
       0, 0 ]
   class_labels: [ 0, 1, 2, 3, 4, 5, 6, 7, 8, 9 ]
   missing_subst: [ 0., 0., 0., 0., 0., 0., 0., 0., 0., 0., 0., 0., 0.,
       0., 0., 0., 0., 0., 0., 0., 0., 0., 0., 0., 0., 0., 0., 0., 0.,
       0., 0., 0., 0., 0., 0., 0., 0., 0., 0., 0., 0., 0., 0., 0., 0.,
       0., 0., 0., 0., 0., 0., 0., 0., 0., 0., 0., 0., 0., 0., 0., 0.,
       0., 0., 0., 0., 0., 0., 0., 0., 0., 0., 0., 0., 0., 0., 0., 0.,
       0., 0., 0., 0., 0., 0., 0., 0., 0., 0., 0., 0., 0., 0., 0., 0.,
       0., 0., 0., 0., 0., 0., 0., 0., 0., 0., 0., 0., 0., 0., 0., 0.,
       0., 0., 0., 0., 0., 0., 0., 0., 0., 0., 0., 0., 0., 0., 0., 0.,
       0., 0., 0., 0., 0., 0., 0., 0., 0., 0., 0., 0., 0., 0., 0., 0.,
       0., 0., 0., 0., 0., 0., 0., 0., 0., 0., 0., 0., 0., 0., 0., 0.,
       0., 0., 0., 0., 0., 0., 0., 0., 0., 0., 0., 0., 0., 0., 0., 0.,
       0., 0., 0., 0., 0., 0., 0., 0., 0., 0., 0., 0., 0., 0., 0., 0.,
       0., 0., 0., 0., 0., 0., 0., 0., 0., 0., 0., 0., 0., 0., 0., 0.,
       0., 0., 0., 0., 0., 0., 0., 0., 0., 0., 0., 0., 0., 0., 0., 0.,
       0., 0., 0., 0., 0., 0., 0., 0., 0., 0., 0., 0., 0., 0., 0., 0.,
       0., 0., 0., 0., 0., 0., 0., 0., 0., 0., 0., 0., 0., 0., 0., 0.,
       0., 0., 0., 0., 0., 0., 0., 0., 0., 0., 0., 0., 0., 0., 0., 0.,
       0., 0., 0., 0., 0., 0., 0., 0., 0., 0., 0., 0., 0., 0., 0., 0.,
       0., 0., 0., 0., 0., 0., 0., 0., 0., 0., 0., 0., 0., 0., 0., 0.,
       0., 0., 0., 0., 0., 0., 0., 0. ]
   oob_error: 0.
   ntrees: 50
   trees:
      -
         nodes:
            -
               depth: 0
               value: 7.
               norm_class_idx: 7
               splits:
                  - { var:19, quality:3.8311450195312500e+02,
                      le:4.7576604411005974e-03 }
            -
               depth: 1
               value: 7.
               norm_class_idx: 7
               splits:
                  - { var:139, quality:3.4157009887695312e+02,
                      le:1.8148138187825680e-03 }
            -
               depth: 2
               value: 4.
               norm_class_idx: 4
               splits:
                  - { var:82, quality:2.1943121337890625e+02,
                      le:1.3120783842168748e-04 }
            -
               depth: 3
               value: 9.
               norm_class_idx: 9
               splits:
                  - { var:21, quality:9.9284584045410156e+01,
                      le:5.7146996259689331e-03 }
            -
               depth: 4
               value: 9.
               norm_class_idx: 9
               splits:
                  - { var:303, quality:8.7022727966308594e+01,
                      le:1.0862620547413826e-03 }
            -
               depth: 5
               value: 6.
               norm_class_idx: 6
            -
               depth: 5
               value: 9.
               norm_class_idx: 9
            -
               depth: 4
               value: 3.
               norm_class_idx: 3
               splits:
                  - { var:54, quality:2.2360000610351562e+01,
                      le:3.8873945595696568e-04 }
            -
               depth: 5
               value: 4.
               norm_class_idx: 4
            -
               depth: 5
               value: 3.
               norm_class_idx: 3
            -
               depth: 3
               value: 4.
               norm_class_idx: 4
               splits:
                  - { var:149, quality:1.8220596313476562e+02,
                      le:5.2968128584325314e-03 }
            -
               depth: 4
               value: 5.
               norm_class_idx: 5
               splits:
                  - { var:163, quality:1.0964728546142578e+02,
                      le:7.6427971944212914e-03 }
            -
               depth: 5
               value: 4.
               norm_class_idx: 4
            -
               depth: 5
               value: 5.
               norm_class_idx: 5
            -
               depth: 4
               value: 3.
               norm_class_idx: 3
               splits:
                  - { var:123, quality:1.1521941375732422e+02,
                      le:4.2106601176783442e-04 }
            -
               depth: 5
               value: 4.
               norm_class_idx: 4
            -
               depth: 5
               value: 3.
               norm_class_idx: 3
            -
               depth: 2
               value: 2.
               norm_class_idx: 2
               splits:
                  - { var:54, quality:2.8027957153320312e+02,
                      le:6.6922057885676622e-04 }
            -
               depth: 3
               value: 2.
               norm_class_idx: 2
               splits:
                  - { var:21, quality:2.2274615478515625e+02,
                      le:1.0784919373691082e-02 }
            -
               depth: 4
               value: 2.
               norm_class_idx: 2
               splits:
                  - { var:115, quality:2.3861590576171875e+02,
                      le:6.1326095601543784e-04 }
            -
               depth: 5
               value: 2.
               norm_class_idx: 2
            -
               depth: 5
               value: 9.
               norm_class_idx: 9
            -
               depth: 4
               value: 7.
               norm_class_idx: 7
               splits:
                  - { var:32, quality:9.8285713195800781e+01,
                      le:5.3881853818893433e-02 }
            -
               depth: 5
               value: 3.
               norm_class_idx: 3
            -
               depth: 5
               value: 7.
               norm_class_idx: 7
            -
               depth: 3
               value: 8.
               norm_class_idx: 8
               splits:
                  - { var:136, quality:3.0324353027343750e+02,
                      le:1.2816069647669792e-03 }
            -
               depth: 4
               value: 6.
               norm_class_idx: 6
               splits:
                  - { var:255, quality:1.7096655273437500e+02,
                      le:2.5400051526958123e-05 }
            -
               depth: 5
               value: 7.
               norm_class_idx: 7
            -
               depth: 5
               value: 6.
               norm_class_idx: 6
            -
               depth: 4
               value: 8.
               norm_class_idx: 8
               splits:
                  - { var:25, quality:1.8901052856445312e+02,
                      le:8.8703492656350136e-03 }
            -
               depth: 5
               value: 1.
               norm_class_idx: 1
            -
               depth: 5
               value: 8.
               norm_class_idx: 8
            -
               depth: 1
               value: 1.
               norm_class_idx: 1
               splits:
                  - { var:15, quality:2.3469612121582031e+02,
                      le:4.4056065380573273e-03 }
            -
               depth: 2
               value: 0.
               norm_class_idx: 0
               splits:
                  - { var:23, quality:1.2817881774902344e+02,
                      le:2.1598622202873230e-02 }
            -
               depth: 3
               value: 1.
               norm_class_idx: 1
               splits:
                  - { var:294, quality:4.4395172119140625e+01,
                      le:4.4181928969919682e-03 }
            -
               depth: 4
               value: 0.
               norm_class_idx: 0
               splits:
                  - { var:281, quality:3.4870967864990234e+01,
                      le:6.0699153691530228e-03 }
            -
               depth: 5
               value: 4.
               norm_class_idx: 4
            -
               depth: 5
               value: 0.
               norm_class_idx: 0
            -
               depth: 4
               value: 1.
               norm_class_idx: 1
               splits:
                  - { var:129, quality:3.3909091949462891e+01,
                      le:4.8033104394562542e-04 }
            -
               depth: 5
               value: 8.
               norm_class_idx: 8
            -
               depth: 5
               value: 1.
               norm_class_idx: 1
            -
               depth: 3
               value: 0.
               norm_class_idx: 0
               splits:
                  - { var:92, quality:1.1940983581542969e+02,
                      le:8.8018743554130197e-04 }
            -
               depth: 4
               value: 8.
               norm_class_idx: 8
            -
               depth: 4
               value: 0.
               norm_class_idx: 0
               splits:
                  - { var:93, quality:1.2033333587646484e+02,
                      le:6.2195817008614540e-03 }
            -
               depth: 5
               value: 0.
               norm_class_idx: 0
            -
               depth: 5
               value: 1.
               norm_class_idx: 1
            -
               depth: 2
               value: 1.
               norm_class_idx: 1
               splits:
                  - { var:98, quality:1.7610852050781250e+02,
                      le:4.5843335101380944e-04 }
            -
               depth: 3
               value: 1.
               norm_class_idx: 1
               splits:
                  - { var:119, quality:1.4405479431152344e+02,
                      le:9.9348835647106171e-03 }
            -
               depth: 4
               value: 1.
               norm_class_idx: 1
               splits:
                  - { var:175, quality:146., le:4.6454276889562607e-04 }
            -
               depth: 5
               value: 0.
               norm_class_idx: 0
            -
               depth: 5
               value: 1.
               norm_class_idx: 1
            -
               depth: 4
               value: 0.
               norm_class_idx: 0
            -
               depth: 3
               value: 0.
               norm_class_idx: 0
               splits:
                  - { var:174, quality:6.3086956024169922e+01,
                      le:5.6058634072542191e-03 }
            -
               depth: 4
               value: 0.
               norm_class_idx: 0
            -
               depth: 4
               value: 1.
               norm_class_idx: 1
               splits:
                  - { var:173, quality:23., le:2.0454779267311096e-02 }
            -
               depth: 5
               value: 1.
               norm_class_idx: 1
            -
               depth: 5
               value: 0.
               norm_class_idx: 0
      -
         nodes:
            -
               depth: 0
               value: 3.
               norm_class_idx: 3
               splits:
                  - { var:163, quality:3.6550924682617188e+02,
                      le:1.6381078166887164e-03 }
            -
               depth: 1
               value: 0.
               norm_class_idx: 0
               splits:
                  - { var:71, quality:1.5770764160156250e+02,
                      le:2.7015730738639832e-03 }
            -
               depth: 2
               value: 7.
               norm_class_idx: 7
            -
               depth: 2
               value: 0.
               norm_class_idx: 0
               splits:
                  - { var:149, quality:1.6237315368652344e+02,
                      le:2.9660868458449841e-03 }
            -
               depth: 3
               value: 1.
               norm_class_idx: 1
               splits:
                  - { var:156, quality:14., le:1.1442448943853378e-02 }
            -
               depth: 4
               value: 1.
               norm_class_idx: 1
            -
               depth: 4
               value: 0.
               norm_class_idx: 0
            -
               depth: 3
               value: 0.
               norm_class_idx: 0
               splits:
                  - { var:94, quality:1.6260000610351562e+02,
                      le:4.9303490668535233e-03 }
            -
               depth: 4
               value: 0.
               norm_class_idx: 0
            -
               depth: 4
               value: 8.
               norm_class_idx: 8
            -
               depth: 1
               value: 3.
               norm_class_idx: 3
               splits:
                  - { var:101, quality:3.4262091064453125e+02,
                      le:6.2786368653178215e-04 }
            -
               depth: 2
               value: 1.
               norm_class_idx: 1
               splits:
                  - { var:130, quality:1.4896107482910156e+02,
                      le:8.3479675231501460e-04 }
            -
               depth: 3
               value: 8.
               norm_class_idx: 8
               splits:
                  - { var:121, quality:15., le:2.1454656962305307e-04 }
            -
               depth: 4
               value: 7.
               norm_class_idx: 7
            -
               depth: 4
               value: 8.
               norm_class_idx: 8
            -
               depth: 3
               value: 1.
               norm_class_idx: 1
               splits:
                  - { var:46, quality:1.4568035888671875e+02,
                      le:2.0623719319701195e-04 }
            -
               depth: 4
               value: 1.
               norm_class_idx: 1
               splits:
                  - { var:122, quality:146., le:2.3107185959815979e-02 }
            -
               depth: 5
               value: 1.
               norm_class_idx: 1
            -
               depth: 5
               value: 0.
               norm_class_idx: 0
            -
               depth: 4
               value: 6.
               norm_class_idx: 6
            -
               depth: 2
               value: 3.
               norm_class_idx: 3
               splits:
                  - { var:157, quality:3.4526339721679688e+02,
                      le:5.7224463671445847e-03 }
            -
               depth: 3
               value: 8.
               norm_class_idx: 8
               splits:
                  - { var:95, quality:2.8010937500000000e+02,
                      le:1.2771906331181526e-03 }
            -
               depth: 4
               value: 6.
               norm_class_idx: 6
               splits:
                  - { var:172, quality:2.5576641845703125e+02,
                      le:4.9023376777768135e-03 }
            -
               depth: 5
               value: 8.
               norm_class_idx: 8
            -
               depth: 5
               value: 6.
               norm_class_idx: 6
            -
               depth: 4
               value: 2.
               norm_class_idx: 2
               splits:
                  - { var:99, quality:2.0361064147949219e+02,
                      le:2.8001978062093258e-03 }
            -
               depth: 5
               value: 7.
               norm_class_idx: 7
            -
               depth: 5
               value: 2.
               norm_class_idx: 2
            -
               depth: 3
               value: 3.
               norm_class_idx: 3
               splits:
                  - { var:125, quality:2.3719787597656250e+02,
                      le:3.9644475327804685e-04 }
            -
               depth: 4
               value: 9.
               norm_class_idx: 9
               splits:
                  - { var:117, quality:1.4467567443847656e+02,
                      le:1.9202409312129021e-03 }
            -
               depth: 5
               value: 9.
               norm_class_idx: 9
            -
               depth: 5
               value: 5.
               norm_class_idx: 5
            -
               depth: 4
               value: 3.
               norm_class_idx: 3
               splits:
                  - { var:152, quality:1.5750460815429688e+02,
                      le:5.5016987025737762e-03 }
            -
               depth: 5
               value: 5.
               norm_class_idx: 5
            -
               depth: 5
               value: 3.
               norm_class_idx: 3
      -
         nodes:
            -
               depth: 0
               value: 1.
               norm_class_idx: 1
               splits:
                  - { var:15, quality:3.8846917724609375e+02,
                      le:1.1524101719260216e-03 }
            -
               depth: 1
               value: 4.
               norm_class_idx: 4
               splits:
                  - { var:134, quality:3.4348196411132812e+02,
                      le:9.9224857985973358e-03 }
            -
               depth: 2
               value: 4.
               norm_class_idx: 4
               splits:
                  - { var:137, quality:3.3558251953125000e+02,
                      le:2.3497412912547588e-03 }
            -
               depth: 3
               value: 4.
               norm_class_idx: 4
               splits:
                  - { var:175, quality:3.1903457641601562e+02,
                      le:4.0648942813277245e-03 }
            -
               depth: 4
               value: 4.
               norm_class_idx: 4
               splits:
                  - { var:56, quality:2.3856724548339844e+02,
                      le:1.6757933190092444e-04 }
            -
               depth: 5
               value: 9.
               norm_class_idx: 9
            -
               depth: 5
               value: 4.
               norm_class_idx: 4
            -
               depth: 4
               value: 6.
               norm_class_idx: 6
               splits:
                  - { var:124, quality:1.9657626342773438e+02,
                      le:4.1357599548064172e-04 }
            -
               depth: 5
               value: 7.
               norm_class_idx: 7
            -
               depth: 5
               value: 6.
               norm_class_idx: 6
            -
               depth: 3
               value: 8.
               norm_class_idx: 8
               splits:
                  - { var:107, quality:2.5274475097656250e+02,
                      le:5.1254397258162498e-03 }
            -
               depth: 4
               value: 2.
               norm_class_idx: 2
               splits:
                  - { var:143, quality:1.5725656127929688e+02,
                      le:7.4531352147459984e-03 }
            -
               depth: 5
               value: 2.
               norm_class_idx: 2
            -
               depth: 5
               value: 7.
               norm_class_idx: 7
            -
               depth: 4
               value: 8.
               norm_class_idx: 8
               splits:
                  - { var:294, quality:1.7737802124023438e+02,
                      le:3.2207588665187359e-03 }
            -
               depth: 5
               value: 3.
               norm_class_idx: 3
            -
               depth: 5
               value: 8.
               norm_class_idx: 8
            -
               depth: 2
               value: 0.
               norm_class_idx: 0
               splits:
                  - { var:105, quality:133., le:9.2735409270972013e-04 }
            -
               depth: 3
               value: 1.
               norm_class_idx: 1
            -
               depth: 3
               value: 0.
               norm_class_idx: 0
            -
               depth: 1
               value: 1.
               norm_class_idx: 1
               splits:
                  - { var:49, quality:2.3580577087402344e+02,
                      le:1.3345030311029404e-04 }
            -
               depth: 2
               value: 1.
               norm_class_idx: 1
               splits:
                  - { var:286, quality:1.9749174499511719e+02,
                      le:1.1706177610903978e-03 }
            -
               depth: 3
               value: 5.
               norm_class_idx: 5
            -
               depth: 3
               value: 1.
               norm_class_idx: 1
               splits:
                  - { var:101, quality:2.0039999389648438e+02,
                      le:4.9223396927118301e-03 }
            -
               depth: 4
               value: 1.
               norm_class_idx: 1
            -
               depth: 4
               value: 0.
               norm_class_idx: 0
            -
               depth: 2
               value: 0.
               norm_class_idx: 0
               splits:
                  - { var:93, quality:7.4199996948242188e+01,
                      le:5.6927190162241459e-03 }
            -
               depth: 3
               value: 0.
               norm_class_idx: 0
               splits:
                  - { var:20, quality:59., le:7.7212108299136162e-03 }
            -
               depth: 4
               value: 1.
               norm_class_idx: 1
            -
               depth: 4
               value: 0.
               norm_class_idx: 0
            -
               depth: 3
               value: 1.
               norm_class_idx: 1
               splits:
                  - { var:156, quality:20., le:4.6641323715448380e-03 }
            -
               depth: 4
               value: 1.
               norm_class_idx: 1
            -
               depth: 4
               value: 5.
               norm_class_idx: 5
      -
         nodes:
            -
               depth: 0
               value: 2.
               norm_class_idx: 2
               splits:
                  - { var:137, quality:3.3107809448242188e+02,
                      le:2.5119287893176079e-03 }
            -
               depth: 1
               value: 4.
               norm_class_idx: 4
               splits:
                  - { var:93, quality:3.2713442993164062e+02,
                      le:3.4496597945690155e-03 }
            -
               depth: 2
               value: 6.
               norm_class_idx: 6
               splits:
                  - { var:109, quality:2.8261502075195312e+02,
                      le:1.4831430278718472e-02 }
            -
               depth: 3
               value: 0.
               norm_class_idx: 0
               splits:
                  - { var:102, quality:2.1587002563476562e+02,
                      le:8.2918741100002080e-05 }
            -
               depth: 4
               value: 1.
               norm_class_idx: 1
               splits:
                  - { var:107, quality:101., le:4.1176723316311836e-03 }
            -
               depth: 5
               value: 1.
               norm_class_idx: 1
            -
               depth: 5
               value: 0.
               norm_class_idx: 0
            -
               depth: 4
               value: 0.
               norm_class_idx: 0
               splits:
                  - { var:96, quality:1.6690454101562500e+02,
                      le:5.7692872360348701e-03 }
            -
               depth: 5
               value: 0.
               norm_class_idx: 0
            -
               depth: 5
               value: 9.
               norm_class_idx: 9
            -
               depth: 3
               value: 6.
               norm_class_idx: 6
               splits:
                  - { var:270, quality:2.3420454406738281e+02,
                      le:2.5400051526958123e-05 }
            -
               depth: 4
               value: 2.
               norm_class_idx: 2
               splits:
                  - { var:28, quality:1.0433983612060547e+02,
                      le:1.6444793436676264e-03 }
            -
               depth: 5
               value: 6.
               norm_class_idx: 6
            -
               depth: 5
               value: 2.
               norm_class_idx: 2
            -
               depth: 4
               value: 6.
               norm_class_idx: 6
               splits:
                  - { var:93, quality:1.7754545593261719e+02,
                      le:1.2644845992326736e-03 }
            -
               depth: 5
               value: 6.
               norm_class_idx: 6
            -
               depth: 5
               value: 2.
               norm_class_idx: 2
            -
               depth: 2
               value: 4.
               norm_class_idx: 4
               splits:
                  - { var:52, quality:2.8227267456054688e+02,
                      le:1.3755096006207168e-04 }
            -
               depth: 3
               value: 9.
               norm_class_idx: 9
               splits:
                  - { var:21, quality:1.7189604187011719e+02,
                      le:4.3534245342016220e-03 }
            -
               depth: 4
               value: 9.
               norm_class_idx: 9
               splits:
                  - { var:98, quality:143., le:2.2913701832294464e-03 }
            -
               depth: 5
               value: 1.
               norm_class_idx: 1
            -
               depth: 5
               value: 9.
               norm_class_idx: 9
            -
               depth: 4
               value: 3.
               norm_class_idx: 3
               splits:
                  - { var:91, quality:5.5690929412841797e+01,
                      le:1.8252737820148468e-02 }
            -
               depth: 5
               value: 3.
               norm_class_idx: 3
            -
               depth: 5
               value: 1.
               norm_class_idx: 1
            -
               depth: 3
               value: 4.
               norm_class_idx: 4
               splits:
                  - { var:21, quality:2.6575076293945312e+02,
                      le:3.0802359106019139e-04 }
            -
               depth: 4
               value: 7.
               norm_class_idx: 7
               splits:
                  - { var:23, quality:106., le:3.9635419845581055e-02 }
            -
               depth: 5
               value: 9.
               norm_class_idx: 9
            -
               depth: 5
               value: 7.
               norm_class_idx: 7
            -
               depth: 4
               value: 4.
               norm_class_idx: 4
               splits:
                  - { var:131, quality:2.0458192443847656e+02,
                      le:4.0971445851027966e-03 }
            -
               depth: 5
               value: 4.
               norm_class_idx: 4
            -
               depth: 5
               value: 0.
               norm_class_idx: 0
            -
               depth: 1
               value: 8.
               norm_class_idx: 8
               splits:
                  - { var:55, quality:2.6306573486328125e+02,
                      le:4.1150522883981466e-04 }
            -
               depth: 2
               value: 2.
               norm_class_idx: 2
               splits:
                  - { var:306, quality:1.6660984802246094e+02,
                      le:3.2710232771933079e-03 }
            -
               depth: 3
               value: 7.
               norm_class_idx: 7
               splits:
                  - { var:114, quality:6.2250000000000000e+01,
                      le:1.5397204551845789e-03 }
            -
               depth: 4
               value: 2.
               norm_class_idx: 2
            -
               depth: 4
               value: 7.
               norm_class_idx: 7
            -
               depth: 3
               value: 2.
               norm_class_idx: 2
               splits:
                  - { var:307, quality:1.3293933105468750e+02,
                      le:2.6037911884486675e-03 }
            -
               depth: 4
               value: 7.
               norm_class_idx: 7
               splits:
                  - { var:276, quality:1.2500000000000000e+01,
                      le:5.3441701456904411e-03 }
            -
               depth: 5
               value: 1.
               norm_class_idx: 1
            -
               depth: 5
               value: 7.
               norm_class_idx: 7
            -
               depth: 4
               value: 2.
               norm_class_idx: 2
               splits:
                  - { var:113, quality:1.3390133666992188e+02,
                      le:2.6327730156481266e-03 }
            -
               depth: 5
               value: 2.
               norm_class_idx: 2
            -
               depth: 5
               value: 9.
               norm_class_idx: 9
            -
               depth: 2
               value: 8.
               norm_class_idx: 8
               splits:
                  - { var:147, quality:2.0881082153320312e+02,
                      le:4.0660421364009380e-03 }
            -
               depth: 3
               value: 1.
               norm_class_idx: 1
               splits:
                  - { var:167, quality:40., le:1.7445252742618322e-03 }
            -
               depth: 4
               value: 0.
               norm_class_idx: 0
            -
               depth: 4
               value: 1.
               norm_class_idx: 1
            -
               depth: 3
               value: 8.
               norm_class_idx: 8
               splits:
                  - { var:283, quality:1.8483421325683594e+02,
                      le:5.6614009663462639e-03 }
            -
               depth: 4
               value: 8.
               norm_class_idx: 8
               splits:
                  - { var:299, quality:1.8901063537597656e+02,
                      le:2.1324656903743744e-02 }
            -
               depth: 5
               value: 8.
               norm_class_idx: 8
            -
               depth: 5
               value: 3.
               norm_class_idx: 3
            -
               depth: 4
               value: 5.
               norm_class_idx: 5
      -
         nodes:
            -
               depth: 0
               value: 9.
               norm_class_idx: 9
               splits:
                  - { var:307, quality:3.4376766967773438e+02,
                      le:2.1938220015726984e-04 }
            -
               depth: 1
               value: 6.
               norm_class_idx: 6
               splits:
                  - { var:19, quality:2.6558367919921875e+02,
                      le:1.3272790238261223e-03 }
            -
               depth: 2
               value: 6.
               norm_class_idx: 6
               splits:
                  - { var:48, quality:2.0651573181152344e+02,
                      le:1.2951919343322515e-03 }
            -
               depth: 3
               value: 6.
               norm_class_idx: 6
               splits:
                  - { var:95, quality:1.9965577697753906e+02,
                      le:2.9552089981734753e-03 }
            -
               depth: 4
               value: 6.
               norm_class_idx: 6
               splits:
                  - { var:110, quality:194., le:8.3003630861639977e-03 }
            -
               depth: 5
               value: 0.
               norm_class_idx: 0
            -
               depth: 5
               value: 6.
               norm_class_idx: 6
            -
               depth: 4
               value: 7.
               norm_class_idx: 7
               splits:
                  - { var:58, quality:15., le:1.0043753311038017e-02 }
            -
               depth: 5
               value: 7.
               norm_class_idx: 7
            -
               depth: 5
               value: 8.
               norm_class_idx: 8
            -
               depth: 3
               value: 8.
               norm_class_idx: 8
               splits:
                  - { var:138, quality:44., le:2.8311593923717737e-03 }
            -
               depth: 4
               value: 6.
               norm_class_idx: 6
            -
               depth: 4
               value: 8.
               norm_class_idx: 8
            -
               depth: 2
               value: 0.
               norm_class_idx: 0
               splits:
                  - { var:162, quality:1.9102157592773438e+02,
                      le:1.3109084684401751e-03 }
            -
               depth: 3
               value: 0.
               norm_class_idx: 0
            -
               depth: 3
               value: 1.
               norm_class_idx: 1
               splits:
                  - { var:132, quality:1.2063964080810547e+02,
                      le:7.6493207598105073e-04 }
            -
               depth: 4
               value: 8.
               norm_class_idx: 8
            -
               depth: 4
               value: 1.
               norm_class_idx: 1
               splits:
                  - { var:97, quality:1.0532766723632812e+02,
                      le:7.8757235314697027e-04 }
            -
               depth: 5
               value: 1.
               norm_class_idx: 1
            -
               depth: 5
               value: 0.
               norm_class_idx: 0
            -
               depth: 1
               value: 9.
               norm_class_idx: 9
               splits:
                  - { var:141, quality:3.3790225219726562e+02,
                      le:3.0352855101227760e-03 }
            -
               depth: 2
               value: 5.
               norm_class_idx: 5
               splits:
                  - { var:128, quality:2.5146064758300781e+02,
                      le:1.5847859685891308e-05 }
            -
               depth: 3
               value: 9.
               norm_class_idx: 9
               splits:
                  - { var:155, quality:1.2950765991210938e+02,
                      le:7.2457883507013321e-03 }
            -
               depth: 4
               value: 4.
               norm_class_idx: 4
               splits:
                  - { var:151, quality:3.6153438568115234e+01,
                      le:1.2047983705997467e-02 }
            -
               depth: 5
               value: 4.
               norm_class_idx: 4
            -
               depth: 5
               value: 5.
               norm_class_idx: 5
            -
               depth: 4
               value: 9.
               norm_class_idx: 9
               splits:
                  - { var:19, quality:1.2478575897216797e+02,
                      le:8.9711404871195555e-04 }
            -
               depth: 5
               value: 9.
               norm_class_idx: 9
            -
               depth: 5
               value: 3.
               norm_class_idx: 3
            -
               depth: 3
               value: 5.
               norm_class_idx: 5
               splits:
                  - { var:163, quality:2.0221339416503906e+02,
                      le:7.6887044124305248e-03 }
            -
               depth: 4
               value: 3.
               norm_class_idx: 3
               splits:
                  - { var:19, quality:1.2346543884277344e+02,
                      le:2.3342953063547611e-03 }
            -
               depth: 5
               value: 3.
               norm_class_idx: 3
            -
               depth: 5
               value: 4.
               norm_class_idx: 4
            -
               depth: 4
               value: 5.
               norm_class_idx: 5
               splits:
                  - { var:153, quality:1.3968571472167969e+02,
                      le:6.3368501141667366e-03 }
            -
               depth: 5
               value: 5.
               norm_class_idx: 5
            -
               depth: 5
               value: 4.
               norm_class_idx: 4
            -
               depth: 2
               value: 7.
               norm_class_idx: 7
               splits:
                  - { var:304, quality:2.5063356018066406e+02,
                      le:2.0788954570889473e-03 }
            -
               depth: 3
               value: 7.
               norm_class_idx: 7
               splits:
                  - { var:157, quality:1.4810720825195312e+02,
                      le:6.6776173189282417e-03 }
            -
               depth: 4
               value: 7.
               norm_class_idx: 7
               splits:
                  - { var:150, quality:147., le:8.2138981670141220e-03 }
            -
               depth: 5
               value: 7.
               norm_class_idx: 7
            -
               depth: 5
               value: 0.
               norm_class_idx: 0
            -
               depth: 4
               value: 0.
               norm_class_idx: 0
               splits:
                  - { var:84, quality:8.0909090042114258e+00,
                      le:1.0330579243600368e-04 }
            -
               depth: 5
               value: 9.
               norm_class_idx: 9
            -
               depth: 5
               value: 0.
               norm_class_idx: 0
            -
               depth: 3
               value: 2.
               norm_class_idx: 2
               splits:
                  - { var:115, quality:1.9961160278320312e+02,
                      le:7.3498592246323824e-04 }
            -
               depth: 4
               value: 2.
               norm_class_idx: 2
               splits:
                  - { var:131, quality:1.9756265258789062e+02,
                      le:4.0262201218865812e-04 }
            -
               depth: 5
               value: 2.
               norm_class_idx: 2
            -
               depth: 5
               value: 1.
               norm_class_idx: 1
            -
               depth: 4
               value: 8.
               norm_class_idx: 8
               splits:
                  - { var:57, quality:1.5832627868652344e+02,
                      le:1.7341005150228739e-04 }
            -
               depth: 5
               value: 7.
               norm_class_idx: 7
            -
               depth: 5
               value: 8.
               norm_class_idx: 8
      -
         nodes:
            -
               depth: 0
               value: 7.
               norm_class_idx: 7
               splits:
                  - { var:16, quality:3.8880624389648438e+02,
                      le:3.2655000686645508e-03 }
            -
               depth: 1
               value: 7.
               norm_class_idx: 7
               splits:
                  - { var:95, quality:3.9006958007812500e+02,
                      le:3.6244979128241539e-03 }
            -
               depth: 2
               value: 8.
               norm_class_idx: 8
               splits:
                  - { var:141, quality:3.0260040283203125e+02,
                      le:4.2211152613162994e-03 }
            -
               depth: 3
               value: 6.
               norm_class_idx: 6
               splits:
                  - { var:163, quality:2.8153646850585938e+02,
                      le:2.0385612733662128e-03 }
            -
               depth: 4
               value: 0.
               norm_class_idx: 0
               splits:
                  - { var:77, quality:116., le:2.0937914960086346e-03 }
            -
               depth: 5
               value: 8.
               norm_class_idx: 8
            -
               depth: 5
               value: 0.
               norm_class_idx: 0
            -
               depth: 4
               value: 6.
               norm_class_idx: 6
               splits:
                  - { var:95, quality:2.2399270629882812e+02,
                      le:8.7442505173385143e-04 }
            -
               depth: 5
               value: 6.
               norm_class_idx: 6
            -
               depth: 5
               value: 2.
               norm_class_idx: 2
            -
               depth: 3
               value: 8.
               norm_class_idx: 8
               splits:
                  - { var:136, quality:1.9800106811523438e+02,
                      le:7.7261892147362232e-04 }
            -
               depth: 4
               value: 2.
               norm_class_idx: 2
               splits:
                  - { var:151, quality:4.3051280975341797e+01,
                      le:6.5780188888311386e-03 }
            -
               depth: 5
               value: 2.
               norm_class_idx: 2
            -
               depth: 5
               value: 8.
               norm_class_idx: 8
            -
               depth: 4
               value: 8.
               norm_class_idx: 8
               splits:
                  - { var:97, quality:1.7433332824707031e+02,
                      le:1.4867499470710754e-02 }
            -
               depth: 5
               value: 8.
               norm_class_idx: 8
            -
               depth: 5
               value: 2.
               norm_class_idx: 2
            -
               depth: 2
               value: 7.
               norm_class_idx: 7
               splits:
                  - { var:172, quality:2.8907321166992188e+02,
                      le:6.4435494132339954e-03 }
            -
               depth: 3
               value: 4.
               norm_class_idx: 4
               splits:
                  - { var:139, quality:2.9859347534179688e+02,
                      le:4.7504538670182228e-03 }
            -
               depth: 4
               value: 4.
               norm_class_idx: 4
               splits:
                  - { var:56, quality:2.5533326721191406e+02,
                      le:3.5714285331778228e-05 }
            -
               depth: 5
               value: 9.
               norm_class_idx: 9
            -
               depth: 5
               value: 4.
               norm_class_idx: 4
            -
               depth: 4
               value: 2.
               norm_class_idx: 2
               splits:
                  - { var:119, quality:1.8602198791503906e+02,
                      le:3.1308445613831282e-04 }
            -
               depth: 5
               value: 2.
               norm_class_idx: 2
            -
               depth: 5
               value: 7.
               norm_class_idx: 7
            -
               depth: 3
               value: 7.
               norm_class_idx: 7
               splits:
                  - { var:157, quality:1.0101960754394531e+02,
                      le:9.0723216999322176e-04 }
            -
               depth: 4
               value: 1.
               norm_class_idx: 1
            -
               depth: 4
               value: 7.
               norm_class_idx: 7
               splits:
                  - { var:65, quality:1.0066666412353516e+02,
                      le:1.0311463847756386e-02 }
            -
               depth: 5
               value: 7.
               norm_class_idx: 7
            -
               depth: 5
               value: 7.
               norm_class_idx: 7
            -
               depth: 1
               value: 1.
               norm_class_idx: 1
               splits:
                  - { var:171, quality:2.5823696899414062e+02,
                      le:2.9456391930580139e-03 }
            -
               depth: 2
               value: 0.
               norm_class_idx: 0
            -
               depth: 2
               value: 1.
               norm_class_idx: 1
               splits:
                  - { var:134, quality:2.0508612060546875e+02,
                      le:2.5004014372825623e-02 }
            -
               depth: 3
               value: 1.
               norm_class_idx: 1
               splits:
                  - { var:174, quality:2.0567637634277344e+02,
                      le:2.3370513692498207e-02 }
            -
               depth: 4
               value: 1.
               norm_class_idx: 1
               splits:
                  - { var:118, quality:206., le:9.9614439532160759e-03 }
            -
               depth: 5
               value: 1.
               norm_class_idx: 1
            -
               depth: 5
               value: 0.
               norm_class_idx: 0
            -
               depth: 4
               value: 0.
               norm_class_idx: 0
            -
               depth: 3
               value: 0.
               norm_class_idx: 0
      -
         nodes:
            -
               depth: 0
               value: 5.
               norm_class_idx: 5
               splits:
                  - { var:94, quality:3.8208093261718750e+02,
                      le:3.4053025301545858e-03 }
            -
               depth: 1
               value: 6.
               norm_class_idx: 6
               splits:
                  - { var:134, quality:2.9061901855468750e+02,
                      le:4.9343024147674441e-04 }
            -
               depth: 2
               value: 8.
               norm_class_idx: 8
               splits:
                  - { var:140, quality:2.7927731323242188e+02,
                      le:4.2473012581467628e-03 }
            -
               depth: 3
               value: 6.
               norm_class_idx: 6
               splits:
                  - { var:272, quality:1.7368420410156250e+02,
                      le:2.6075618734466843e-05 }
            -
               depth: 4
               value: 2.
               norm_class_idx: 2
               splits:
                  - { var:29, quality:1.0612820434570312e+02,
                      le:9.6143013797700405e-04 }
            -
               depth: 5
               value: 6.
               norm_class_idx: 6
            -
               depth: 5
               value: 2.
               norm_class_idx: 2
            -
               depth: 4
               value: 6.
               norm_class_idx: 6
               splits:
                  - { var:93, quality:1.3123896789550781e+02,
                      le:1.1885026469826698e-03 }
            -
               depth: 5
               value: 6.
               norm_class_idx: 6
            -
               depth: 5
               value: 0.
               norm_class_idx: 0
            -
               depth: 3
               value: 8.
               norm_class_idx: 8
               splits:
                  - { var:115, quality:1.7213558959960938e+02,
                      le:1.8155731260776520e-02 }
            -
               depth: 4
               value: 8.
               norm_class_idx: 8
               splits:
                  - { var:147, quality:1.7304571533203125e+02,
                      le:4.2917774990200996e-03 }
            -
               depth: 5
               value: 6.
               norm_class_idx: 6
            -
               depth: 5
               value: 8.
               norm_class_idx: 8
            -
               depth: 4
               value: 1.
               norm_class_idx: 1
            -
               depth: 2
               value: 0.
               norm_class_idx: 0
               splits:
                  - { var:163, quality:2.5135424804687500e+02,
                      le:3.4512702841311693e-03 }
            -
               depth: 3
               value: 0.
               norm_class_idx: 0
               splits:
                  - { var:30, quality:1.7607777404785156e+02,
                      le:8.2138022407889366e-03 }
            -
               depth: 4
               value: 0.
               norm_class_idx: 0
               splits:
                  - { var:276, quality:1.7801123046875000e+02,
                      le:1.3397639617323875e-02 }
            -
               depth: 5
               value: 0.
               norm_class_idx: 0
            -
               depth: 5
               value: 8.
               norm_class_idx: 8
            -
               depth: 4
               value: 1.
               norm_class_idx: 1
            -
               depth: 3
               value: 1.
               norm_class_idx: 1
               splits:
                  - { var:116, quality:1.5002020263671875e+02,
                      le:2.9275409178808331e-04 }
            -
               depth: 4
               value: 1.
               norm_class_idx: 1
               splits:
                  - { var:123, quality:99., le:3.9644762873649597e-02 }
            -
               depth: 5
               value: 1.
               norm_class_idx: 1
            -
               depth: 5
               value: 0.
               norm_class_idx: 0
            -
               depth: 4
               value: 6.
               norm_class_idx: 6
               splits:
                  - { var:273, quality:6.4333335876464844e+01,
                      le:1.3404172845184803e-02 }
            -
               depth: 5
               value: 0.
               norm_class_idx: 0
            -
               depth: 5
               value: 6.
               norm_class_idx: 6
            -
               depth: 1
               value: 5.
               norm_class_idx: 5
               splits:
                  - { var:175, quality:2.8454165649414062e+02,
                      le:6.9899372756481171e-03 }
            -
               depth: 2
               value: 5.
               norm_class_idx: 5
               splits:
                  - { var:139, quality:3.3353662109375000e+02,
                      le:2.0095398649573326e-03 }
            -
               depth: 3
               value: 5.
               norm_class_idx: 5
               splits:
                  - { var:149, quality:2.4146492004394531e+02,
                      le:5.3380643948912621e-03 }
            -
               depth: 4
               value: 5.
               norm_class_idx: 5
               splits:
                  - { var:21, quality:1.8277104187011719e+02,
                      le:3.9839306846261024e-03 }
            -
               depth: 5
               value: 9.
               norm_class_idx: 9
            -
               depth: 5
               value: 5.
               norm_class_idx: 5
            -
               depth: 4
               value: 3.
               norm_class_idx: 3
               splits:
                  - { var:123, quality:1.5520716857910156e+02,
                      le:4.2106601176783442e-04 }
            -
               depth: 5
               value: 9.
               norm_class_idx: 9
            -
               depth: 5
               value: 3.
               norm_class_idx: 3
            -
               depth: 3
               value: 7.
               norm_class_idx: 7
               splits:
                  - { var:29, quality:2.6139273071289062e+02,
                      le:4.8856837674975395e-03 }
            -
               depth: 4
               value: 7.
               norm_class_idx: 7
               splits:
                  - { var:129, quality:1.8513043212890625e+02,
                      le:1.8868241750169545e-04 }
            -
               depth: 5
               value: 7.
               norm_class_idx: 7
            -
               depth: 5
               value: 0.
               norm_class_idx: 0
            -
               depth: 4
               value: 2.
               norm_class_idx: 2
               splits:
                  - { var:92, quality:1.5094688415527344e+02,
                      le:1.1014230549335480e-02 }
            -
               depth: 5
               value: 9.
               norm_class_idx: 9
            -
               depth: 5
               value: 2.
               norm_class_idx: 2
            -
               depth: 2
               value: 1.
               norm_class_idx: 1
               splits:
                  - { var:129, quality:76., le:2.0953378407284617e-04 }
            -
               depth: 3
               value: 2.
               norm_class_idx: 2
            -
               depth: 3
               value: 1.
               norm_class_idx: 1
      -
         nodes:
            -
               depth: 0
               value: 0.
               norm_class_idx: 0
               splits:
                  - { var:98, quality:3.4611087036132812e+02,
                      le:3.2369323889724910e-04 }
            -
               depth: 1
               value: 1.
               norm_class_idx: 1
               splits:
                  - { var:286, quality:1.7092454528808594e+02,
                      le:1.7076320946216583e-03 }
            -
               depth: 2
               value: 6.
               norm_class_idx: 6
               splits:
                  - { var:298, quality:2.8875000000000000e+01,
                      le:1.9654086790978909e-03 }
            -
               depth: 3
               value: 6.
               norm_class_idx: 6
            -
               depth: 3
               value: 8.
               norm_class_idx: 8
               splits:
                  - { var:116, quality:1.4666666984558105e+01,
                      le:2.0453997422009706e-03 }
            -
               depth: 4
               value: 1.
               norm_class_idx: 1
            -
               depth: 4
               value: 8.
               norm_class_idx: 8
            -
               depth: 2
               value: 1.
               norm_class_idx: 1
               splits:
                  - { var:172, quality:1.7741340637207031e+02,
                      le:2.3039637599140406e-03 }
            -
               depth: 3
               value: 0.
               norm_class_idx: 0
            -
               depth: 3
               value: 1.
               norm_class_idx: 1
               splits:
                  - { var:299, quality:1.7310285949707031e+02,
                      le:2.1107876673340797e-03 }
            -
               depth: 4
               value: 0.
               norm_class_idx: 0
            -
               depth: 4
               value: 1.
               norm_class_idx: 1
               splits:
                  - { var:90, quality:1.7260000610351562e+02,
                      le:1.2841945863328874e-04 }
            -
               depth: 5
               value: 8.
               norm_class_idx: 8
            -
               depth: 5
               value: 1.
               norm_class_idx: 1
            -
               depth: 1
               value: 9.
               norm_class_idx: 9
               splits:
                  - { var:161, quality:3.4948855590820312e+02,
                      le:1.9070091657340527e-03 }
            -
               depth: 2
               value: 0.
               norm_class_idx: 0
               splits:
                  - { var:307, quality:1.6642298889160156e+02,
                      le:2.8827381320297718e-03 }
            -
               depth: 3
               value: 0.
               norm_class_idx: 0
               splits:
                  - { var:69, quality:1.5765951538085938e+02,
                      le:5.4462663829326630e-03 }
            -
               depth: 4
               value: 8.
               norm_class_idx: 8
            -
               depth: 4
               value: 0.
               norm_class_idx: 0
               splits:
                  - { var:131, quality:1.6101249694824219e+02,
                      le:1.1168599128723145e-02 }
            -
               depth: 5
               value: 0.
               norm_class_idx: 0
            -
               depth: 5
               value: 7.
               norm_class_idx: 7
            -
               depth: 3
               value: 1.
               norm_class_idx: 1
               splits:
                  - { var:159, quality:25., le:3.7648282013833523e-03 }
            -
               depth: 4
               value: 1.
               norm_class_idx: 1
            -
               depth: 4
               value: 0.
               norm_class_idx: 0
            -
               depth: 2
               value: 9.
               norm_class_idx: 9
               splits:
                  - { var:178, quality:3.1198522949218750e+02,
                      le:1.7189936479553580e-03 }
            -
               depth: 3
               value: 4.
               norm_class_idx: 4
               splits:
                  - { var:81, quality:2.1738333129882812e+02,
                      le:3.2563402783125639e-04 }
            -
               depth: 4
               value: 9.
               norm_class_idx: 9
               splits:
                  - { var:146, quality:8.0858970642089844e+01,
                      le:5.5749295279383659e-03 }
            -
               depth: 5
               value: 9.
               norm_class_idx: 9
            -
               depth: 5
               value: 2.
               norm_class_idx: 2
            -
               depth: 4
               value: 4.
               norm_class_idx: 4
               splits:
                  - { var:293, quality:1.7840762329101562e+02,
                      le:8.7630022317171097e-03 }
            -
               depth: 5
               value: 4.
               norm_class_idx: 4
            -
               depth: 5
               value: 9.
               norm_class_idx: 9
            -
               depth: 3
               value: 2.
               norm_class_idx: 2
               splits:
                  - { var:95, quality:2.5573731994628906e+02,
                      le:1.3092327862977982e-03 }
            -
               depth: 4
               value: 6.
               norm_class_idx: 6
               splits:
                  - { var:117, quality:1.9036828613281250e+02,
                      le:2.1764039993286133e-03 }
            -
               depth: 5
               value: 6.
               norm_class_idx: 6
            -
               depth: 5
               value: 8.
               norm_class_idx: 8
            -
               depth: 4
               value: 2.
               norm_class_idx: 2
               splits:
                  - { var:82, quality:1.6065287780761719e+02,
                      le:3.8604828296229243e-04 }
            -
               depth: 5
               value: 2.
               norm_class_idx: 2
            -
               depth: 5
               value: 7.
               norm_class_idx: 7
      -
         nodes:
            -
               depth: 0
               value: 6.
               norm_class_idx: 6
               splits:
                  - { var:95, quality:3.8425018310546875e+02,
                      le:2.9979967512190342e-03 }
            -
               depth: 1
               value: 6.
               norm_class_idx: 6
               splits:
                  - { var:111, quality:3.1973049926757812e+02,
                      le:5.3658819524571300e-04 }
            -
               depth: 2
               value: 0.
               norm_class_idx: 0
               splits:
                  - { var:22, quality:2.6126266479492188e+02,
                      le:1.1472530663013458e-02 }
            -
               depth: 3
               value: 1.
               norm_class_idx: 1
               splits:
                  - { var:133, quality:1.4133465576171875e+02,
                      le:1.4677564613521099e-03 }
            -
               depth: 4
               value: 8.
               norm_class_idx: 8
               splits:
                  - { var:24, quality:25., le:7.0301201194524765e-03 }
            -
               depth: 5
               value: 0.
               norm_class_idx: 0
            -
               depth: 5
               value: 8.
               norm_class_idx: 8
            -
               depth: 4
               value: 1.
               norm_class_idx: 1
               splits:
                  - { var:303, quality:1.2724427795410156e+02,
                      le:1.2746972788590938e-04 }
            -
               depth: 5
               value: 0.
               norm_class_idx: 0
            -
               depth: 5
               value: 1.
               norm_class_idx: 1
            -
               depth: 3
               value: 0.
               norm_class_idx: 0
               splits:
                  - { var:164, quality:1.9113282775878906e+02,
                      le:3.8186139427125454e-03 }
            -
               depth: 4
               value: 0.
               norm_class_idx: 0
               splits:
                  - { var:79, quality:1.8401092529296875e+02,
                      le:5.6751389056444168e-03 }
            -
               depth: 5
               value: 0.
               norm_class_idx: 0
            -
               depth: 5
               value: 1.
               norm_class_idx: 1
            -
               depth: 4
               value: 2.
               norm_class_idx: 2
               splits:
                  - { var:300, quality:2.8212121963500977e+01,
                      le:2.0331518724560738e-02 }
            -
               depth: 5
               value: 1.
               norm_class_idx: 1
            -
               depth: 5
               value: 2.
               norm_class_idx: 2
            -
               depth: 2
               value: 6.
               norm_class_idx: 6
               splits:
                  - { var:174, quality:2.5264610290527344e+02,
                      le:4.6511655673384666e-03 }
            -
               depth: 3
               value: 8.
               norm_class_idx: 8
               splits:
                  - { var:139, quality:1.7041679382324219e+02,
                      le:3.9976839907467365e-03 }
            -
               depth: 4
               value: 2.
               norm_class_idx: 2
               splits:
                  - { var:23, quality:7.6268066406250000e+01,
                      le:6.6293895244598389e-02 }
            -
               depth: 5
               value: 6.
               norm_class_idx: 6
            -
               depth: 5
               value: 2.
               norm_class_idx: 2
            -
               depth: 4
               value: 8.
               norm_class_idx: 8
               splits:
                  - { var:152, quality:134., le:7.9396115615963936e-03 }
            -
               depth: 5
               value: 8.
               norm_class_idx: 8
            -
               depth: 5
               value: 0.
               norm_class_idx: 0
            -
               depth: 3
               value: 6.
               norm_class_idx: 6
               splits:
                  - { var:28, quality:1.6969281005859375e+02,
                      le:2.3994101211428642e-03 }
            -
               depth: 4
               value: 6.
               norm_class_idx: 6
               splits:
                  - { var:109, quality:1.8736393737792969e+02,
                      le:1.8685780465602875e-02 }
            -
               depth: 5
               value: 0.
               norm_class_idx: 0
            -
               depth: 5
               value: 6.
               norm_class_idx: 6
            -
               depth: 4
               value: 0.
               norm_class_idx: 0
               splits:
                  - { var:131, quality:8.9692306518554688e+00,
                      le:1.1497101513668895e-03 }
            -
               depth: 5
               value: 2.
               norm_class_idx: 2
            -
               depth: 5
               value: 0.
               norm_class_idx: 0
            -
               depth: 1
               value: 4.
               norm_class_idx: 4
               splits:
                  - { var:142, quality:3.0109710693359375e+02,
                      le:3.3193519338965416e-03 }
            -
               depth: 2
               value: 5.
               norm_class_idx: 5
               splits:
                  - { var:145, quality:2.3703582763671875e+02,
                      le:8.7669608183205128e-04 }
            -
               depth: 3
               value: 9.
               norm_class_idx: 9
               splits:
                  - { var:170, quality:7.0500000000000000e+01,
                      le:1.9792728126049042e-03 }
            -
               depth: 4
               value: 4.
               norm_class_idx: 4
            -
               depth: 4
               value: 9.
               norm_class_idx: 9
            -
               depth: 3
               value: 5.
               norm_class_idx: 5
               splits:
                  - { var:56, quality:2.0447279357910156e+02,
                      le:3.7159195635467768e-03 }
            -
               depth: 4
               value: 5.
               norm_class_idx: 5
               splits:
                  - { var:21, quality:1.8342700195312500e+02,
                      le:3.2408912666141987e-03 }
            -
               depth: 5
               value: 9.
               norm_class_idx: 9
            -
               depth: 5
               value: 5.
               norm_class_idx: 5
            -
               depth: 4
               value: 3.
               norm_class_idx: 3
               splits:
                  - { var:12, quality:1.0808370208740234e+02,
                      le:2.0836589392274618e-03 }
            -
               depth: 5
               value: 3.
               norm_class_idx: 3
            -
               depth: 5
               value: 1.
               norm_class_idx: 1
            -
               depth: 2
               value: 7.
               norm_class_idx: 7
               splits:
                  - { var:79, quality:1.9037295532226562e+02,
                      le:3.1311432830989361e-03 }
            -
               depth: 3
               value: 2.
               norm_class_idx: 2
               splits:
                  - { var:141, quality:1.4232894897460938e+02,
                      le:4.2020091786980629e-03 }
            -
               depth: 4
               value: 9.
               norm_class_idx: 9
               splits:
                  - { var:96, quality:7.4836181640625000e+01,
                      le:9.2302486300468445e-03 }
            -
               depth: 5
               value: 3.
               norm_class_idx: 3
            -
               depth: 5
               value: 9.
               norm_class_idx: 9
            -
               depth: 4
               value: 2.
               norm_class_idx: 2
               splits:
                  - { var:100, quality:1.5726745605468750e+02,
                      le:2.3572961799800396e-03 }
            -
               depth: 5
               value: 7.
               norm_class_idx: 7
            -
               depth: 5
               value: 2.
               norm_class_idx: 2
            -
               depth: 3
               value: 7.
               norm_class_idx: 7
               splits:
                  - { var:156, quality:1.5362666320800781e+02,
                      le:3.4430008381605148e-03 }
            -
               depth: 4
               value: 1.
               norm_class_idx: 1
               splits:
                  - { var:172, quality:40., le:7.0347245782613754e-03 }
            -
               depth: 5
               value: 8.
               norm_class_idx: 8
            -
               depth: 5
               value: 1.
               norm_class_idx: 1
            -
               depth: 4
               value: 7.
               norm_class_idx: 7
               splits:
                  - { var:61, quality:1.3121986389160156e+02,
                      le:5.2406177856028080e-03 }
            -
               depth: 5
               value: 3.
               norm_class_idx: 3
            -
               depth: 5
               value: 7.
               norm_class_idx: 7
      -
         nodes:
            -
               depth: 0
               value: 0.
               norm_class_idx: 0
               splits:
                  - { var:95, quality:3.8150692749023438e+02,
                      le:2.5689532049000263e-03 }
            -
               depth: 1
               value: 6.
               norm_class_idx: 6
               splits:
                  - { var:131, quality:3.1672589111328125e+02,
                      le:4.5777513878419995e-04 }
            -
               depth: 2
               value: 8.
               norm_class_idx: 8
               splits:
                  - { var:171, quality:2.5851953125000000e+02,
                      le:4.9257832579314709e-03 }
            -
               depth: 3
               value: 8.
               norm_class_idx: 8
               splits:
                  - { var:298, quality:1.9985624694824219e+02,
                      le:1.5700910240411758e-02 }
            -
               depth: 4
               value: 8.
               norm_class_idx: 8
               splits:
                  - { var:109, quality:1.6211250305175781e+02,
                      le:4.0795870125293732e-02 }
            -
               depth: 5
               value: 8.
               norm_class_idx: 8
            -
               depth: 5
               value: 6.
               norm_class_idx: 6
            -
               depth: 4
               value: 2.
               norm_class_idx: 2
               splits:
                  - { var:118, quality:6.5033332824707031e+01,
                      le:5.2130338735878468e-04 }
            -
               depth: 5
               value: 6.
               norm_class_idx: 6
            -
               depth: 5
               value: 2.
               norm_class_idx: 2
            -
               depth: 3
               value: 6.
               norm_class_idx: 6
               splits:
                  - { var:136, quality:1.5701361083984375e+02,
                      le:1.0849223472177982e-03 }
            -
               depth: 4
               value: 6.
               norm_class_idx: 6
               splits:
                  - { var:166, quality:147., le:6.6874264739453793e-03 }
            -
               depth: 5
               value: 6.
               norm_class_idx: 6
            -
               depth: 5
               value: 3.
               norm_class_idx: 3
            -
               depth: 4
               value: 8.
               norm_class_idx: 8
            -
               depth: 2
               value: 0.
               norm_class_idx: 0
               splits:
                  - { var:274, quality:2.5609039306640625e+02,
                      le:1.6697833314538002e-02 }
            -
               depth: 3
               value: 0.
               norm_class_idx: 0
               splits:
                  - { var:22, quality:2.8901733398437500e+02,
                      le:1.0003057308495045e-02 }
            -
               depth: 4
               value: 1.
               norm_class_idx: 1
               splits:
                  - { var:118, quality:9.9020622253417969e+01,
                      le:5.1311124116182327e-04 }
            -
               depth: 5
               value: 1.
               norm_class_idx: 1
            -
               depth: 5
               value: 0.
               norm_class_idx: 0
            -
               depth: 4
               value: 0.
               norm_class_idx: 0
               splits:
                  - { var:138, quality:2.2034506225585938e+02,
                      le:2.2467987146228552e-03 }
            -
               depth: 5
               value: 0.
               norm_class_idx: 0
            -
               depth: 5
               value: 1.
               norm_class_idx: 1
            -
               depth: 3
               value: 6.
               norm_class_idx: 6
            -
               depth: 1
               value: 9.
               norm_class_idx: 9
               splits:
                  - { var:142, quality:3.0444979858398438e+02,
                      le:3.3272299915552139e-03 }
            -
               depth: 2
               value: 5.
               norm_class_idx: 5
               splits:
                  - { var:176, quality:2.0869546508789062e+02,
                      le:7.3304520919919014e-03 }
            -
               depth: 3
               value: 5.
               norm_class_idx: 5
               splits:
                  - { var:131, quality:2.0651408386230469e+02,
                      le:1.5701052689109929e-05 }
            -
               depth: 4
               value: 9.
               norm_class_idx: 9
               splits:
                  - { var:159, quality:7.8898826599121094e+01,
                      le:6.6606588661670685e-03 }
            -
               depth: 5
               value: 3.
               norm_class_idx: 3
            -
               depth: 5
               value: 9.
               norm_class_idx: 9
            -
               depth: 4
               value: 5.
               norm_class_idx: 5
               splits:
                  - { var:57, quality:1.8226953125000000e+02,
                      le:4.0124417282640934e-03 }
            -
               depth: 5
               value: 5.
               norm_class_idx: 5
            -
               depth: 5
               value: 3.
               norm_class_idx: 3
            -
               depth: 3
               value: 1.
               norm_class_idx: 1
            -
               depth: 2
               value: 7.
               norm_class_idx: 7
               splits:
                  - { var:52, quality:1.8704273986816406e+02,
                      le:3.9920952985994518e-04 }
            -
               depth: 3
               value: 2.
               norm_class_idx: 2
               splits:
                  - { var:152, quality:1.8823635864257812e+02,
                      le:6.2448028475046158e-03 }
            -
               depth: 4
               value: 2.
               norm_class_idx: 2
               splits:
                  - { var:99, quality:1.9553340148925781e+02,
                      le:2.3206688929349184e-03 }
            -
               depth: 5
               value: 7.
               norm_class_idx: 7
            -
               depth: 5
               value: 2.
               norm_class_idx: 2
            -
               depth: 4
               value: 9.
               norm_class_idx: 9
               splits:
                  - { var:55, quality:8.9634040832519531e+01,
                      le:3.6176773719489574e-03 }
            -
               depth: 5
               value: 9.
               norm_class_idx: 9
            -
               depth: 5
               value: 3.
               norm_class_idx: 3
            -
               depth: 3
               value: 7.
               norm_class_idx: 7
               splits:
                  - { var:77, quality:1.0559845733642578e+02,
                      le:3.3757004421204329e-03 }
            -
               depth: 4
               value: 8.
               norm_class_idx: 8
               splits:
                  - { var:74, quality:1.5460605621337891e+01,
                      le:3.9359349757432938e-03 }
            -
               depth: 5
               value: 8.
               norm_class_idx: 8
            -
               depth: 5
               value: 3.
               norm_class_idx: 3
            -
               depth: 4
               value: 7.
               norm_class_idx: 7
               splits:
                  - { var:17, quality:1.2360157775878906e+02,
                      le:4.5787546696374193e-05 }
            -
               depth: 5
               value: 7.
               norm_class_idx: 7
            -
               depth: 5
               value: 1.
               norm_class_idx: 1
      -
         nodes:
            -
               depth: 0
               value: 3.
               norm_class_idx: 3
               splits:
                  - { var:17, quality:3.8741967773437500e+02,
                      le:2.9245014302432537e-03 }
            -
               depth: 1
               value: 3.
               norm_class_idx: 3
               splits:
                  - { var:155, quality:3.6234216308593750e+02,
                      le:5.8769602328538895e-03 }
            -
               depth: 2
               value: 6.
               norm_class_idx: 6
               splits:
                  - { var:163, quality:3.0001556396484375e+02,
                      le:1.4352842699736357e-03 }
            -
               depth: 3
               value: 0.
               norm_class_idx: 0
               splits:
                  - { var:140, quality:1.2650000000000000e+02,
                      le:5.6442278437316418e-03 }
            -
               depth: 4
               value: 0.
               norm_class_idx: 0
            -
               depth: 4
               value: 2.
               norm_class_idx: 2
            -
               depth: 3
               value: 6.
               norm_class_idx: 6
               splits:
                  - { var:115, quality:2.9659582519531250e+02,
                      le:7.5344624929130077e-04 }
            -
               depth: 4
               value: 2.
               norm_class_idx: 2
               splits:
                  - { var:54, quality:1.8687335205078125e+02,
                      le:1.0571454185992479e-03 }
            -
               depth: 5
               value: 2.
               norm_class_idx: 2
            -
               depth: 5
               value: 8.
               norm_class_idx: 8
            -
               depth: 4
               value: 6.
               norm_class_idx: 6
               splits:
                  - { var:109, quality:2.5543672180175781e+02,
                      le:2.1874953061342239e-02 }
            -
               depth: 5
               value: 8.
               norm_class_idx: 8
            -
               depth: 5
               value: 6.
               norm_class_idx: 6
            -
               depth: 2
               value: 4.
               norm_class_idx: 4
               splits:
                  - { var:50, quality:2.8927700805664062e+02,
                      le:1.7479462258052081e-05 }
            -
               depth: 3
               value: 9.
               norm_class_idx: 9
               splits:
                  - { var:83, quality:1.7335575866699219e+02,
                      le:5.6838023010641336e-04 }
            -
               depth: 4
               value: 9.
               norm_class_idx: 9
               splits:
                  - { var:55, quality:1.7070642089843750e+02,
                      le:4.1937814094126225e-03 }
            -
               depth: 5
               value: 9.
               norm_class_idx: 9
            -
               depth: 5
               value: 3.
               norm_class_idx: 3
            -
               depth: 4
               value: 3.
               norm_class_idx: 3
               splits:
                  - { var:299, quality:3.9676364898681641e+01,
                      le:6.5297074615955353e-03 }
            -
               depth: 5
               value: 3.
               norm_class_idx: 3
            -
               depth: 5
               value: 9.
               norm_class_idx: 9
            -
               depth: 3
               value: 4.
               norm_class_idx: 4
               splits:
                  - { var:91, quality:1.7050592041015625e+02,
                      le:6.2676880042999983e-04 }
            -
               depth: 4
               value: 5.
               norm_class_idx: 5
               splits:
                  - { var:118, quality:5.9609523773193359e+01,
                      le:2.8074742294847965e-03 }
            -
               depth: 5
               value: 3.
               norm_class_idx: 3
            -
               depth: 5
               value: 5.
               norm_class_idx: 5
            -
               depth: 4
               value: 4.
               norm_class_idx: 4
               splits:
                  - { var:151, quality:1.6973199462890625e+02,
                      le:4.8997295089066029e-03 }
            -
               depth: 5
               value: 5.
               norm_class_idx: 5
            -
               depth: 5
               value: 4.
               norm_class_idx: 4
            -
               depth: 1
               value: 1.
               norm_class_idx: 1
               splits:
                  - { var:170, quality:2.4846333312988281e+02,
                      le:2.5749783962965012e-03 }
            -
               depth: 2
               value: 0.
               norm_class_idx: 0
               splits:
                  - { var:288, quality:57., le:7.9921539872884750e-04 }
            -
               depth: 3
               value: 4.
               norm_class_idx: 4
            -
               depth: 3
               value: 0.
               norm_class_idx: 0
            -
               depth: 2
               value: 1.
               norm_class_idx: 1
               splits:
                  - { var:144, quality:2.1667382812500000e+02,
                      le:4.7832243144512177e-03 }
            -
               depth: 3
               value: 1.
               norm_class_idx: 1
               splits:
                  - { var:129, quality:2.1388888549804688e+02,
                      le:4.1743399924598634e-04 }
            -
               depth: 4
               value: 0.
               norm_class_idx: 0
            -
               depth: 4
               value: 1.
               norm_class_idx: 1
            -
               depth: 3
               value: 0.
               norm_class_idx: 0
               splits:
                  - { var:304, quality:1.9986841201782227e+01,
                      le:3.4406005870550871e-03 }
            -
               depth: 4
               value: 0.
               norm_class_idx: 0
               splits:
                  - { var:22, quality:1.7666666030883789e+01,
                      le:1.1537333950400352e-02 }
            -
               depth: 5
               value: 8.
               norm_class_idx: 8
            -
               depth: 5
               value: 0.
               norm_class_idx: 0
            -
               depth: 4
               value: 1.
               norm_class_idx: 1
      -
         nodes:
            -
               depth: 0
               value: 4.
               norm_class_idx: 4
               splits:
                  - { var:22, quality:3.6624768066406250e+02,
                      le:5.0689406692981720e-02 }
            -
               depth: 1
               value: 4.
               norm_class_idx: 4
               splits:
                  - { var:163, quality:3.6555053710937500e+02,
                      le:2.0441405940800905e-03 }
            -
               depth: 2
               value: 0.
               norm_class_idx: 0
               splits:
                  - { var:146, quality:1.8256889343261719e+02,
                      le:8.7760314345359802e-03 }
            -
               depth: 3
               value: 0.
               norm_class_idx: 0
               splits:
                  - { var:175, quality:2.0283000183105469e+02,
                      le:1.4179455116391182e-02 }
            -
               depth: 4
               value: 0.
               norm_class_idx: 0
               splits:
                  - { var:79, quality:1.9228125000000000e+02,
                      le:5.7651898823678493e-03 }
            -
               depth: 5
               value: 0.
               norm_class_idx: 0
            -
               depth: 5
               value: 1.
               norm_class_idx: 1
            -
               depth: 4
               value: 1.
               norm_class_idx: 1
               splits:
                  - { var:280, quality:20., le:5.1127281039953232e-03 }
            -
               depth: 5
               value: 1.
               norm_class_idx: 1
            -
               depth: 5
               value: 0.
               norm_class_idx: 0
            -
               depth: 3
               value: 4.
               norm_class_idx: 4
               splits:
                  - { var:281, quality:1.2931818008422852e+01,
                      le:1.5523396432399750e-03 }
            -
               depth: 4
               value: 4.
               norm_class_idx: 4
               splits:
                  - { var:168, quality:11., le:4.2565766489133239e-04 }
            -
               depth: 5
               value: 9.
               norm_class_idx: 9
            -
               depth: 5
               value: 4.
               norm_class_idx: 4
            -
               depth: 4
               value: 8.
               norm_class_idx: 8
            -
               depth: 2
               value: 4.
               norm_class_idx: 4
               splits:
                  - { var:138, quality:3.3988870239257812e+02,
                      le:1.4413970056921244e-03 }
            -
               depth: 3
               value: 4.
               norm_class_idx: 4
               splits:
                  - { var:130, quality:2.7268878173828125e+02,
                      le:7.3756049387156963e-03 }
            -
               depth: 4
               value: 4.
               norm_class_idx: 4
               splits:
                  - { var:157, quality:2.2475790405273438e+02,
                      le:8.1787463277578354e-03 }
            -
               depth: 5
               value: 4.
               norm_class_idx: 4
            -
               depth: 5
               value: 9.
               norm_class_idx: 9
            -
               depth: 4
               value: 1.
               norm_class_idx: 1
            -
               depth: 3
               value: 7.
               norm_class_idx: 7
               splits:
                  - { var:171, quality:2.2600856018066406e+02,
                      le:5.3377808071672916e-03 }
            -
               depth: 4
               value: 2.
               norm_class_idx: 2
               splits:
                  - { var:30, quality:2.6562911987304688e+02,
                      le:7.5079564703628421e-04 }
            -
               depth: 5
               value: 8.
               norm_class_idx: 8
            -
               depth: 5
               value: 2.
               norm_class_idx: 2
            -
               depth: 4
               value: 7.
               norm_class_idx: 7
               splits:
                  - { var:21, quality:1.5001290893554688e+02,
                      le:2.2825074847787619e-03 }
            -
               depth: 5
               value: 7.
               norm_class_idx: 7
            -
               depth: 5
               value: 1.
               norm_class_idx: 1
            -
               depth: 1
               value: 6.
               norm_class_idx: 6
               splits:
                  - { var:23, quality:2.2141748046875000e+02,
                      le:4.6559449285268784e-02 }
            -
               depth: 2
               value: 9.
               norm_class_idx: 9
               splits:
                  - { var:78, quality:4.5842105865478516e+01,
                      le:3.8865138776600361e-05 }
            -
               depth: 3
               value: 9.
               norm_class_idx: 9
            -
               depth: 3
               value: 8.
               norm_class_idx: 8
               splits:
                  - { var:59, quality:1.2166666984558105e+01,
                      le:3.0434504151344299e-03 }
            -
               depth: 4
               value: 3.
               norm_class_idx: 3
               splits:
                  - { var:296, quality:8.8571424484252930e+00,
                      le:8.7609776528552175e-04 }
            -
               depth: 5
               value: 3.
               norm_class_idx: 3
            -
               depth: 5
               value: 5.
               norm_class_idx: 5
            -
               depth: 4
               value: 8.
               norm_class_idx: 8
            -
               depth: 2
               value: 6.
               norm_class_idx: 6
               splits:
                  - { var:63, quality:1.9435122680664062e+02,
                      le:1.3232512399554253e-02 }
            -
               depth: 3
               value: 6.
               norm_class_idx: 6
               splits:
                  - { var:307, quality:1.9780000305175781e+02,
                      le:1.1149774945806712e-04 }
            -
               depth: 4
               value: 6.
               norm_class_idx: 6
            -
               depth: 4
               value: 6.
               norm_class_idx: 6
               splits:
                  - { var:95, quality:15., le:2.8054583817720413e-03 }
            -
               depth: 5
               value: 6.
               norm_class_idx: 6
            -
               depth: 5
               value: 7.
               norm_class_idx: 7
            -
               depth: 3
               value: 3.
               norm_class_idx: 3
      -
         nodes:
            -
               depth: 0
               value: 9.
               norm_class_idx: 9
               splits:
                  - { var:98, quality:3.4353976440429688e+02,
                      le:2.6543374406173825e-04 }
            -
               depth: 1
               value: 1.
               norm_class_idx: 1
               splits:
                  - { var:16, quality:1.7540716552734375e+02,
                      le:3.2275149133056402e-03 }
            -
               depth: 2
               value: 6.
               norm_class_idx: 6
               splits:
                  - { var:299, quality:2.6168478012084961e+01,
                      le:1.5792145859450102e-03 }
            -
               depth: 3
               value: 6.
               norm_class_idx: 6
               splits:
                  - { var:25, quality:16., le:2.4146463721990585e-02 }
            -
               depth: 4
               value: 6.
               norm_class_idx: 6
            -
               depth: 4
               value: 0.
               norm_class_idx: 0
            -
               depth: 3
               value: 8.
               norm_class_idx: 8
               splits:
                  - { var:164, quality:23., le:2.8825919143855572e-03 }
            -
               depth: 4
               value: 0.
               norm_class_idx: 0
            -
               depth: 4
               value: 8.
               norm_class_idx: 8
            -
               depth: 2
               value: 1.
               norm_class_idx: 1
               splits:
                  - { var:163, quality:1.6401211547851562e+02,
                      le:1.1093572247773409e-03 }
            -
               depth: 3
               value: 0.
               norm_class_idx: 0
            -
               depth: 3
               value: 1.
               norm_class_idx: 1
               splits:
                  - { var:18, quality:165., le:3.5453155636787415e-02 }
            -
               depth: 4
               value: 1.
               norm_class_idx: 1
            -
               depth: 4
               value: 0.
               norm_class_idx: 0
            -
               depth: 1
               value: 9.
               norm_class_idx: 9
               splits:
                  - { var:160, quality:3.1521551513671875e+02,
                      le:2.0418534986674786e-03 }
            -
               depth: 2
               value: 0.
               norm_class_idx: 0
               splits:
                  - { var:98, quality:1.3834098815917969e+02,
                      le:4.3505616486072540e-03 }
            -
               depth: 3
               value: 0.
               norm_class_idx: 0
               splits:
                  - { var:164, quality:1.3021586608886719e+02,
                      le:3.3217628952115774e-03 }
            -
               depth: 4
               value: 0.
               norm_class_idx: 0
               splits:
                  - { var:28, quality:126., le:2.0896490663290024e-02 }
            -
               depth: 5
               value: 0.
               norm_class_idx: 0
            -
               depth: 5
               value: 1.
               norm_class_idx: 1
            -
               depth: 4
               value: 1.
               norm_class_idx: 1
               splits:
                  - { var:106, quality:1.1800000190734863e+01,
                      le:6.9387797266244888e-03 }
            -
               depth: 5
               value: 1.
               norm_class_idx: 1
            -
               depth: 5
               value: 0.
               norm_class_idx: 0
            -
               depth: 3
               value: 1.
               norm_class_idx: 1
               splits:
                  - { var:90, quality:2.2500000000000000e+01,
                      le:3.5865485668182373e-02 }
            -
               depth: 4
               value: 3.
               norm_class_idx: 3
            -
               depth: 4
               value: 1.
               norm_class_idx: 1
            -
               depth: 2
               value: 4.
               norm_class_idx: 4
               splits:
                  - { var:177, quality:3.1641354370117188e+02,
                      le:1.9812588579952717e-03 }
            -
               depth: 3
               value: 4.
               norm_class_idx: 4
               splits:
                  - { var:33, quality:2.0062705993652344e+02,
                      le:6.2195572536438704e-04 }
            -
               depth: 4
               value: 4.
               norm_class_idx: 4
               splits:
                  - { var:99, quality:1.9086544799804688e+02,
                      le:1.1238301172852516e-02 }
            -
               depth: 5
               value: 4.
               norm_class_idx: 4
            -
               depth: 5
               value: 9.
               norm_class_idx: 9
            -
               depth: 4
               value: 9.
               norm_class_idx: 9
               splits:
                  - { var:116, quality:7.8445457458496094e+01,
                      le:5.4428200237452984e-03 }
            -
               depth: 5
               value: 9.
               norm_class_idx: 9
            -
               depth: 5
               value: 7.
               norm_class_idx: 7
            -
               depth: 3
               value: 2.
               norm_class_idx: 2
               splits:
                  - { var:93, quality:2.6807492065429688e+02,
                      le:4.6244321856647730e-04 }
            -
               depth: 4
