%YAML:1.0
---
opencv_ml_rtrees:
   format: 3
   is_classifier: 1
   var_all: 25
   var_count: 24
   ord_var_count: 24
   cat_var_count: 1
   training_params:
      use_surrogates: 0
      max_categories: 10
      regression_accuracy: 0.
      max_depth: 5
      min_sample_count: 10
      cross_validation_folds: 0
      nactive_vars: 0
   global_var_idx: 1
   var_idx: [ 0, 1, 2, 3, 4, 5, 6, 7, 8, 9, 10, 11, 12, 13, 14, 15, 16,
       17, 18, 19, 20, 21, 22, 23 ]
   var_type: [ 0, 0, 0, 0, 0, 0, 0, 0, 0, 0, 0, 0, 0, 0, 0, 0, 0, 0, 0,
       0, 0, 0, 0, 0, 1 ]
   cat_ofs: [ 0, 0, 0, 0, 0, 0, 0, 0, 0, 0, 0, 0, 0, 0, 0, 0, 0, 0, 0, 0,
       0, 0, 0, 0, 0, 0, 0, 0, 0, 0, 0, 0, 0, 0, 0, 0, 0, 0, 0, 0, 0, 0,
       0, 0, 0, 0, 0, 0 ]
   class_labels: [ 0, 1, 2, 3, 4, 5, 6, 7, 8, 9 ]
   missing_subst: [ 0., 0., 0., 0., 0., 0., 0., 0., 0., 0., 0., 0., 0.,
       0., 0., 0., 0., 0., 0., 0., 0., 0., 0., 0., 0. ]
   oob_error: 0.
   ntrees: 50
   trees:
      -
         nodes:
            -
               depth: 0
               value: 7.
               norm_class_idx: 7
               splits:
                  - { var:12, quality:4.1219601440429688e+02,
                      le:4.8731239512562752e-03 }
            -
               depth: 1
               value: 1.
               norm_class_idx: 1
               splits:
                  - { var:0, quality:220., le:3.2521430402994156e-03 }
            -
               depth: 2
               value: 1.
               norm_class_idx: 1
            -
               depth: 2
               value: 0.
               norm_class_idx: 0
            -
               depth: 1
               value: 7.
               norm_class_idx: 7
               splits:
                  - { var:14, quality:3.9714788818359375e+02,
                      le:4.7880180180072784e-02 }
            -
               depth: 2
               value: 7.
               norm_class_idx: 7
               splits:
                  - { var:16, quality:3.0653829956054688e+02,
                      le:2.2203892469406128e-01 }
            -
               depth: 3
               value: 4.
               norm_class_idx: 4
               splits:
                  - { var:8, quality:2.7984844970703125e+02,
                      le:2.8299424797296524e-02 }
            -
               depth: 4
               value: 5.
               norm_class_idx: 5
               splits:
                  - { var:6, quality:2.5168350219726562e+02,
                      le:3.3239070326089859e-02 }
            -
               depth: 5
               value: 5.
               norm_class_idx: 5
            -
               depth: 5
               value: 6.
               norm_class_idx: 6
            -
               depth: 4
               value: 4.
               norm_class_idx: 4
               splits:
                  - { var:1, quality:2.2860031127929688e+02,
                      le:2.0415108650922775e-02 }
            -
               depth: 5
               value: 9.
               norm_class_idx: 9
            -
               depth: 5
               value: 4.
               norm_class_idx: 4
            -
               depth: 3
               value: 2.
               norm_class_idx: 2
               splits:
                  - { var:10, quality:2.8746652221679688e+02,
                      le:1.3082054257392883e-01 }
            -
               depth: 4
               value: 2.
               norm_class_idx: 2
               splits:
                  - { var:8, quality:2.0881852722167969e+02,
                      le:7.0253312587738037e-02 }
            -
               depth: 5
               value: 6.
               norm_class_idx: 6
            -
               depth: 5
               value: 2.
               norm_class_idx: 2
            -
               depth: 4
               value: 0.
               norm_class_idx: 0
            -
               depth: 2
               value: 8.
               norm_class_idx: 8
               splits:
                  - { var:8, quality:3.3020184326171875e+02,
                      le:3.5943351686000824e-03 }
            -
               depth: 3
               value: 8.
               norm_class_idx: 8
            -
               depth: 3
               value: 3.
               norm_class_idx: 3
               splits:
                  - { var:0, quality:1.0650000000000000e+02,
                      le:2.8984611853957176e-03 }
            -
               depth: 4
               value: 9.
               norm_class_idx: 9
            -
               depth: 4
               value: 3.
               norm_class_idx: 3
      -
         nodes:
            -
               depth: 0
               value: 6.
               norm_class_idx: 6
               splits:
                  - { var:19, quality:4.0518453979492188e+02,
                      le:3.9976667612791061e-03 }
            -
               depth: 1
               value: 1.
               norm_class_idx: 1
               splits:
                  - { var:10, quality:1.9839999389648438e+02,
                      le:1.0785978287458420e-02 }
            -
               depth: 2
               value: 1.
               norm_class_idx: 1
            -
               depth: 2
               value: 2.
               norm_class_idx: 2
            -
               depth: 1
               value: 6.
               norm_class_idx: 6
               splits:
                  - { var:9, quality:4.1466882324218750e+02,
                      le:3.8527934812009335e-03 }
            -
               depth: 2
               value: 8.
               norm_class_idx: 8
               splits:
                  - { var:10, quality:207., le:4.6385347843170166e-02 }
            -
               depth: 3
               value: 8.
               norm_class_idx: 8
            -
               depth: 3
               value: 6.
               norm_class_idx: 6
            -
               depth: 2
               value: 9.
               norm_class_idx: 9
               splits:
                  - { var:23, quality:3.2277774047851562e+02,
                      le:5.1653565606102347e-04 }
            -
               depth: 3
               value: 6.
               norm_class_idx: 6
               splits:
                  - { var:17, quality:2.4414251708984375e+02,
                      le:2.7568563818931580e-02 }
            -
               depth: 4
               value: 2.
               norm_class_idx: 2
               splits:
                  - { var:2, quality:1.3069181823730469e+02,
                      le:1.0110395960509777e-02 }
            -
               depth: 5
               value: 0.
               norm_class_idx: 0
            -
               depth: 5
               value: 2.
               norm_class_idx: 2
            -
               depth: 4
               value: 7.
               norm_class_idx: 7
               splits:
                  - { var:10, quality:2.8328952026367188e+02,
                      le:6.6003665328025818e-02 }
            -
               depth: 5
               value: 7.
               norm_class_idx: 7
            -
               depth: 5
               value: 6.
               norm_class_idx: 6
            -
               depth: 3
               value: 5.
               norm_class_idx: 5
               splits:
                  - { var:16, quality:2.8267098999023438e+02,
                      le:1.8603522330522537e-02 }
            -
               depth: 4
               value: 3.
               norm_class_idx: 3
               splits:
                  - { var:17, quality:1.5543728637695312e+02,
                      le:3.4920789301395416e-02 }
            -
               depth: 5
               value: 3.
               norm_class_idx: 3
            -
               depth: 5
               value: 1.
               norm_class_idx: 1
            -
               depth: 4
               value: 5.
               norm_class_idx: 5
               splits:
                  - { var:2, quality:3.0396255493164062e+02,
                      le:6.9701969623565674e-02 }
            -
               depth: 5
               value: 9.
               norm_class_idx: 9
            -
               depth: 5
               value: 5.
               norm_class_idx: 5
      -
         nodes:
            -
               depth: 0
               value: 6.
               norm_class_idx: 6
               splits:
                  - { var:9, quality:4.2430532836914062e+02,
                      le:3.8527934812009335e-03 }
            -
               depth: 1
               value: 8.
               norm_class_idx: 8
               splits:
                  - { var:17, quality:4.1735244750976562e+02,
                      le:3.2003081869333982e-03 }
            -
               depth: 2
               value: 1.
               norm_class_idx: 1
            -
               depth: 2
               value: 8.
               norm_class_idx: 8
               splits:
                  - { var:1, quality:2.4228572082519531e+02,
                      le:2.8494084253907204e-03 }
            -
               depth: 3
               value: 6.
               norm_class_idx: 6
            -
               depth: 3
               value: 8.
               norm_class_idx: 8
            -
               depth: 1
               value: 6.
               norm_class_idx: 6
               splits:
                  - { var:2, quality:3.4631893920898438e+02,
                      le:6.8631350994110107e-02 }
            -
               depth: 2
               value: 6.
               norm_class_idx: 6
               splits:
                  - { var:16, quality:3.8976644897460938e+02,
                      le:3.4765191376209259e-02 }
            -
               depth: 3
               value: 3.
               norm_class_idx: 3
               splits:
                  - { var:11, quality:2.2373222351074219e+02,
                      le:1.1666524223983288e-02 }
            -
               depth: 4
               value: 1.
               norm_class_idx: 1
            -
               depth: 4
               value: 3.
               norm_class_idx: 3
               splits:
                  - { var:3, quality:2.1418298339843750e+02,
                      le:6.8628437817096710e-02 }
            -
               depth: 5
               value: 3.
               norm_class_idx: 3
            -
               depth: 5
               value: 5.
               norm_class_idx: 5
            -
               depth: 3
               value: 6.
               norm_class_idx: 6
               splits:
                  - { var:3, quality:2.6246826171875000e+02,
                      le:3.8228049874305725e-02 }
            -
               depth: 4
               value: 9.
               norm_class_idx: 9
               splits:
                  - { var:16, quality:2.3662619018554688e+02,
                      le:2.6103579998016357e-01 }
            -
               depth: 5
               value: 9.
               norm_class_idx: 9
            -
               depth: 5
               value: 0.
               norm_class_idx: 0
            -
               depth: 4
               value: 4.
               norm_class_idx: 4
               splits:
                  - { var:18, quality:2.0016683959960938e+02,
                      le:2.6701141148805618e-02 }
            -
               depth: 5
               value: 7.
               norm_class_idx: 7
            -
               depth: 5
               value: 4.
               norm_class_idx: 4
            -
               depth: 2
               value: 5.
               norm_class_idx: 5
               splits:
                  - { var:14, quality:2.1766938781738281e+02,
                      le:5.0895484164357185e-03 }
            -
               depth: 3
               value: 0.
               norm_class_idx: 0
               splits:
                  - { var:8, quality:7.1241607666015625e+01,
                      le:9.2757910490036011e-02 }
            -
               depth: 4
               value: 0.
               norm_class_idx: 0
               splits:
                  - { var:8, quality:47., le:2.3716416209936142e-02 }
            -
               depth: 5
               value: 5.
               norm_class_idx: 5
            -
               depth: 5
               value: 0.
               norm_class_idx: 0
            -
               depth: 4
               value: 2.
               norm_class_idx: 2
               splits:
                  - { var:1, quality:45., le:3.4475628286600113e-02 }
            -
               depth: 5
               value: 2.
               norm_class_idx: 2
            -
               depth: 5
               value: 4.
               norm_class_idx: 4
            -
               depth: 3
               value: 5.
               norm_class_idx: 5
               splits:
                  - { var:16, quality:2.0014692687988281e+02,
                      le:2.2953316569328308e-01 }
            -
               depth: 4
               value: 5.
               norm_class_idx: 5
               splits:
                  - { var:21, quality:1.9768455505371094e+02,
                      le:2.4217057973146439e-02 }
            -
               depth: 5
               value: 5.
               norm_class_idx: 5
            -
               depth: 5
               value: 4.
               norm_class_idx: 4
            -
               depth: 4
               value: 2.
               norm_class_idx: 2
      -
         nodes:
            -
               depth: 0
               value: 7.
               norm_class_idx: 7
               splits:
                  - { var:12, quality:4.0618896484375000e+02,
                      le:4.4188760221004486e-03 }
            -
               depth: 1
               value: 1.
               norm_class_idx: 1
               splits:
                  - { var:16, quality:198., le:1.9233338534832001e-02 }
            -
               depth: 2
               value: 1.
               norm_class_idx: 1
            -
               depth: 2
               value: 0.
               norm_class_idx: 0
            -
               depth: 1
               value: 7.
               norm_class_idx: 7
               splits:
                  - { var:20, quality:3.8984677124023438e+02,
                      le:6.2571600079536438e-02 }
            -
               depth: 2
               value: 7.
               norm_class_idx: 7
               splits:
                  - { var:2, quality:3.4774209594726562e+02,
                      le:7.0122584700584412e-02 }
            -
               depth: 3
               value: 7.
               norm_class_idx: 7
               splits:
                  - { var:11, quality:2.8294207763671875e+02,
                      le:8.1875368952751160e-02 }
            -
               depth: 4
               value: 7.
               norm_class_idx: 7
               splits:
                  - { var:10, quality:2.7078125000000000e+02,
                      le:9.0445362031459808e-02 }
            -
               depth: 5
               value: 7.
               norm_class_idx: 7
            -
               depth: 5
               value: 6.
               norm_class_idx: 6
            -
               depth: 4
               value: 0.
               norm_class_idx: 0
               splits:
                  - { var:12, quality:2.1586917114257812e+02,
                      le:3.8225144147872925e-02 }
            -
               depth: 5
               value: 0.
               norm_class_idx: 0
            -
               depth: 5
               value: 6.
               norm_class_idx: 6
            -
               depth: 3
               value: 5.
               norm_class_idx: 5
               splits:
                  - { var:8, quality:2.4051690673828125e+02,
                      le:2.9687481001019478e-02 }
            -
               depth: 4
               value: 5.
               norm_class_idx: 5
               splits:
                  - { var:9, quality:207., le:1.3477492332458496e-01 }
            -
               depth: 5
               value: 5.
               norm_class_idx: 5
            -
               depth: 5
               value: 0.
               norm_class_idx: 0
            -
               depth: 4
               value: 2.
               norm_class_idx: 2
               splits:
                  - { var:9, quality:7.0599998474121094e+01,
                      le:4.1680984199047089e-02 }
            -
               depth: 5
               value: 2.
               norm_class_idx: 2
            -
               depth: 5
               value: 0.
               norm_class_idx: 0
            -
               depth: 2
               value: 8.
               norm_class_idx: 8
               splits:
                  - { var:9, quality:2.9556713867187500e+02,
                      le:5.9928107075393200e-03 }
            -
               depth: 3
               value: 8.
               norm_class_idx: 8
               splits:
                  - { var:6, quality:230., le:1.1311624199151993e-02 }
            -
               depth: 4
               value: 9.
               norm_class_idx: 9
            -
               depth: 4
               value: 8.
               norm_class_idx: 8
            -
               depth: 3
               value: 3.
               norm_class_idx: 3
               splits:
                  - { var:9, quality:8.3400001525878906e+01,
                      le:2.2150032222270966e-02 }
            -
               depth: 4
               value: 3.
               norm_class_idx: 3
            -
               depth: 4
               value: 4.
               norm_class_idx: 4
      -
         nodes:
            -
               depth: 0
               value: 7.
               norm_class_idx: 7
               splits:
                  - { var:17, quality:3.9721450805664062e+02,
                      le:2.4215928278863430e-03 }
            -
               depth: 1
               value: 1.
               norm_class_idx: 1
               splits:
                  - { var:4, quality:221., le:1.2676635757088661e-02 }
            -
               depth: 2
               value: 1.
               norm_class_idx: 1
            -
               depth: 2
               value: 3.
               norm_class_idx: 3
            -
               depth: 1
               value: 7.
               norm_class_idx: 7
               splits:
                  - { var:9, quality:4.0659280395507812e+02,
                      le:3.8564153946936131e-03 }
            -
               depth: 2
               value: 8.
               norm_class_idx: 8
               splits:
                  - { var:1, quality:2.1216667175292969e+02,
                      le:3.2645841129124165e-03 }
            -
               depth: 3
               value: 6.
               norm_class_idx: 6
               splits:
                  - { var:17, quality:1.0333333015441895e+01,
                      le:1.8960073590278625e-02 }
            -
               depth: 4
               value: 1.
               norm_class_idx: 1
            -
               depth: 4
               value: 6.
               norm_class_idx: 6
            -
               depth: 3
               value: 8.
               norm_class_idx: 8
            -
               depth: 2
               value: 7.
               norm_class_idx: 7
               splits:
                  - { var:6, quality:3.2790783691406250e+02,
                      le:2.3238344117999077e-02 }
            -
               depth: 3
               value: 5.
               norm_class_idx: 5
               splits:
                  - { var:8, quality:2.7803906250000000e+02,
                      le:5.3264446556568146e-02 }
            -
               depth: 4
               value: 5.
               norm_class_idx: 5
               splits:
                  - { var:21, quality:1.8936734008789062e+02,
                      le:2.7814952656626701e-02 }
            -
               depth: 5
               value: 5.
               norm_class_idx: 5
            -
               depth: 5
               value: 3.
               norm_class_idx: 3
            -
               depth: 4
               value: 2.
               norm_class_idx: 2
               splits:
                  - { var:10, quality:1.4798165893554688e+02,
                      le:4.1189566254615784e-02 }
            -
               depth: 5
               value: 2.
               norm_class_idx: 2
            -
               depth: 5
               value: 4.
               norm_class_idx: 4
            -
               depth: 3
               value: 7.
               norm_class_idx: 7
               splits:
                  - { var:10, quality:3.4540008544921875e+02,
                      le:6.7028358578681946e-02 }
            -
               depth: 4
               value: 7.
               norm_class_idx: 7
               splits:
                  - { var:21, quality:2.6993298339843750e+02,
                      le:3.0903622508049011e-02 }
            -
               depth: 5
               value: 7.
               norm_class_idx: 7
            -
               depth: 5
               value: 3.
               norm_class_idx: 3
            -
               depth: 4
               value: 0.
               norm_class_idx: 0
               splits:
                  - { var:18, quality:2.5414500427246094e+02,
                      le:1.7378823831677437e-02 }
            -
               depth: 5
               value: 0.
               norm_class_idx: 0
            -
               depth: 5
               value: 6.
               norm_class_idx: 6
      -
         nodes:
            -
               depth: 0
               value: 4.
               norm_class_idx: 4
               splits:
                  - { var:10, quality:4.1090496826171875e+02,
                      le:1.5779793262481689e-02 }
            -
               depth: 1
               value: 8.
               norm_class_idx: 8
               splits:
                  - { var:18, quality:3.8170816040039062e+02,
                      le:1.9715517759323120e-02 }
            -
               depth: 2
               value: 1.
               norm_class_idx: 1
               splits:
                  - { var:22, quality:205., le:4.9871006049215794e-03 }
            -
               depth: 3
               value: 2.
               norm_class_idx: 2
            -
               depth: 3
               value: 1.
               norm_class_idx: 1
            -
               depth: 2
               value: 8.
               norm_class_idx: 8
               splits:
                  - { var:12, quality:2.2850000000000000e+02,
                      le:3.3585660159587860e-02 }
            -
               depth: 3
               value: 1.
               norm_class_idx: 1
            -
               depth: 3
               value: 8.
               norm_class_idx: 8
            -
               depth: 1
               value: 4.
               norm_class_idx: 4
               splits:
                  - { var:2, quality:3.5885101318359375e+02,
                      le:7.2126917541027069e-02 }
            -
               depth: 2
               value: 7.
               norm_class_idx: 7
               splits:
                  - { var:1, quality:3.0223162841796875e+02,
                      le:2.1842304617166519e-02 }
            -
               depth: 3
               value: 7.
               norm_class_idx: 7
               splits:
                  - { var:11, quality:2.9323715209960938e+02,
                      le:8.1161499023437500e-02 }
            -
               depth: 4
               value: 7.
               norm_class_idx: 7
               splits:
                  - { var:23, quality:2.6644549560546875e+02,
                      le:4.8899248940870166e-04 }
            -
               depth: 5
               value: 7.
               norm_class_idx: 7
            -
               depth: 5
               value: 3.
               norm_class_idx: 3
            -
               depth: 4
               value: 6.
               norm_class_idx: 6
               splits:
                  - { var:13, quality:2.2354238891601562e+02,
                      le:1.9194982945919037e-02 }
            -
               depth: 5
               value: 0.
               norm_class_idx: 0
            -
               depth: 5
               value: 6.
               norm_class_idx: 6
            -
               depth: 3
               value: 4.
               norm_class_idx: 4
               splits:
                  - { var:13, quality:1.6481211853027344e+02,
                      le:3.7013385444879532e-03 }
            -
               depth: 4
               value: 0.
               norm_class_idx: 0
            -
               depth: 4
               value: 4.
               norm_class_idx: 4
               splits:
                  - { var:8, quality:1.5352174377441406e+02,
                      le:5.6496746838092804e-02 }
            -
               depth: 5
               value: 5.
               norm_class_idx: 5
            -
               depth: 5
               value: 4.
               norm_class_idx: 4
            -
               depth: 2
               value: 5.
               norm_class_idx: 5
               splits:
                  - { var:17, quality:2.1882905578613281e+02,
                      le:4.3862674385309219e-02 }
            -
               depth: 3
               value: 2.
               norm_class_idx: 2
            -
               depth: 3
               value: 5.
               norm_class_idx: 5
               splits:
                  - { var:13, quality:2.1596803283691406e+02,
                      le:6.6249356605112553e-03 }
            -
               depth: 4
               value: 0.
               norm_class_idx: 0
               splits:
                  - { var:7, quality:29., le:7.8518111258745193e-03 }
            -
               depth: 5
               value: 4.
               norm_class_idx: 4
            -
               depth: 5
               value: 0.
               norm_class_idx: 0
            -
               depth: 4
               value: 5.
               norm_class_idx: 5
               splits:
                  - { var:10, quality:205., le:5.7761676609516144e-02 }
            -
               depth: 5
               value: 4.
               norm_class_idx: 4
            -
               depth: 5
               value: 5.
               norm_class_idx: 5
      -
         nodes:
            -
               depth: 0
               value: 9.
               norm_class_idx: 9
               splits:
                  - { var:11, quality:4.3949459838867188e+02,
                      le:8.8029010221362114e-03 }
            -
               depth: 1
               value: 1.
               norm_class_idx: 1
            -
               depth: 1
               value: 9.
               norm_class_idx: 9
               splits:
                  - { var:9, quality:4.2033261108398438e+02,
                      le:3.5002320073544979e-03 }
            -
               depth: 2
               value: 8.
               norm_class_idx: 8
               splits:
                  - { var:3, quality:207., le:1.3071428053081036e-02 }
            -
               depth: 3
               value: 6.
               norm_class_idx: 6
            -
               depth: 3
               value: 8.
               norm_class_idx: 8
            -
               depth: 2
               value: 9.
               norm_class_idx: 9
               splits:
                  - { var:19, quality:3.3175219726562500e+02,
                      le:7.2366297245025635e-02 }
            -
               depth: 3
               value: 9.
               norm_class_idx: 9
               splits:
                  - { var:3, quality:3.0100952148437500e+02,
                      le:4.2949274182319641e-02 }
            -
               depth: 4
               value: 9.
               norm_class_idx: 9
               splits:
                  - { var:14, quality:2.5360240173339844e+02,
                      le:2.5242771953344345e-02 }
            -
               depth: 5
               value: 9.
               norm_class_idx: 9
            -
               depth: 5
               value: 3.
               norm_class_idx: 3
            -
               depth: 4
               value: 4.
               norm_class_idx: 4
               splits:
                  - { var:8, quality:2.8970236206054688e+02,
                      le:3.6543071269989014e-02 }
            -
               depth: 5
               value: 5.
               norm_class_idx: 5
            -
               depth: 5
               value: 4.
               norm_class_idx: 4
            -
               depth: 3
               value: 3.
               norm_class_idx: 3
               splits:
                  - { var:1, quality:126., le:2.3875826969742775e-02 }
            -
               depth: 4
               value: 3.
               norm_class_idx: 3
            -
               depth: 4
               value: 5.
               norm_class_idx: 5
      -
         nodes:
            -
               depth: 0
               value: 4.
               norm_class_idx: 4
               splits:
                  - { var:10, quality:3.9899072265625000e+02,
                      le:1.5501985326409340e-02 }
            -
               depth: 1
               value: 8.
               norm_class_idx: 8
               splits:
                  - { var:13, quality:3.7182727050781250e+02,
                      le:7.7664300799369812e-02 }
            -
               depth: 2
               value: 1.
               norm_class_idx: 1
               splits:
                  - { var:22, quality:2.1801075744628906e+02,
                      le:5.4123047739267349e-03 }
            -
               depth: 3
               value: 2.
               norm_class_idx: 2
            -
               depth: 3
               value: 1.
               norm_class_idx: 1
               splits:
                  - { var:12, quality:185., le:5.3959176875650883e-03 }
            -
               depth: 4
               value: 1.
               norm_class_idx: 1
            -
               depth: 4
               value: 1.
               norm_class_idx: 1
            -
               depth: 2
               value: 8.
               norm_class_idx: 8
            -
               depth: 1
               value: 4.
               norm_class_idx: 4
               splits:
                  - { var:6, quality:3.3295364379882812e+02,
                      le:1.9103320315480232e-02 }
            -
               depth: 2
               value: 5.
               norm_class_idx: 5
               splits:
                  - { var:17, quality:2.3372813415527344e+02,
                      le:4.8508789390325546e-02 }
            -
               depth: 3
               value: 2.
               norm_class_idx: 2
               splits:
                  - { var:3, quality:8.2400001525878906e+01,
                      le:6.5329819917678833e-02 }
            -
               depth: 4
               value: 4.
               norm_class_idx: 4
            -
               depth: 4
               value: 2.
               norm_class_idx: 2
            -
               depth: 3
               value: 5.
               norm_class_idx: 5
               splits:
                  - { var:10, quality:2.2934429931640625e+02,
                      le:7.0848226547241211e-02 }
            -
               depth: 4
               value: 4.
               norm_class_idx: 4
               splits:
                  - { var:9, quality:8.1253524780273438e+01,
                      le:4.2777664959430695e-02 }
            -
               depth: 5
               value: 5.
               norm_class_idx: 5
            -
               depth: 5
               value: 4.
               norm_class_idx: 4
            -
               depth: 4
               value: 5.
               norm_class_idx: 5
               splits:
                  - { var:18, quality:176., le:1.2581560015678406e-01 }
            -
               depth: 5
               value: 5.
               norm_class_idx: 5
            -
               depth: 5
               value: 0.
               norm_class_idx: 0
            -
               depth: 2
               value: 3.
               norm_class_idx: 3
               splits:
                  - { var:16, quality:3.8614624023437500e+02,
                      le:3.7990443408489227e-02 }
            -
               depth: 3
               value: 3.
               norm_class_idx: 3
               splits:
                  - { var:14, quality:2.3035877990722656e+02,
                      le:1.7445570230484009e-01 }
            -
               depth: 4
               value: 3.
               norm_class_idx: 3
               splits:
                  - { var:2, quality:2.5392308044433594e+02,
                      le:2.8880691155791283e-02 }
            -
               depth: 5
               value: 3.
               norm_class_idx: 3
            -
               depth: 5
               value: 0.
               norm_class_idx: 0
            -
               depth: 4
               value: 1.
               norm_class_idx: 1
            -
               depth: 3
               value: 9.
               norm_class_idx: 9
               splits:
                  - { var:10, quality:3.3513232421875000e+02,
                      le:7.5205497443675995e-02 }
            -
               depth: 4
               value: 9.
               norm_class_idx: 9
               splits:
                  - { var:7, quality:2.5275935363769531e+02,
                      le:1.8715869635343552e-02 }
            -
               depth: 5
               value: 4.
               norm_class_idx: 4
            -
               depth: 5
               value: 9.
               norm_class_idx: 9
            -
               depth: 4
               value: 6.
               norm_class_idx: 6
               splits:
                  - { var:23, quality:2.3645097351074219e+02,
                      le:2.4066142213996500e-04 }
            -
               depth: 5
               value: 6.
               norm_class_idx: 6
            -
               depth: 5
               value: 0.
               norm_class_idx: 0
      -
         nodes:
            -
               depth: 0
               value: 4.
               norm_class_idx: 4
               splits:
                  - { var:22, quality:4.2248587036132812e+02,
                      le:1.5699240565299988e-01 }
            -
               depth: 1
               value: 4.
               norm_class_idx: 4
               splits:
                  - { var:20, quality:3.8103866577148438e+02,
                      le:6.2756486237049103e-02 }
            -
               depth: 2
               value: 4.
               norm_class_idx: 4
               splits:
                  - { var:8, quality:3.4328692626953125e+02,
                      le:6.2451951205730438e-02 }
            -
               depth: 3
               value: 6.
               norm_class_idx: 6
               splits:
                  - { var:1, quality:3.0790908813476562e+02,
                      le:1.7480179667472839e-02 }
            -
               depth: 4
               value: 6.
               norm_class_idx: 6
               splits:
                  - { var:0, quality:2.5554820251464844e+02,
                      le:8.5795922204852104e-03 }
            -
               depth: 5
               value: 6.
               norm_class_idx: 6
            -
               depth: 5
               value: 3.
               norm_class_idx: 3
            -
               depth: 4
               value: 5.
               norm_class_idx: 5
               splits:
                  - { var:14, quality:2.5151458740234375e+02,
                      le:4.2815143242478371e-03 }
            -
               depth: 5
               value: 0.
               norm_class_idx: 0
            -
               depth: 5
               value: 5.
               norm_class_idx: 5
            -
               depth: 3
               value: 2.
               norm_class_idx: 2
               splits:
                  - { var:1, quality:3.0400726318359375e+02,
                      le:2.0664244890213013e-02 }
            -
               depth: 4
               value: 2.
               norm_class_idx: 2
               splits:
                  - { var:16, quality:2.3537028503417969e+02,
                      le:2.1751314401626587e-01 }
            -
               depth: 5
               value: 9.
               norm_class_idx: 9
            -
               depth: 5
               value: 2.
               norm_class_idx: 2
            -
               depth: 4
               value: 4.
               norm_class_idx: 4
               splits:
                  - { var:10, quality:177., le:8.0303736031055450e-02 }
            -
               depth: 5
               value: 4.
               norm_class_idx: 4
            -
               depth: 5
               value: 0.
               norm_class_idx: 0
            -
               depth: 2
               value: 8.
               norm_class_idx: 8
               splits:
                  - { var:8, quality:2.9145056152343750e+02,
                      le:4.6873153187334538e-03 }
            -
               depth: 3
               value: 8.
               norm_class_idx: 8
            -
               depth: 3
               value: 3.
               norm_class_idx: 3
               splits:
                  - { var:9, quality:8.7666664123535156e+01,
                      le:2.2022997960448265e-02 }
            -
               depth: 4
               value: 3.
               norm_class_idx: 3
            -
               depth: 4
               value: 4.
               norm_class_idx: 4
            -
               depth: 1
               value: 1.
               norm_class_idx: 1
               splits:
                  - { var:1, quality:237., le:5.8856052346527576e-03 }
            -
               depth: 2
               value: 1.
               norm_class_idx: 1
            -
               depth: 2
               value: 3.
               norm_class_idx: 3
      -
         nodes:
            -
               depth: 0
               value: 1.
               norm_class_idx: 1
               splits:
                  - { var:22, quality:4.1969146728515625e+02,
                      le:1.6956055164337158e-01 }
            -
               depth: 1
               value: 7.
               norm_class_idx: 7
               splits:
                  - { var:9, quality:4.3178976440429688e+02,
                      le:3.8527934812009335e-03 }
            -
               depth: 2
               value: 8.
               norm_class_idx: 8
               splits:
                  - { var:2, quality:2.2466667175292969e+02,
                      le:8.9490003883838654e-03 }
            -
               depth: 3
               value: 1.
               norm_class_idx: 1
            -
               depth: 3
               value: 8.
               norm_class_idx: 8
            -
               depth: 2
               value: 7.
               norm_class_idx: 7
               splits:
                  - { var:10, quality:3.8128314208984375e+02,
                      le:6.6207885742187500e-02 }
            -
               depth: 3
               value: 7.
               norm_class_idx: 7
               splits:
                  - { var:8, quality:3.2455337524414062e+02,
                      le:3.0522018671035767e-02 }
            -
               depth: 4
               value: 3.
               norm_class_idx: 3
               splits:
                  - { var:20, quality:1.6498832702636719e+02,
                      le:1.6286924481391907e-02 }
            -
               depth: 5
               value: 7.
               norm_class_idx: 7
            -
               depth: 5
               value: 3.
               norm_class_idx: 3
            -
               depth: 4
               value: 2.
               norm_class_idx: 2
               splits:
                  - { var:0, quality:3.0860498046875000e+02,
                      le:1.2601699680089951e-02 }
            -
               depth: 5
               value: 2.
               norm_class_idx: 2
            -
               depth: 5
               value: 4.
               norm_class_idx: 4
            -
               depth: 3
               value: 5.
               norm_class_idx: 5
               splits:
                  - { var:16, quality:2.9481265258789062e+02,
                      le:2.4975612759590149e-01 }
            -
               depth: 4
               value: 5.
               norm_class_idx: 5
               splits:
                  - { var:6, quality:3.0507052612304688e+02,
                      le:3.9423279464244843e-02 }
            -
               depth: 5
               value: 5.
               norm_class_idx: 5
            -
               depth: 5
               value: 6.
               norm_class_idx: 6
            -
               depth: 4
               value: 0.
               norm_class_idx: 0
               splits:
                  - { var:11, quality:155., le:6.0954473912715912e-02 }
            -
               depth: 5
               value: 6.
               norm_class_idx: 6
            -
               depth: 5
               value: 0.
               norm_class_idx: 0
            -
               depth: 1
               value: 1.
               norm_class_idx: 1
               splits:
                  - { var:0, quality:227., le:1.5049626119434834e-02 }
            -
               depth: 2
               value: 1.
               norm_class_idx: 1
            -
               depth: 2
               value: 3.
               norm_class_idx: 3
      -
         nodes:
            -
               depth: 0
               value: 5.
               norm_class_idx: 5
               splits:
                  - { var:12, quality:4.1390707397460938e+02,
                      le:4.7612655907869339e-03 }
            -
               depth: 1
               value: 1.
               norm_class_idx: 1
               splits:
                  - { var:19, quality:221., le:1.5147530473768711e-02 }
            -
               depth: 2
               value: 1.
               norm_class_idx: 1
            -
               depth: 2
               value: 0.
               norm_class_idx: 0
            -
               depth: 1
               value: 5.
               norm_class_idx: 5
               splits:
                  - { var:9, quality:4.1973458862304688e+02,
                      le:3.8352985866367817e-03 }
            -
               depth: 2
               value: 8.
               norm_class_idx: 8
               splits:
                  - { var:23, quality:2.1000952148437500e+02,
                      le:2.6303965598344803e-02 }
            -
               depth: 3
               value: 8.
               norm_class_idx: 8
               splits:
                  - { var:19, quality:210., le:4.3490316718816757e-02 }
            -
               depth: 4
               value: 6.
               norm_class_idx: 6
            -
               depth: 4
               value: 8.
               norm_class_idx: 8
            -
               depth: 3
               value: 1.
               norm_class_idx: 1
            -
               depth: 2
               value: 5.
               norm_class_idx: 5
               splits:
                  - { var:23, quality:3.3380349731445312e+02,
                      le:4.1994121856987476e-03 }
            -
               depth: 3
               value: 2.
               norm_class_idx: 2
               splits:
                  - { var:10, quality:3.4343588256835938e+02,
                      le:8.1594765186309814e-02 }
            -
               depth: 4
               value: 2.
               norm_class_idx: 2
               splits:
                  - { var:16, quality:3.1458895874023438e+02,
                      le:3.7445299327373505e-02 }
            -
               depth: 5
               value: 3.
               norm_class_idx: 3
            -
               depth: 5
               value: 2.
               norm_class_idx: 2
            -
               depth: 4
               value: 6.
               norm_class_idx: 6
               splits:
                  - { var:10, quality:2.7107266235351562e+02,
                      le:1.4079427719116211e-01 }
            -
               depth: 5
               value: 6.
               norm_class_idx: 6
            -
               depth: 5
               value: 0.
               norm_class_idx: 0
            -
               depth: 3
               value: 5.
               norm_class_idx: 5
               splits:
                  - { var:10, quality:2.5368444824218750e+02,
                      le:6.0433883219957352e-02 }
            -
               depth: 4
               value: 3.
               norm_class_idx: 3
               splits:
                  - { var:17, quality:1.1623022460937500e+02,
                      le:2.3240474984049797e-02 }
            -
               depth: 5
               value: 3.
               norm_class_idx: 3
            -
               depth: 5
               value: 9.
               norm_class_idx: 9
            -
               depth: 4
               value: 5.
               norm_class_idx: 5
               splits:
                  - { var:8, quality:2.5220121765136719e+02,
                      le:2.8024431318044662e-02 }
            -
               depth: 5
               value: 5.
               norm_class_idx: 5
            -
               depth: 5
               value: 0.
               norm_class_idx: 0
      -
         nodes:
            -
               depth: 0
               value: 1.
               norm_class_idx: 1
               splits:
                  - { var:13, quality:3.8527169799804688e+02,
                      le:8.2550272345542908e-02 }
            -
               depth: 1
               value: 1.
               norm_class_idx: 1
               splits:
                  - { var:5, quality:4.1846026611328125e+02,
                      le:8.7590552866458893e-03 }
            -
               depth: 2
               value: 1.
               norm_class_idx: 1
               splits:
                  - { var:16, quality:216., le:9.4125373288989067e-03 }
            -
               depth: 3
               value: 1.
               norm_class_idx: 1
            -
               depth: 3
               value: 9.
               norm_class_idx: 9
            -
               depth: 2
               value: 0.
               norm_class_idx: 0
               splits:
                  - { var:18, quality:2.8710095214843750e+02,
                      le:1.8226342275738716e-02 }
            -
               depth: 3
               value: 0.
               norm_class_idx: 0
               splits:
                  - { var:7, quality:1.7490052795410156e+02,
                      le:2.8674922883510590e-02 }
            -
               depth: 4
               value: 2.
               norm_class_idx: 2
               splits:
                  - { var:17, quality:1.1260713958740234e+02,
                      le:7.7088298276066780e-03 }
            -
               depth: 5
               value: 3.
               norm_class_idx: 3
            -
               depth: 5
               value: 2.
               norm_class_idx: 2
            -
               depth: 4
               value: 0.
               norm_class_idx: 0
               splits:
                  - { var:1, quality:1.2662265777587891e+02,
                      le:5.2361572161316872e-03 }
            -
               depth: 5
               value: 0.
               norm_class_idx: 0
            -
               depth: 5
               value: 3.
               norm_class_idx: 3
            -
               depth: 3
               value: 7.
               norm_class_idx: 7
               splits:
                  - { var:0, quality:2.9186880493164062e+02,
                      le:1.0095897130668163e-02 }
            -
               depth: 4
               value: 7.
               norm_class_idx: 7
               splits:
                  - { var:8, quality:2.3714645385742188e+02,
                      le:7.6467566192150116e-02 }
            -
               depth: 5
               value: 6.
               norm_class_idx: 6
            -
               depth: 5
               value: 7.
               norm_class_idx: 7
            -
               depth: 4
               value: 5.
               norm_class_idx: 5
               splits:
                  - { var:10, quality:2.3954977416992188e+02,
                      le:7.2948411107063293e-02 }
            -
               depth: 5
               value: 4.
               norm_class_idx: 4
            -
               depth: 5
               value: 5.
               norm_class_idx: 5
            -
               depth: 1
               value: 8.
               norm_class_idx: 8
               splits:
                  - { var:19, quality:2.2306451416015625e+02,
                      le:8.2127183675765991e-02 }
            -
               depth: 2
               value: 8.
               norm_class_idx: 8
               splits:
                  - { var:0, quality:2.4421052551269531e+02,
                      le:4.8591159284114838e-03 }
            -
               depth: 3
               value: 8.
               norm_class_idx: 8
            -
               depth: 3
               value: 3.
               norm_class_idx: 3
               splits:
                  - { var:0, quality:38., le:1.3506265357136726e-02 }
            -
               depth: 4
               value: 1.
               norm_class_idx: 1
            -
               depth: 4
               value: 3.
               norm_class_idx: 3
            -
               depth: 2
               value: 3.
               norm_class_idx: 3
      -
         nodes:
            -
               depth: 0
               value: 9.
               norm_class_idx: 9
               splits:
                  - { var:12, quality:4.3096475219726562e+02,
                      le:4.1781994514167309e-03 }
            -
               depth: 1
               value: 1.
               norm_class_idx: 1
               splits:
                  - { var:23, quality:222., le:1.3685135170817375e-02 }
            -
               depth: 2
               value: 0.
               norm_class_idx: 0
            -
               depth: 2
               value: 1.
               norm_class_idx: 1
            -
               depth: 1
               value: 9.
               norm_class_idx: 9
               splits:
                  - { var:13, quality:3.8953991699218750e+02,
                      le:8.3065912127494812e-02 }
            -
               depth: 2
               value: 9.
               norm_class_idx: 9
               splits:
                  - { var:1, quality:3.4622619628906250e+02,
                      le:1.7300831153988838e-02 }
            -
               depth: 3
               value: 9.
               norm_class_idx: 9
               splits:
                  - { var:19, quality:2.8584313964843750e+02,
                      le:6.1461463570594788e-02 }
            -
               depth: 4
               value: 9.
               norm_class_idx: 9
               splits:
                  - { var:10, quality:3.6648556518554688e+02,
                      le:6.6360369324684143e-02 }
            -
               depth: 5
               value: 9.
               norm_class_idx: 9
            -
               depth: 5
               value: 6.
               norm_class_idx: 6
            -
               depth: 4
               value: 3.
               norm_class_idx: 3
               splits:
                  - { var:6, quality:9.9138610839843750e+01,
                      le:2.5583378970623016e-02 }
            -
               depth: 5
               value: 5.
               norm_class_idx: 5
            -
               depth: 5
               value: 3.
               norm_class_idx: 3
            -
               depth: 3
               value: 5.
               norm_class_idx: 5
               splits:
                  - { var:5, quality:2.1306082153320312e+02,
                      le:3.7073608487844467e-02 }
            -
               depth: 4
               value: 5.
               norm_class_idx: 5
               splits:
                  - { var:23, quality:1.9165521240234375e+02,
                      le:2.7831154875457287e-03 }
            -
               depth: 5
               value: 4.
               norm_class_idx: 4
            -
               depth: 5
               value: 5.
               norm_class_idx: 5
            -
               depth: 4
               value: 4.
               norm_class_idx: 4
               splits:
                  - { var:15, quality:1.2227938079833984e+02,
                      le:3.4440243616700172e-03 }
            -
               depth: 5
               value: 4.
               norm_class_idx: 4
            -
               depth: 5
               value: 0.
               norm_class_idx: 0
            -
               depth: 2
               value: 8.
               norm_class_idx: 8
               splits:
                  - { var:16, quality:2.8918667602539062e+02,
                      le:7.1347691118717194e-02 }
            -
               depth: 3
               value: 3.
               norm_class_idx: 3
               splits:
                  - { var:17, quality:7.3027397155761719e+01,
                      le:3.0411889776587486e-02 }
            -
               depth: 4
               value: 3.
               norm_class_idx: 3
               splits:
                  - { var:9, quality:7.1250000000000000e+01,
                      le:7.8181503340601921e-03 }
            -
               depth: 5
               value: 3.
               norm_class_idx: 3
            -
               depth: 5
               value: 3.
               norm_class_idx: 3
            -
               depth: 4
               value: 4.
               norm_class_idx: 4
            -
               depth: 3
               value: 8.
               norm_class_idx: 8
      -
         nodes:
            -
               depth: 0
               value: 2.
               norm_class_idx: 2
               splits:
                  - { var:22, quality:4.1467172241210938e+02,
                      le:1.7034709453582764e-01 }
            -
               depth: 1
               value: 2.
               norm_class_idx: 2
               splits:
                  - { var:8, quality:3.7705685424804688e+02,
                      le:2.6472639292478561e-03 }
            -
               depth: 2
               value: 8.
               norm_class_idx: 8
               splits:
                  - { var:22, quality:2.4695571899414062e+02,
                      le:8.9031588286161423e-03 }
            -
               depth: 3
               value: 0.
               norm_class_idx: 0
               splits:
                  - { var:18, quality:5.9407405853271484e+01,
                      le:2.4215541779994965e-02 }
            -
               depth: 4
               value: 0.
               norm_class_idx: 0
            -
               depth: 4
               value: 6.
               norm_class_idx: 6
               splits:
                  - { var:14, quality:2.5111110687255859e+01,
                      le:1.3053819537162781e-02 }
            -
               depth: 5
               value: 6.
               norm_class_idx: 6
            -
               depth: 5
               value: 5.
               norm_class_idx: 5
            -
               depth: 3
               value: 8.
               norm_class_idx: 8
               splits:
                  - { var:23, quality:2.2525000000000000e+02,
                      le:2.4962317198514938e-02 }
            -
               depth: 4
               value: 8.
               norm_class_idx: 8
            -
               depth: 4
               value: 5.
               norm_class_idx: 5
            -
               depth: 2
               value: 2.
               norm_class_idx: 2
               splits:
                  - { var:16, quality:3.6844976806640625e+02,
                      le:3.7106525152921677e-02 }
            -
               depth: 3
               value: 3.
               norm_class_idx: 3
               splits:
                  - { var:12, quality:1.8511688232421875e+02,
                      le:1.9735772162675858e-02 }
            -
               depth: 4
               value: 0.
               norm_class_idx: 0
               splits:
                  - { var:23, quality:1.5222222328186035e+01,
                      le:2.2628203034400940e-02 }
            -
               depth: 5
               value: 0.
               norm_class_idx: 0
            -
               depth: 5
               value: 1.
               norm_class_idx: 1
            -
               depth: 4
               value: 3.
               norm_class_idx: 3
               splits:
                  - { var:9, quality:1.8526042175292969e+02,
                      le:3.3185090869665146e-02 }
            -
               depth: 5
               value: 3.
               norm_class_idx: 3
            -
               depth: 5
               value: 0.
               norm_class_idx: 0
            -
               depth: 3
               value: 2.
               norm_class_idx: 2
               splits:
                  - { var:10, quality:3.7235366821289062e+02,
                      le:6.5015368163585663e-02 }
            -
               depth: 4
               value: 2.
               norm_class_idx: 2
               splits:
                  - { var:1, quality:3.3381887817382812e+02,
                      le:2.0794052630662918e-02 }
            -
               depth: 5
               value: 2.
               norm_class_idx: 2
            -
               depth: 5
               value: 4.
               norm_class_idx: 4
            -
               depth: 4
               value: 6.
               norm_class_idx: 6
               splits:
                  - { var:6, quality:2.9778405761718750e+02,
                      le:2.6787266135215759e-02 }
            -
               depth: 5
               value: 5.
               norm_class_idx: 5
            -
               depth: 5
               value: 6.
               norm_class_idx: 6
            -
               depth: 1
               value: 1.
               norm_class_idx: 1
               splits:
                  - { var:0, quality:224., le:1.5002599917352200e-02 }
            -
               depth: 2
               value: 1.
               norm_class_idx: 1
            -
               depth: 2
               value: 3.
               norm_class_idx: 3
      -
         nodes:
            -
               depth: 0
               value: 2.
               norm_class_idx: 2
               splits:
                  - { var:16, quality:4.0999316406250000e+02,
                      le:3.7106525152921677e-02 }
            -
               depth: 1
               value: 3.
               norm_class_idx: 3
               splits:
                  - { var:20, quality:3.8687551879882812e+02,
                      le:1.6597963869571686e-02 }
            -
               depth: 2
               value: 1.
               norm_class_idx: 1
               splits:
                  - { var:7, quality:2.2110345458984375e+02,
                      le:4.5005138963460922e-02 }
            -
               depth: 3
               value: 0.
               norm_class_idx: 0
               splits:
                  - { var:6, quality:29., le:1.4831115491688251e-02 }
            -
               depth: 4
               value: 5.
               norm_class_idx: 5
            -
               depth: 4
               value: 0.
               norm_class_idx: 0
            -
               depth: 3
               value: 1.
               norm_class_idx: 1
            -
               depth: 2
               value: 3.
               norm_class_idx: 3
               splits:
                  - { var:10, quality:2.2578222656250000e+02,
                      le:7.3058217763900757e-02 }
            -
               depth: 3
               value: 3.
               norm_class_idx: 3
               splits:
                  - { var:10, quality:2.2300900268554688e+02,
                      le:1.0631637647747993e-02 }
            -
               depth: 4
               value: 1.
               norm_class_idx: 1
            -
               depth: 4
               value: 3.
               norm_class_idx: 3
               splits:
                  - { var:11, quality:2.2011764526367188e+02,
                      le:9.8166078329086304e-02 }
            -
               depth: 5
               value: 3.
               norm_class_idx: 3
            -
               depth: 5
               value: 3.
               norm_class_idx: 3
            -
               depth: 3
               value: 5.
               norm_class_idx: 5
               splits:
                  - { var:14, quality:12., le:1.0956520214676857e-02 }
            -
               depth: 4
               value: 3.
               norm_class_idx: 3
            -
               depth: 4
               value: 5.
               norm_class_idx: 5
            -
               depth: 1
               value: 2.
               norm_class_idx: 2
               splits:
                  - { var:10, quality:3.9143078613281250e+02,
                      le:1.5008930116891861e-02 }
            -
               depth: 2
               value: 8.
               norm_class_idx: 8
               splits:
                  - { var:14, quality:229., le:3.2146256417036057e-02 }
            -
               depth: 3
               value: 2.
               norm_class_idx: 2
            -
               depth: 3
               value: 8.
               norm_class_idx: 8
            -
               depth: 2
               value: 6.
               norm_class_idx: 6
               splits:
                  - { var:18, quality:3.0526611328125000e+02,
                      le:1.7307195812463760e-02 }
            -
               depth: 3
               value: 0.
               norm_class_idx: 0
               splits:
                  - { var:10, quality:2.0319512939453125e+02,
                      le:1.1321914196014404e-01 }
            -
               depth: 4
               value: 2.
               norm_class_idx: 2
               splits:
                  - { var:10, quality:7.6233764648437500e+01,
                      le:8.3989523351192474e-02 }
            -
               depth: 5
               value: 2.
               norm_class_idx: 2
            -
               depth: 5
               value: 6.
               norm_class_idx: 6
            -
               depth: 4
               value: 0.
               norm_class_idx: 0
            -
               depth: 3
               value: 4.
               norm_class_idx: 4
               splits:
                  - { var:2, quality:3.3235183715820312e+02,
                      le:6.8631350994110107e-02 }
            -
               depth: 4
               value: 6.
               norm_class_idx: 6
               splits:
                  - { var:0, quality:2.9193719482421875e+02,
                      le:1.1760829016566277e-02 }
            -
               depth: 5
               value: 6.
               norm_class_idx: 6
            -
               depth: 5
               value: 4.
               norm_class_idx: 4
            -
               depth: 4
               value: 5.
               norm_class_idx: 5
               splits:
                  - { var:22, quality:2.1634719848632812e+02,
                      le:5.7012436445802450e-04 }
            -
               depth: 5
               value: 2.
               norm_class_idx: 2
            -
               depth: 5
               value: 5.
               norm_class_idx: 5
      -
         nodes:
            -
               depth: 0
               value: 4.
               norm_class_idx: 4
               splits:
                  - { var:11, quality:4.2136288452148438e+02,
                      le:6.7306500859558582e-03 }
            -
               depth: 1
               value: 1.
               norm_class_idx: 1
            -
               depth: 1
               value: 4.
               norm_class_idx: 4
               splits:
                  - { var:6, quality:3.4428231811523438e+02,
                      le:1.6086805611848831e-02 }
            -
               depth: 2
               value: 5.
               norm_class_idx: 5
               splits:
                  - { var:15, quality:2.6473751831054688e+02,
                      le:1.8954928964376450e-03 }
            -
               depth: 3
               value: 2.
               norm_class_idx: 2
               splits:
                  - { var:22, quality:1.0004838562011719e+02,
                      le:5.1378393545746803e-03 }
            -
               depth: 4
               value: 2.
               norm_class_idx: 2
               splits:
                  - { var:13, quality:1.2202173614501953e+02,
                      le:1.2467868626117706e-02 }
            -
               depth: 5
               value: 4.
               norm_class_idx: 4
            -
               depth: 5
               value: 2.
               norm_class_idx: 2
            -
               depth: 4
               value: 4.
               norm_class_idx: 4
            -
               depth: 3
               value: 5.
               norm_class_idx: 5
               splits:
                  - { var:8, quality:1.9507106018066406e+02,
                      le:5.7373758405447006e-02 }
            -
               depth: 4
               value: 5.
               norm_class_idx: 5
               splits:
                  - { var:2, quality:1.9566667175292969e+02,
                      le:2.8751283884048462e-02 }
            -
               depth: 5
               value: 9.
               norm_class_idx: 9
            -
               depth: 5
               value: 5.
               norm_class_idx: 5
            -
               depth: 4
               value: 4.
               norm_class_idx: 4
            -
               depth: 2
               value: 7.
               norm_class_idx: 7
               splits:
                  - { var:5, quality:3.8712469482421875e+02,
                      le:1.7009515315294266e-02 }
            -
               depth: 3
               value: 8.
               norm_class_idx: 8
               splits:
                  - { var:18, quality:2.2779203796386719e+02,
                      le:3.5129006952047348e-02 }
            -
               depth: 4
               value: 8.
               norm_class_idx: 8
               splits:
                  - { var:22, quality:212., le:6.0384646058082581e-03 }
            -
               depth: 5
               value: 6.
               norm_class_idx: 6
            -
               depth: 5
               value: 8.
               norm_class_idx: 8
            -
               depth: 4
               value: 3.
               norm_class_idx: 3
               splits:
                  - { var:8, quality:23., le:5.3332094103097916e-03 }
            -
               depth: 5
               value: 6.
               norm_class_idx: 6
            -
               depth: 5
               value: 3.
               norm_class_idx: 3
            -
               depth: 3
               value: 7.
               norm_class_idx: 7
               splits:
                  - { var:11, quality:2.7882095336914062e+02,
                      le:7.9873077571392059e-02 }
            -
               depth: 4
               value: 7.
               norm_class_idx: 7
               splits:
                  - { var:0, quality:2.6079409790039062e+02,
                      le:1.2236168608069420e-02 }
            -
               depth: 5
               value: 7.
               norm_class_idx: 7
            -
               depth: 5
               value: 3.
               norm_class_idx: 3
            -
               depth: 4
               value: 0.
               norm_class_idx: 0
               splits:
                  - { var:18, quality:2.1173918151855469e+02,
                      le:1.9917145371437073e-02 }
            -
               depth: 5
               value: 0.
               norm_class_idx: 0
            -
               depth: 5
               value: 6.
               norm_class_idx: 6
      -
         nodes:
            -
               depth: 0
               value: 2.
               norm_class_idx: 2
               splits:
                  - { var:12, quality:4.0894683837890625e+02,
                      le:4.9946559593081474e-03 }
            -
               depth: 1
               value: 1.
               norm_class_idx: 1
               splits:
                  - { var:8, quality:223., le:2.4644473567605019e-02 }
            -
               depth: 2
               value: 1.
               norm_class_idx: 1
            -
               depth: 2
               value: 0.
               norm_class_idx: 0
            -
               depth: 1
               value: 2.
               norm_class_idx: 2
               splits:
                  - { var:17, quality:3.9046731567382812e+02,
                      le:9.7871460020542145e-03 }
            -
               depth: 2
               value: 8.
               norm_class_idx: 8
               splits:
                  - { var:8, quality:2.8432501220703125e+02,
                      le:2.9019834473729134e-03 }
            -
               depth: 3
               value: 8.
               norm_class_idx: 8
            -
               depth: 3
               value: 3.
               norm_class_idx: 3
               splits:
                  - { var:22, quality:7.0337539672851562e+01,
                      le:4.2244084179401398e-02 }
            -
               depth: 4
               value: 0.
               norm_class_idx: 0
               splits:
                  - { var:10, quality:1.0333333015441895e+01,
                      le:8.8825881481170654e-02 }
            -
               depth: 5
               value: 2.
               norm_class_idx: 2
            -
               depth: 5
               value: 0.
               norm_class_idx: 0
            -
               depth: 4
               value: 3.
               norm_class_idx: 3
               splits:
                  - { var:16, quality:67., le:8.7713385000824928e-03 }
            -
               depth: 5
               value: 3.
               norm_class_idx: 3
            -
               depth: 5
               value: 9.
               norm_class_idx: 9
            -
               depth: 2
               value: 2.
               norm_class_idx: 2
               splits:
                  - { var:1, quality:3.5170538330078125e+02,
                      le:2.0868694409728050e-02 }
            -
               depth: 3
               value: 2.
               norm_class_idx: 2
               splits:
                  - { var:3, quality:2.7266400146484375e+02,
                      le:6.7562036216259003e-02 }
            -
               depth: 4
               value: 9.
               norm_class_idx: 9
               splits:
                  - { var:20, quality:2.3315480041503906e+02,
                      le:1.0184291750192642e-02 }
            -
               depth: 5
               value: 6.
               norm_class_idx: 6
            -
               depth: 5
               value: 9.
               norm_class_idx: 9
            -
               depth: 4
               value: 2.
               norm_class_idx: 2
               splits:
                  - { var:1, quality:1.6396868896484375e+02,
                      le:1.2765659019351006e-02 }
            -
               depth: 5
               value: 2.
               norm_class_idx: 2
            -
               depth: 5
               value: 7.
               norm_class_idx: 7
            -
               depth: 3
               value: 5.
               norm_class_idx: 5
               splits:
                  - { var:6, quality:2.3929832458496094e+02,
                      le:1.6529994085431099e-02 }
            -
               depth: 4
               value: 5.
               norm_class_idx: 5
               splits:
                  - { var:9, quality:1.8157704162597656e+02,
                      le:5.6972686201334000e-02 }
            -
               depth: 5
               value: 5.
               norm_class_idx: 5
            -
               depth: 5
               value: 4.
               norm_class_idx: 4
            -
               depth: 4
               value: 4.
               norm_class_idx: 4
               splits:
                  - { var:15, quality:1.6008439636230469e+02,
                      le:3.3605149947106838e-03 }
            -
               depth: 5
               value: 4.
               norm_class_idx: 4
            -
               depth: 5
               value: 0.
               norm_class_idx: 0
      -
         nodes:
            -
               depth: 0
               value: 5.
               norm_class_idx: 5
               splits:
                  - { var:10, quality:4.1619946289062500e+02,
                      le:1.5977112576365471e-02 }
            -
               depth: 1
               value: 8.
               norm_class_idx: 8
               splits:
                  - { var:16, quality:4.1565521240234375e+02,
                      le:5.7516153901815414e-02 }
            -
               depth: 2
               value: 1.
               norm_class_idx: 1
               splits:
                  - { var:15, quality:211., le:1.8883791565895081e-01 }
            -
               depth: 3
               value: 1.
               norm_class_idx: 1
            -
               depth: 3
               value: 1.
               norm_class_idx: 1
            -
               depth: 2
               value: 8.
               norm_class_idx: 8
               splits:
                  - { var:16, quality:272., le:1.7123189568519592e-01 }
            -
               depth: 3
               value: 8.
               norm_class_idx: 8
            -
               depth: 3
               value: 2.
               norm_class_idx: 2
            -
               depth: 1
               value: 5.
               norm_class_idx: 5
               splits:
                  - { var:10, quality:3.8489639282226562e+02,
                      le:6.6265761852264404e-02 }
            -
               depth: 2
               value: 7.
               norm_class_idx: 7
               splits:
                  - { var:8, quality:3.2091433715820312e+02,
                      le:3.1455725431442261e-02 }
            -
               depth: 3
               value: 3.
               norm_class_idx: 3
               splits:
                  - { var:21, quality:1.7792153930664062e+02,
                      le:3.0876701697707176e-02 }
            -
               depth: 4
               value: 3.
               norm_class_idx: 3
               splits:
                  - { var:2, quality:7.1671218872070312e+01,
                      le:7.0518888533115387e-03 }
            -
               depth: 5
               value: 7.
               norm_class_idx: 7
            -
               depth: 5
               value: 3.
               norm_class_idx: 3
            -
               depth: 4
               value: 3.
               norm_class_idx: 3
               splits:
                  - { var:9, quality:1.4801361083984375e+02,
                      le:2.2150032222270966e-02 }
            -
               depth: 5
               value: 3.
               norm_class_idx: 3
            -
               depth: 5
               value: 7.
               norm_class_idx: 7
            -
               depth: 3
               value: 2.
               norm_class_idx: 2
               splits:
                  - { var:17, quality:2.4992007446289062e+02,
                      le:2.6782639324665070e-02 }
            -
               depth: 4
               value: 2.
               norm_class_idx: 2
               splits:
                  - { var:1, quality:95., le:1.2765659019351006e-02 }
            -
               depth: 5
               value: 2.
               norm_class_idx: 2
            -
               depth: 5
               value: 7.
               norm_class_idx: 7
            -
               depth: 4
               value: 9.
               norm_class_idx: 9
               splits:
                  - { var:18, quality:2.1890515136718750e+02,
                      le:5.1602765917778015e-02 }
            -
               depth: 5
               value: 9.
               norm_class_idx: 9
            -
               depth: 5
               value: 4.
               norm_class_idx: 4
            -
               depth: 2
               value: 5.
               norm_class_idx: 5
               splits:
                  - { var:22, quality:2.9695962524414062e+02,
                      le:1.3246536254882812e-03 }
            -
               depth: 3
               value: 6.
               norm_class_idx: 6
               splits:
                  - { var:16, quality:1.6670796203613281e+02,
                      le:2.6234242320060730e-01 }
            -
               depth: 4
               value: 6.
               norm_class_idx: 6
               splits:
                  - { var:8, quality:1.6865745544433594e+02,
                      le:7.0568710565567017e-02 }
            -
               depth: 5
               value: 6.
               norm_class_idx: 6
            -
               depth: 5
               value: 4.
               norm_class_idx: 4
            -
               depth: 4
               value: 0.
               norm_class_idx: 0
            -
               depth: 3
               value: 5.
               norm_class_idx: 5
               splits:
                  - { var:2, quality:3.1485464477539062e+02,
                      le:6.3701286911964417e-02 }
            -
               depth: 4
               value: 0.
               norm_class_idx: 0
               splits:
                  - { var:12, quality:1.4836627197265625e+02,
                      le:3.6392360925674438e-02 }
            -
               depth: 5
               value: 0.
               norm_class_idx: 0
            -
               depth: 5
               value: 6.
               norm_class_idx: 6
            -
               depth: 4
               value: 5.
               norm_class_idx: 5
               splits:
                  - { var:18, quality:2.2341333007812500e+02,
                      le:1.1777448654174805e-01 }
            -
               depth: 5
               value: 5.
               norm_class_idx: 5
            -
               depth: 5
               value: 0.
               norm_class_idx: 0
      -
         nodes:
            -
               depth: 0
               value: 5.
               norm_class_idx: 5
               splits:
                  - { var:22, quality:4.2328671264648438e+02,
                      le:1.5673860907554626e-01 }
            -
               depth: 1
               value: 5.
               norm_class_idx: 5
               splits:
                  - { var:13, quality:3.8395941162109375e+02,
                      le:8.1288203597068787e-02 }
            -
               depth: 2
               value: 5.
               norm_class_idx: 5
               splits:
                  - { var:19, quality:3.0488293457031250e+02,
                      le:6.1461463570594788e-02 }
            -
               depth: 3
               value: 9.
               norm_class_idx: 9
               splits:
                  - { var:2, quality:3.5431542968750000e+02,
                      le:6.8631350994110107e-02 }
            -
               depth: 4
               value: 9.
               norm_class_idx: 9
               splits:
                  - { var:3, quality:2.7396334838867188e+02,
                      le:4.3297246098518372e-02 }
            -
               depth: 5
               value: 9.
               norm_class_idx: 9
            -
               depth: 5
               value: 4.
               norm_class_idx: 4
            -
               depth: 4
               value: 5.
               norm_class_idx: 5
               splits:
                  - { var:17, quality:2.3741502380371094e+02,
                      le:4.1681095957756042e-02 }
            -
               depth: 5
               value: 2.
               norm_class_idx: 2
            -
               depth: 5
               value: 5.
               norm_class_idx: 5
            -
               depth: 3
               value: 3.
               norm_class_idx: 3
               splits:
                  - { var:12, quality:1.0499158477783203e+02,
                      le:5.9062991291284561e-02 }
            -
               depth: 4
               value: 5.
               norm_class_idx: 5
               splits:
                  - { var:7, quality:1.1571428298950195e+01,
                      le:8.5488148033618927e-02 }
            -
               depth: 5
               value: 5.
               norm_class_idx: 5
            -
               depth: 5
               value: 4.
               norm_class_idx: 4
            -
               depth: 4
               value: 3.
               norm_class_idx: 3
               splits:
                  - { var:1, quality:102., le:1.6031086444854736e-02 }
            -
               depth: 5
               value: 3.
               norm_class_idx: 3
            -
               depth: 5
               value: 5.
               norm_class_idx: 5
            -
               depth: 2
               value: 8.
               norm_class_idx: 8
               splits:
                  - { var:8, quality:2.6809375000000000e+02,
                      le:4.0220543742179871e-03 }
            -
               depth: 3
               value: 8.
               norm_class_idx: 8
            -
               depth: 3
               value: 3.
               norm_class_idx: 3
               splits:
                  - { var:4, quality:6.2031745910644531e+01,
                      le:5.0151173025369644e-02 }
            -
               depth: 4
               value: 3.
               norm_class_idx: 3
               splits:
                  - { var:6, quality:63., le:1.1012563109397888e-01 }
            -
               depth: 5
               value: 3.
               norm_class_idx: 3
            -
               depth: 5
               value: 1.
               norm_class_idx: 1
            -
               depth: 4
               value: 4.
               norm_class_idx: 4
            -
               depth: 1
               value: 1.
               norm_class_idx: 1
               splits:
                  - { var:13, quality:2.2914158630371094e+02,
                      le:8.1992417573928833e-02 }
            -
               depth: 2
               value: 1.
               norm_class_idx: 1
               splits:
                  - { var:11, quality:226., le:1.5800071880221367e-02 }
            -
               depth: 3
               value: 1.
               norm_class_idx: 1
            -
               depth: 3
               value: 3.
               norm_class_idx: 3
            -
               depth: 2
               value: 3.
               norm_class_idx: 3
      -
         nodes:
            -
               depth: 0
               value: 9.
               norm_class_idx: 9
               splits:
                  - { var:18, quality:3.9738104248046875e+02,
                      le:3.3539440482854843e-03 }
            -
               depth: 1
               value: 1.
               norm_class_idx: 1
            -
               depth: 1
               value: 9.
               norm_class_idx: 9
               splits:
                  - { var:2, quality:3.5861044311523438e+02,
                      le:6.8631350994110107e-02 }
            -
               depth: 2
               value: 9.
               norm_class_idx: 9
               splits:
                  - { var:20, quality:3.7321057128906250e+02,
                      le:6.2986716628074646e-02 }
            -
               depth: 3
               value: 9.
               norm_class_idx: 9
               splits:
                  - { var:19, quality:2.7265780639648438e+02,
                      le:6.7362219095230103e-02 }
            -
               depth: 4
               value: 9.
               norm_class_idx: 9
               splits:
                  - { var:10, quality:3.5943734741210938e+02,
                      le:7.3268949985504150e-02 }
            -
               depth: 5
               value: 9.
               norm_class_idx: 9
            -
               depth: 5
               value: 6.
               norm_class_idx: 6
            -
               depth: 4
               value: 3.
               norm_class_idx: 3
               splits:
                  - { var:8, quality:8.6023811340332031e+01,
                      le:5.0874270498752594e-02 }
            -
               depth: 5
               value: 3.
               norm_class_idx: 3
            -
               depth: 5
               value: 4.
               norm_class_idx: 4
            -
               depth: 3
               value: 8.
               norm_class_idx: 8
               splits:
                  - { var:3, quality:2.6241967773437500e+02,
                      le:1.9740980118513107e-02 }
            -
               depth: 4
               value: 3.
               norm_class_idx: 3
               splits:
                  - { var:12, quality:59., le:2.2956360131502151e-02 }
            -
               depth: 5
               value: 7.
               norm_class_idx: 7
            -
               depth: 5
               value: 3.
               norm_class_idx: 3
            -
               depth: 4
               value: 8.
               norm_class_idx: 8
               splits:
                  - { var:8, quality:2.3230000305175781e+02,
                      le:6.4716693013906479e-03 }
            -
               depth: 5
               value: 8.
               norm_class_idx: 8
            -
               depth: 5
               value: 3.
               norm_class_idx: 3
            -
               depth: 2
               value: 5.
               norm_class_idx: 5
               splits:
                  - { var:15, quality:2.3407580566406250e+02,
                      le:1.3021784834563732e-03 }
            -
               depth: 3
               value: 2.
               norm_class_idx: 2
               splits:
                  - { var:0, quality:70., le:9.6469288691878319e-03 }
            -
               depth: 4
               value: 2.
               norm_class_idx: 2
            -
               depth: 4
               value: 4.
               norm_class_idx: 4
            -
               depth: 3
               value: 5.
               norm_class_idx: 5
               splits:
                  - { var:9, quality:2.3640553283691406e+02,
                      le:9.0305015444755554e-02 }
            -
               depth: 4
               value: 5.
               norm_class_idx: 5
               splits:
                  - { var:8, quality:217., le:4.9238957464694977e-02 }
            -
               depth: 5
               value: 5.
               norm_class_idx: 5
            -
               depth: 5
               value: 4.
               norm_class_idx: 4
            -
               depth: 4
               value: 0.
               norm_class_idx: 0
               splits:
                  - { var:17, quality:31., le:1.1105006933212280e-01 }
            -
               depth: 5
               value: 4.
               norm_class_idx: 4
            -
               depth: 5
               value: 0.
               norm_class_idx: 0
      -
         nodes:
            -
               depth: 0
               value: 8.
               norm_class_idx: 8
               splits:
                  - { var:18, quality:4.0056509399414062e+02,
                      le:3.4204535186290741e-03 }
            -
               depth: 1
               value: 1.
               norm_class_idx: 1
            -
               depth: 1
               value: 8.
               norm_class_idx: 8
               splits:
                  - { var:10, quality:4.2007977294921875e+02,
                      le:1.5449827536940575e-02 }
            -
               depth: 2
               value: 8.
               norm_class_idx: 8
               splits:
                  - { var:13, quality:2.5452941894531250e+02,
                      le:8.0445535480976105e-02 }
            -
               depth: 3
               value: 2.
               norm_class_idx: 2
               splits:
                  - { var:2, quality:2.6833333969116211e+01,
                      le:1.2824211269617081e-02 }
            -
               depth: 4
               value: 1.
               norm_class_idx: 1
               splits:
                  - { var:12, quality:7.6666665077209473e+00,
                      le:5.5135632865130901e-03 }
            -
               depth: 5
               value: 1.
               norm_class_idx: 1
            -
               depth: 5
               value: 2.
               norm_class_idx: 2
            -
               depth: 4
               value: 2.
               norm_class_idx: 2
            -
               depth: 3
               value: 8.
               norm_class_idx: 8
            -
               depth: 2
               value: 5.
               norm_class_idx: 5
               splits:
                  - { var:10, quality:3.8656115722656250e+02,
                      le:6.5411955118179321e-02 }
            -
               depth: 3
               value: 9.
               norm_class_idx: 9
               splits:
                  - { var:20, quality:2.7053796386718750e+02,
                      le:1.5824368223547935e-02 }
            -
               depth: 4
               value: 7.
               norm_class_idx: 7
               splits:
                  - { var:1, quality:1.9177554321289062e+02,
                      le:2.0443089306354523e-02 }
            -
               depth: 5
               value: 7.
               norm_class_idx: 7
            -
               depth: 5
               value: 4.
               norm_class_idx: 4
            -
               depth: 4
               value: 3.
               norm_class_idx: 3
               splits:
                  - { var:10, quality:2.2051475524902344e+02,
                      le:3.0695505440235138e-02 }
            -
               depth: 5
               value: 3.
               norm_class_idx: 3
            -
               depth: 5
               value: 9.
               norm_class_idx: 9
            -
               depth: 3
               value: 5.
               norm_class_idx: 5
               splits:
                  - { var:0, quality:3.6076531982421875e+02,
                      le:7.4354428797960281e-03 }
            -
               depth: 4
               value: 6.
               norm_class_idx: 6
               splits:
                  - { var:16, quality:2.7677993774414062e+02,
                      le:2.4950245022773743e-01 }
            -
               depth: 5
               value: 6.
               norm_class_idx: 6
            -
               depth: 5
               value: 0.
               norm_class_idx: 0
            -
               depth: 4
               value: 5.
               norm_class_idx: 5
               splits:
                  - { var:15, quality:2.1216970825195312e+02,
                      le:1.3017711462453008e-03 }
            -
               depth: 5
               value: 4.
               norm_class_idx: 4
            -
               depth: 5
               value: 5.
               norm_class_idx: 5
      -
         nodes:
            -
               depth: 0
               value: 2.
               norm_class_idx: 2
               splits:
                  - { var:22, quality:4.1971017456054688e+02,
                      le:1.5699240565299988e-01 }
            -
               depth: 1
               value: 2.
               norm_class_idx: 2
               splits:
                  - { var:17, quality:3.7535595703125000e+02,
                      le:1.0300043970346451e-02 }
            -
               depth: 2
               value: 8.
               norm_class_idx: 8
               splits:
                  - { var:10, quality:2.6351257324218750e+02,
                      le:1.7855986952781677e-02 }
            -
               depth: 3
               value: 8.
               norm_class_idx: 8
               splits:
                  - { var:18, quality:2.1133332824707031e+02,
                      le:1.9715517759323120e-02 }
            -
               depth: 4
               value: 1.
               norm_class_idx: 1
            -
               depth: 4
               value: 8.
               norm_class_idx: 8
            -
               depth: 3
               value: 3.
               norm_class_idx: 3
               splits:
                  - { var:23, quality:71., le:7.0208683609962463e-03 }
            -
               depth: 4
               value: 0.
               norm_class_idx: 0
            -
               depth: 4
               value: 3.
               norm_class_idx: 3
            -
               depth: 2
               value: 7.
               norm_class_idx: 7
               splits:
                  - { var:6, quality:3.2764834594726562e+02,
                      le:2.3238344117999077e-02 }
            -
               depth: 3
               value: 5.
               norm_class_idx: 5
               splits:
                  - { var:17, quality:2.5094003295898438e+02,
                      le:4.8735298216342926e-02 }
            -
               depth: 4
               value: 2.
               norm_class_idx: 2
               splits:
                  - { var:0, quality:1.0891922760009766e+02,
                      le:4.4772187247872353e-03 }
            -
               depth: 5
               value: 2.
               norm_class_idx: 2
            -
               depth: 5
               value: 3.
               norm_class_idx: 3
            -
               depth: 4
               value: 5.
               norm_class_idx: 5
               splits:
                  - { var:10, quality:2.4261375427246094e+02,
                      le:7.0848226547241211e-02 }
            -
               depth: 5
               value: 4.
               norm_class_idx: 4
            -
               depth: 5
               value: 5.
               norm_class_idx: 5
            -
               depth: 3
               value: 7.
               norm_class_idx: 7
               splits:
                  - { var:19, quality:3.2400067138671875e+02,
                      le:6.6128261387348175e-02 }
            -
               depth: 4
               value: 7.
               norm_class_idx: 7
               splits:
                  - { var:7, quality:2.5536669921875000e+02,
                      le:2.1880194544792175e-02 }
            -
               depth: 5
               value: 6.
               norm_class_idx: 6
            -
               depth: 5
               value: 9.
               norm_class_idx: 9
            -
               depth: 4
               value: 3.
               norm_class_idx: 3
               splits:
                  - { var:3, quality:134., le:3.6766253411769867e-02 }
            -
               depth: 5
               value: 3.
               norm_class_idx: 3
            -
               depth: 5
               value: 4.
               norm_class_idx: 4
            -
               depth: 1
               value: 1.
               norm_class_idx: 1
               splits:
                  - { var:7, quality:222., le:3.4338105469942093e-02 }
            -
               depth: 2
               value: 3.
               norm_class_idx: 3
            -
               depth: 2
               value: 1.
               norm_class_idx: 1
      -
         nodes:
            -
               depth: 0
               value: 5.
               norm_class_idx: 5
               splits:
                  - { var:14, quality:4.1449349975585938e+02,
                      le:1.5616780519485474e-01 }
            -
               depth: 1
               value: 5.
               norm_class_idx: 5
               splits:
                  - { var:9, quality:4.2662164306640625e+02,
                      le:3.8527934812009335e-03 }
            -
               depth: 2
               value: 8.
               norm_class_idx: 8
               splits:
                  - { var:13, quality:2.1775000000000000e+02,
                      le:6.1960563063621521e-02 }
            -
               depth: 3
               value: 6.
               norm_class_idx: 6
            -
               depth: 3
               value: 8.
               norm_class_idx: 8
            -
               depth: 2
               value: 5.
               norm_class_idx: 5
               splits:
                  - { var:10, quality:3.9385006713867188e+02,
                      le:6.6265761852264404e-02 }
            -
               depth: 3
               value: 7.
               norm_class_idx: 7
               splits:
                  - { var:9, quality:3.5230624389648438e+02,
                      le:1.8758548423647881e-02 }
            -
               depth: 4
               value: 3.
               norm_class_idx: 3
               splits:
                  - { var:20, quality:2.1118420410156250e+02,
                      le:1.4892024919390678e-02 }
            -
               depth: 5
               value: 2.
               norm_class_idx: 2
            -
               depth: 5
               value: 3.
               norm_class_idx: 3
            -
               depth: 4
               value: 7.
               norm_class_idx: 7
               splits:
                  - { var:23, quality:2.8563543701171875e+02,
                      le:4.0733269997872412e-04 }
            -
               depth: 5
               value: 7.
               norm_class_idx: 7
            -
               depth: 5
               value: 9.
               norm_class_idx: 9
            -
               depth: 3
               value: 5.
               norm_class_idx: 5
               splits:
                  - { var:1, quality:3.2058386230468750e+02,
                      le:1.4899414964020252e-02 }
            -
               depth: 4
               value: 6.
               norm_class_idx: 6
               splits:
                  - { var:14, quality:2.1386152648925781e+02,
                      le:7.9573784023523331e-03 }
            -
               depth: 5
               value: 6.
               norm_class_idx: 6
            -
               depth: 5
               value: 0.
