%YAML:1.0
---
opencv_ml_rtrees:
   format: 3
   is_classifier: 1
   var_all: 309
   var_count: 308
   ord_var_count: 308
   cat_var_count: 1
   training_params:
      use_surrogates: 0
      max_categories: 10
      regression_accuracy: 0.
      max_depth: 5
      min_sample_count: 10
      cross_validation_folds: 0
      nactive_vars: 0
   global_var_idx: 1
   var_idx: [ 0, 1, 2, 3, 4, 5, 6, 7, 8, 9, 10, 11, 12, 13, 14, 15, 16,
       17, 18, 19, 20, 21, 22, 23, 24, 25, 26, 27, 28, 29, 30, 31, 32,
       33, 34, 35, 36, 37, 38, 39, 40, 41, 42, 43, 44, 45, 46, 47, 48,
       49, 50, 51, 52, 53, 54, 55, 56, 57, 58, 59, 60, 61, 62, 63, 64,
       65, 66, 67, 68, 69, 70, 71, 72, 73, 74, 75, 76, 77, 78, 79, 80,
       81, 82, 83, 84, 85, 86, 87, 88, 89, 90, 91, 92, 93, 94, 95, 96,
       97, 98, 99, 100, 101, 102, 103, 104, 105, 106, 107, 108, 109, 110,
       111, 112, 113, 114, 115, 116, 117, 118, 119, 120, 121, 122, 123,
       124, 125, 126, 127, 128, 129, 130, 131, 132, 133, 134, 135, 136,
       137, 138, 139, 140, 141, 142, 143, 144, 145, 146, 147, 148, 149,
       150, 151, 152, 153, 154, 155, 156, 157, 158, 159, 160, 161, 162,
       163, 164, 165, 166, 167, 168, 169, 170, 171, 172, 173, 174, 175,
       176, 177, 178, 179, 180, 181, 182, 183, 184, 185, 186, 187, 188,
       189, 190, 191, 192, 193, 194, 195, 196, 197, 198, 199, 200, 201,
       202, 203, 204, 205, 206, 207, 208, 209, 210, 211, 212, 213, 214,
       215, 216, 217, 218, 219, 220, 221, 222, 223, 224, 225, 226, 227,
       228, 229, 230, 231, 232, 233, 234, 235, 236, 237, 238, 239, 240,
       241, 242, 243, 244, 245, 246, 247, 248, 249, 250, 251, 252, 253,
       254, 255, 256, 257, 258, 259, 260, 261, 262, 263, 264, 265, 266,
       267, 268, 269, 270, 271, 272, 273, 274, 275, 276, 277, 278, 279,
       280, 281, 282, 283, 284, 285, 286, 287, 288, 289, 290, 291, 292,
       293, 294, 295, 296, 297, 298, 299, 300, 301, 302, 303, 304, 305,
       306, 307 ]
   var_type: [ 0, 0, 0, 0, 0, 0, 0, 0, 0, 0, 0, 0, 0, 0, 0, 0, 0, 0, 0,
       0, 0, 0, 0, 0, 0, 0, 0, 0, 0, 0, 0, 0, 0, 0, 0, 0, 0, 0, 0, 0, 0,
       0, 0, 0, 0, 0, 0, 0, 0, 0, 0, 0, 0, 0, 0, 0, 0, 0, 0, 0, 0, 0, 0,
       0, 0, 0, 0, 0, 0, 0, 0, 0, 0, 0, 0, 0, 0, 0, 0, 0, 0, 0, 0, 0, 0,
       0, 0, 0, 0, 0, 0, 0, 0, 0, 0, 0, 0, 0, 0, 0, 0, 0, 0, 0, 0, 0, 0,
       0, 0, 0, 0, 0, 0, 0, 0, 0, 0, 0, 0, 0, 0, 0, 0, 0, 0, 0, 0, 0, 0,
       0, 0, 0, 0, 0, 0, 0, 0, 0, 0, 0, 0, 0, 0, 0, 0, 0, 0, 0, 0, 0, 0,
       0, 0, 0, 0, 0, 0, 0, 0, 0, 0, 0, 0, 0, 0, 0, 0, 0, 0, 0, 0, 0, 0,
       0, 0, 0, 0, 0, 0, 0, 0, 0, 0, 0, 0, 0, 0, 0, 0, 0, 0, 0, 0, 0, 0,
       0, 0, 0, 0, 0, 0, 0, 0, 0, 0, 0, 0, 0, 0, 0, 0, 0, 0, 0, 0, 0, 0,
       0, 0, 0, 0, 0, 0, 0, 0, 0, 0, 0, 0, 0, 0, 0, 0, 0, 0, 0, 0, 0, 0,
       0, 0, 0, 0, 0, 0, 0, 0, 0, 0, 0, 0, 0, 0, 0, 0, 0, 0, 0, 0, 0, 0,
       0, 0, 0, 0, 0, 0, 0, 0, 0, 0, 0, 0, 0, 0, 0, 0, 0, 0, 0, 0, 0, 0,
       0, 0, 0, 0, 0, 0, 0, 0, 0, 0, 0, 0, 0, 0, 0, 0, 0, 0, 0, 0, 0, 0,
       0, 0, 0, 1 ]
   cat_ofs: [ 0, 0, 0, 0, 0, 0, 0, 0, 0, 0, 0, 0, 0, 0, 0, 0, 0, 0, 0, 0,
       0, 0, 0, 0, 0, 0, 0, 0, 0, 0, 0, 0, 0, 0, 0, 0, 0, 0, 0, 0, 0, 0,
       0, 0, 0, 0, 0, 0, 0, 0, 0, 0, 0, 0, 0, 0, 0, 0, 0, 0, 0, 0, 0, 0,
       0, 0, 0, 0, 0, 0, 0, 0, 0, 0, 0, 0, 0, 0, 0, 0, 0, 0, 0, 0, 0, 0,
       0, 0, 0, 0, 0, 0, 0, 0, 0, 0, 0, 0, 0, 0, 0, 0, 0, 0, 0, 0, 0, 0,
       0, 0, 0, 0, 0, 0, 0, 0, 0, 0, 0, 0, 0, 0, 0, 0, 0, 0, 0, 0, 0, 0,
       0, 0, 0, 0, 0, 0, 0, 0, 0, 0, 0, 0, 0, 0, 0, 0, 0, 0, 0, 0, 0, 0,
       0, 0, 0, 0, 0, 0, 0, 0, 0, 0, 0, 0, 0, 0, 0, 0, 0, 0, 0, 0, 0, 0,
       0, 0, 0, 0, 0, 0, 0, 0, 0, 0, 0, 0, 0, 0, 0, 0, 0, 0, 0, 0, 0, 0,
       0, 0, 0, 0, 0, 0, 0, 0, 0, 0, 0, 0, 0, 0, 0, 0, 0, 0, 0, 0, 0, 0,
       0, 0, 0, 0, 0, 0, 0, 0, 0, 0, 0, 0, 0, 0, 0, 0, 0, 0, 0, 0, 0, 0,
       0, 0, 0, 0, 0, 0, 0, 0, 0, 0, 0, 0, 0, 0, 0, 0, 0, 0, 0, 0, 0, 0,
       0, 0, 0, 0, 0, 0, 0, 0, 0, 0, 0, 0, 0, 0, 0, 0, 0, 0, 0, 0, 0, 0,
       0, 0, 0, 0, 0, 0, 0, 0, 0, 0, 0, 0, 0, 0, 0, 0, 0, 0, 0, 0, 0, 0,
       0, 0, 0, 0, 0, 0, 0, 0, 0, 0, 0, 0, 0, 0, 0, 0, 0, 0, 0, 0, 0, 0,
       0, 0, 0, 0, 0, 0, 0, 0, 0, 0, 0, 0, 0, 0, 0, 0, 0, 0, 0, 0, 0, 0,
       0, 0, 0, 0, 0, 0, 0, 0, 0, 0, 0, 0, 0, 0, 0, 0, 0, 0, 0, 0, 0, 0,
       0, 0, 0, 0, 0, 0, 0, 0, 0, 0, 0, 0, 0, 0, 0, 0, 0, 0, 0, 0, 0, 0,
       0, 0, 0, 0, 0, 0, 0, 0, 0, 0, 0, 0, 0, 0, 0, 0, 0, 0, 0, 0, 0, 0,
       0, 0, 0, 0, 0, 0, 0, 0, 0, 0, 0, 0, 0, 0, 0, 0, 0, 0, 0, 0, 0, 0,
       0, 0, 0, 0, 0, 0, 0, 0, 0, 0, 0, 0, 0, 0, 0, 0, 0, 0, 0, 0, 0, 0,
       0, 0, 0, 0, 0, 0, 0, 0, 0, 0, 0, 0, 0, 0, 0, 0, 0, 0, 0, 0, 0, 0,
       0, 0, 0, 0, 0, 0, 0, 0, 0, 0, 0, 0, 0, 0, 0, 0, 0, 0, 0, 0, 0, 0,
       0, 0, 0, 0, 0, 0, 0, 0, 0, 0, 0, 0, 0, 0, 0, 0, 0, 0, 0, 0, 0, 0,
       0, 0, 0, 0, 0, 0, 0, 0, 0, 0, 0, 0, 0, 0, 0, 0, 0, 0, 0, 0, 0, 0,
       0, 0, 0, 0, 0, 0, 0, 0, 0, 0, 0, 0, 0, 0, 0, 0, 0, 0, 0, 0, 0, 0,
       0, 0, 0, 0, 0, 0, 0, 0, 0, 0, 0, 0, 0, 0, 0, 0, 0, 0, 0, 0, 0, 0,
       0, 0, 0, 0, 0, 0, 0, 0, 0, 0, 0, 0, 0, 0, 0, 0, 0, 0, 0, 0, 0, 0,
       0, 0 ]
   class_labels: [ 0, 1, 2, 3, 4, 5, 6, 7, 8, 9 ]
   missing_subst: [ 0., 0., 0., 0., 0., 0., 0., 0., 0., 0., 0., 0., 0.,
       0., 0., 0., 0., 0., 0., 0., 0., 0., 0., 0., 0., 0., 0., 0., 0.,
       0., 0., 0., 0., 0., 0., 0., 0., 0., 0., 0., 0., 0., 0., 0., 0.,
       0., 0., 0., 0., 0., 0., 0., 0., 0., 0., 0., 0., 0., 0., 0., 0.,
       0., 0., 0., 0., 0., 0., 0., 0., 0., 0., 0., 0., 0., 0., 0., 0.,
       0., 0., 0., 0., 0., 0., 0., 0., 0., 0., 0., 0., 0., 0., 0., 0.,
       0., 0., 0., 0., 0., 0., 0., 0., 0., 0., 0., 0., 0., 0., 0., 0.,
       0., 0., 0., 0., 0., 0., 0., 0., 0., 0., 0., 0., 0., 0., 0., 0.,
       0., 0., 0., 0., 0., 0., 0., 0., 0., 0., 0., 0., 0., 0., 0., 0.,
       0., 0., 0., 0., 0., 0., 0., 0., 0., 0., 0., 0., 0., 0., 0., 0.,
       0., 0., 0., 0., 0., 0., 0., 0., 0., 0., 0., 0., 0., 0., 0., 0.,
       0., 0., 0., 0., 0., 0., 0., 0., 0., 0., 0., 0., 0., 0., 0., 0.,
       0., 0., 0., 0., 0., 0., 0., 0., 0., 0., 0., 0., 0., 0., 0., 0.,
       0., 0., 0., 0., 0., 0., 0., 0., 0., 0., 0., 0., 0., 0., 0., 0.,
       0., 0., 0., 0., 0., 0., 0., 0., 0., 0., 0., 0., 0., 0., 0., 0.,
       0., 0., 0., 0., 0., 0., 0., 0., 0., 0., 0., 0., 0., 0., 0., 0.,
       0., 0., 0., 0., 0., 0., 0., 0., 0., 0., 0., 0., 0., 0., 0., 0.,
       0., 0., 0., 0., 0., 0., 0., 0., 0., 0., 0., 0., 0., 0., 0., 0.,
       0., 0., 0., 0., 0., 0., 0., 0., 0., 0., 0., 0., 0., 0., 0., 0.,
       0., 0., 0., 0., 0., 0., 0., 0. ]
   oob_error: 0.
   ntrees: 50
   trees:
      -
         nodes:
            -
               depth: 0
               value: 7.
               norm_class_idx: 7
               splits:
                  - { var:19, quality:3.9413006591796875e+02,
                      le:5.5203977972269058e-03 }
            -
               depth: 1
               value: 7.
               norm_class_idx: 7
               splits:
                  - { var:143, quality:3.7028134155273438e+02,
                      le:3.9643491618335247e-03 }
            -
               depth: 2
               value: 4.
               norm_class_idx: 4
               splits:
                  - { var:124, quality:2.4665055847167969e+02,
                      le:2.1123785700183362e-05 }
            -
               depth: 3
               value: 9.
               norm_class_idx: 9
               splits:
                  - { var:21, quality:2.0897975158691406e+02,
                      le:3.0261958017945290e-03 }
            -
               depth: 4
               value: 9.
               norm_class_idx: 9
               splits:
                  - { var:303, quality:2.4579620361328125e+02,
                      le:2.5016905274242163e-03 }
            -
               depth: 5
               value: 0.
               norm_class_idx: 0
            -
               depth: 5
               value: 9.
               norm_class_idx: 9
            -
               depth: 4
               value: 4.
               norm_class_idx: 4
               splits:
                  - { var:96, quality:7.1653266906738281e+01,
                      le:1.0244990698993206e-02 }
            -
               depth: 5
               value: 4.
               norm_class_idx: 4
            -
               depth: 5
               value: 3.
               norm_class_idx: 3
            -
               depth: 3
               value: 4.
               norm_class_idx: 4
               splits:
                  - { var:98, quality:1.5985362243652344e+02,
                      le:1.3289968483150005e-03 }
            -
               depth: 4
               value: 6.
               norm_class_idx: 6
               splits:
                  - { var:63, quality:3.5057144165039062e+01,
                      le:7.9652648419141769e-03 }
            -
               depth: 5
               value: 0.
               norm_class_idx: 0
            -
               depth: 5
               value: 6.
               norm_class_idx: 6
            -
               depth: 4
               value: 4.
               norm_class_idx: 4
               splits:
                  - { var:145, quality:1.8132786560058594e+02,
                      le:3.5664075985550880e-03 }
            -
               depth: 5
               value: 5.
               norm_class_idx: 5
            -
               depth: 5
               value: 3.
               norm_class_idx: 3
            -
               depth: 2
               value: 7.
               norm_class_idx: 7
               splits:
                  - { var:54, quality:3.3850561523437500e+02,
                      le:2.8473803467932157e-05 }
            -
               depth: 3
               value: 2.
               norm_class_idx: 2
               splits:
                  - { var:21, quality:3.1844860839843750e+02,
                      le:1.9636298529803753e-03 }
            -
               depth: 4
               value: 8.
               norm_class_idx: 8
               splits:
                  - { var:94, quality:2.3816896057128906e+02,
                      le:4.5442429836839437e-04 }
            -
               depth: 5
               value: 6.
               norm_class_idx: 6
            -
               depth: 5
               value: 8.
               norm_class_idx: 8
            -
               depth: 4
               value: 2.
               norm_class_idx: 2
               splits:
                  - { var:108, quality:2.0351959228515625e+02,
                      le:1.2548395432531834e-02 }
            -
               depth: 5
               value: 4.
               norm_class_idx: 4
            -
               depth: 5
               value: 2.
               norm_class_idx: 2
            -
               depth: 3
               value: 7.
               norm_class_idx: 7
               splits:
                  - { var:86, quality:2.3704238891601562e+02,
                      le:2.6212319426122122e-05 }
            -
               depth: 4
               value: 7.
               norm_class_idx: 7
               splits:
                  - { var:126, quality:2.2065641784667969e+02,
                      le:2.7144407795276493e-05 }
            -
               depth: 5
               value: 8.
               norm_class_idx: 8
            -
               depth: 5
               value: 7.
               norm_class_idx: 7
            -
               depth: 4
               value: 6.
               norm_class_idx: 6
               splits:
                  - { var:25, quality:64., le:2.7880052104592323e-02 }
            -
               depth: 5
               value: 6.
               norm_class_idx: 6
            -
               depth: 5
               value: 3.
               norm_class_idx: 3
            -
               depth: 1
               value: 1.
               norm_class_idx: 1
               splits:
                  - { var:132, quality:2.7559716796875000e+02,
                      le:2.3565627634525299e-03 }
            -
               depth: 2
               value: 0.
               norm_class_idx: 0
               splits:
                  - { var:127, quality:1.3419354248046875e+02,
                      le:7.3503912426531315e-03 }
            -
               depth: 3
               value: 0.
               norm_class_idx: 0
               splits:
                  - { var:80, quality:122., le:4.7717988491058350e-03 }
            -
               depth: 4
               value: 0.
               norm_class_idx: 0
            -
               depth: 4
               value: 8.
               norm_class_idx: 8
            -
               depth: 3
               value: 1.
               norm_class_idx: 1
            -
               depth: 2
               value: 1.
               norm_class_idx: 1
               splits:
                  - { var:281, quality:1.9416210937500000e+02,
                      le:7.7934637665748596e-03 }
            -
               depth: 3
               value: 1.
               norm_class_idx: 1
               splits:
                  - { var:129, quality:1.8313630676269531e+02,
                      le:5.5950684472918510e-03 }
            -
               depth: 4
               value: 1.
               norm_class_idx: 1
               splits:
                  - { var:24, quality:16., le:5.8302967809140682e-03 }
            -
               depth: 5
               value: 0.
               norm_class_idx: 0
            -
               depth: 5
               value: 1.
               norm_class_idx: 1
            -
               depth: 4
               value: 1.
               norm_class_idx: 1
               splits:
                  - { var:138, quality:177., le:3.4951046109199524e-03 }
            -
               depth: 5
               value: 1.
               norm_class_idx: 1
            -
               depth: 5
               value: 7.
               norm_class_idx: 7
            -
               depth: 3
               value: 0.
               norm_class_idx: 0
               splits:
                  - { var:140, quality:28., le:2.3790640989318490e-04 }
            -
               depth: 4
               value: 1.
               norm_class_idx: 1
            -
               depth: 4
               value: 0.
               norm_class_idx: 0
      -
         nodes:
            -
               depth: 0
               value: 9.
               norm_class_idx: 9
               splits:
                  - { var:126, quality:4.1529528808593750e+02,
                      le:1.9413288682699203e-02 }
            -
               depth: 1
               value: 9.
               norm_class_idx: 9
               splits:
                  - { var:30, quality:3.3081713867187500e+02,
                      le:2.7366173453629017e-03 }
            -
               depth: 2
               value: 9.
               norm_class_idx: 9
               splits:
                  - { var:91, quality:3.0944540405273438e+02,
                      le:1.6472415300086141e-03 }
            -
               depth: 3
               value: 6.
               norm_class_idx: 6
               splits:
                  - { var:27, quality:2.9632040405273438e+02,
                      le:1.8739772494882345e-03 }
            -
               depth: 4
               value: 6.
               norm_class_idx: 6
               splits:
                  - { var:139, quality:2.6734262084960938e+02,
                      le:1.8919180147349834e-03 }
            -
               depth: 5
               value: 0.
               norm_class_idx: 0
            -
               depth: 5
               value: 6.
               norm_class_idx: 6
            -
               depth: 4
               value: 2.
               norm_class_idx: 2
               splits:
                  - { var:122, quality:2.7013391113281250e+02,
                      le:4.0234244079329073e-04 }
            -
               depth: 5
               value: 8.
               norm_class_idx: 8
            -
               depth: 5
               value: 2.
               norm_class_idx: 2
            -
               depth: 3
               value: 9.
               norm_class_idx: 9
               splits:
                  - { var:22, quality:2.3808287048339844e+02,
                      le:7.3470566421747208e-03 }
            -
               depth: 4
               value: 9.
               norm_class_idx: 9
               splits:
                  - { var:66, quality:2.1917596435546875e+02,
                      le:9.9535984918475151e-03 }
            -
               depth: 5
               value: 3.
               norm_class_idx: 3
            -
               depth: 5
               value: 9.
               norm_class_idx: 9
            -
               depth: 4
               value: 0.
               norm_class_idx: 0
               splits:
                  - { var:141, quality:6.5282051086425781e+01,
                      le:1.4033748302608728e-03 }
            -
               depth: 5
               value: 5.
               norm_class_idx: 5
            -
               depth: 5
               value: 0.
               norm_class_idx: 0
            -
               depth: 2
               value: 4.
               norm_class_idx: 4
               splits:
                  - { var:97, quality:2.3289541625976562e+02,
                      le:5.1597352139651775e-03 }
            -
               depth: 3
               value: 7.
               norm_class_idx: 7
               splits:
                  - { var:146, quality:1.4585752868652344e+02,
                      le:5.3259488195180893e-03 }
            -
               depth: 4
               value: 4.
               norm_class_idx: 4
               splits:
                  - { var:279, quality:3.9674057006835938e+01,
                      le:3.8052012678235769e-04 }
            -
               depth: 5
               value: 4.
               norm_class_idx: 4
            -
               depth: 5
               value: 1.
               norm_class_idx: 1
            -
               depth: 4
               value: 7.
               norm_class_idx: 7
               splits:
                  - { var:258, quality:123., le:1.6433853306807578e-04 }
            -
               depth: 5
               value: 7.
               norm_class_idx: 7
            -
               depth: 5
               value: 0.
               norm_class_idx: 0
            -
               depth: 3
               value: 5.
               norm_class_idx: 5
               splits:
                  - { var:102, quality:1.6399964904785156e+02,
                      le:3.0465747695416212e-03 }
            -
               depth: 4
               value: 4.
               norm_class_idx: 4
               splits:
                  - { var:26, quality:3.4200000762939453e+01,
                      le:7.3982467874884605e-03 }
            -
               depth: 5
               value: 3.
               norm_class_idx: 3
            -
               depth: 5
               value: 4.
               norm_class_idx: 4
            -
               depth: 4
               value: 5.
               norm_class_idx: 5
               splits:
                  - { var:149, quality:1.9406158447265625e+02,
                      le:5.2372431382536888e-03 }
            -
               depth: 5
               value: 5.
               norm_class_idx: 5
            -
               depth: 5
               value: 3.
               norm_class_idx: 3
            -
               depth: 1
               value: 1.
               norm_class_idx: 1
               splits:
                  - { var:250, quality:203., le:2.4866784224286675e-04 }
            -
               depth: 2
               value: 1.
               norm_class_idx: 1
            -
               depth: 2
               value: 6.
               norm_class_idx: 6
      -
         nodes:
            -
               depth: 0
               value: 2.
               norm_class_idx: 2
               splits:
                  - { var:101, quality:3.8562612915039062e+02,
                      le:2.6020084042102098e-03 }
            -
               depth: 1
               value: 1.
               norm_class_idx: 1
               splits:
                  - { var:114, quality:3.2308078002929688e+02,
                      le:5.0740188453346491e-04 }
            -
               depth: 2
               value: 1.
               norm_class_idx: 1
               splits:
                  - { var:121, quality:2.3278605651855469e+02,
                      le:1.6181267797946930e-02 }
            -
               depth: 3
               value: 1.
               norm_class_idx: 1
               splits:
                  - { var:130, quality:2.1337086486816406e+02,
                      le:2.8333975933492184e-03 }
            -
               depth: 4
               value: 0.
               norm_class_idx: 0
               splits:
                  - { var:96, quality:4.9358619689941406e+01,
                      le:1.5815219376236200e-03 }
            -
               depth: 5
               value: 0.
               norm_class_idx: 0
            -
               depth: 5
               value: 7.
               norm_class_idx: 7
            -
               depth: 4
               value: 1.
               norm_class_idx: 1
               splits:
                  - { var:23, quality:1.9201058959960938e+02,
                      le:4.3610822409391403e-02 }
            -
               depth: 5
               value: 1.
               norm_class_idx: 1
            -
               depth: 5
               value: 6.
               norm_class_idx: 6
            -
               depth: 3
               value: 0.
               norm_class_idx: 0
               splits:
                  - { var:307, quality:103., le:8.9914370328187943e-03 }
            -
               depth: 4
               value: 0.
               norm_class_idx: 0
            -
               depth: 4
               value: 1.
               norm_class_idx: 1
            -
               depth: 2
               value: 6.
               norm_class_idx: 6
               splits:
                  - { var:107, quality:2.0085185241699219e+02,
                      le:8.1263370811939240e-03 }
            -
               depth: 3
               value: 0.
               norm_class_idx: 0
               splits:
                  - { var:298, quality:27., le:6.0622603632509708e-03 }
            -
               depth: 4
               value: 0.
               norm_class_idx: 0
            -
               depth: 4
               value: 8.
               norm_class_idx: 8
            -
               depth: 3
               value: 6.
               norm_class_idx: 6
            -
               depth: 1
               value: 2.
               norm_class_idx: 2
               splits:
                  - { var:142, quality:3.7936572265625000e+02,
                      le:3.7563750520348549e-03 }
            -
               depth: 2
               value: 5.
               norm_class_idx: 5
               splits:
                  - { var:78, quality:2.5962866210937500e+02,
                      le:1.0328067000955343e-03 }
            -
               depth: 3
               value: 9.
               norm_class_idx: 9
               splits:
                  - { var:307, quality:1.4560638427734375e+02,
                      le:1.0023493086919188e-03 }
            -
               depth: 4
               value: 0.
               norm_class_idx: 0
               splits:
                  - { var:134, quality:41., le:3.3739220816642046e-04 }
            -
               depth: 5
               value: 0.
               norm_class_idx: 0
            -
               depth: 5
               value: 8.
               norm_class_idx: 8
            -
               depth: 4
               value: 9.
               norm_class_idx: 9
               splits:
                  - { var:123, quality:1.5976055908203125e+02,
                      le:3.5868004488293082e-05 }
            -
               depth: 5
               value: 9.
               norm_class_idx: 9
            -
               depth: 5
               value: 3.
               norm_class_idx: 3
            -
               depth: 3
               value: 5.
               norm_class_idx: 5
               splits:
                  - { var:149, quality:2.1184295654296875e+02,
                      le:5.0060902722179890e-03 }
            -
               depth: 4
               value: 5.
               norm_class_idx: 5
               splits:
                  - { var:30, quality:1.0276363372802734e+02,
                      le:1.0890252888202667e-02 }
            -
               depth: 5
               value: 5.
               norm_class_idx: 5
            -
               depth: 5
               value: 4.
               norm_class_idx: 4
            -
               depth: 4
               value: 4.
               norm_class_idx: 4
               splits:
                  - { var:175, quality:1.4644514465332031e+02,
                      le:1.7912149196490645e-03 }
            -
               depth: 5
               value: 4.
               norm_class_idx: 4
            -
               depth: 5
               value: 3.
               norm_class_idx: 3
            -
               depth: 2
               value: 2.
               norm_class_idx: 2
               splits:
                  - { var:67, quality:2.8423376464843750e+02,
                      le:1.5273947268724442e-02 }
            -
               depth: 3
               value: 7.
               norm_class_idx: 7
               splits:
                  - { var:149, quality:2.5705441284179688e+02,
                      le:7.0680240169167519e-03 }
            -
               depth: 4
               value: 7.
               norm_class_idx: 7
               splits:
                  - { var:56, quality:1.4732409667968750e+02,
                      le:1.1865871492773294e-03 }
            -
               depth: 5
               value: 2.
               norm_class_idx: 2
            -
               depth: 5
               value: 7.
               norm_class_idx: 7
            -
               depth: 4
               value: 8.
               norm_class_idx: 8
               splits:
                  - { var:27, quality:1.5380410766601562e+02,
                      le:1.4009093865752220e-02 }
            -
               depth: 5
               value: 8.
               norm_class_idx: 8
            -
               depth: 5
               value: 7.
               norm_class_idx: 7
            -
               depth: 3
               value: 2.
               norm_class_idx: 2
               splits:
                  - { var:30, quality:2.1856076049804688e+02,
                      le:3.8610119372606277e-04 }
            -
               depth: 4
               value: 2.
               norm_class_idx: 2
               splits:
                  - { var:154, quality:2.4569297790527344e+02,
                      le:9.5451660454273224e-03 }
            -
               depth: 5
               value: 2.
               norm_class_idx: 2
            -
               depth: 5
               value: 7.
               norm_class_idx: 7
            -
               depth: 4
               value: 8.
               norm_class_idx: 8
               splits:
                  - { var:99, quality:6.0775974273681641e+01,
                      le:1.0772913694381714e-02 }
            -
               depth: 5
               value: 4.
               norm_class_idx: 4
            -
               depth: 5
               value: 8.
               norm_class_idx: 8
      -
         nodes:
            -
               depth: 0
               value: 2.
               norm_class_idx: 2
               splits:
                  - { var:99, quality:4.0475198364257812e+02,
                      le:1.8223305232822895e-03 }
            -
               depth: 1
               value: 1.
               norm_class_idx: 1
               splits:
                  - { var:142, quality:3.5919494628906250e+02,
                      le:1.2168618850409985e-03 }
            -
               depth: 2
               value: 1.
               norm_class_idx: 1
               splits:
                  - { var:267, quality:1.9018182373046875e+02,
                      le:2.1928288042545319e-03 }
            -
               depth: 3
               value: 1.
               norm_class_idx: 1
            -
               depth: 3
               value: 1.
               norm_class_idx: 1
               splits:
                  - { var:134, quality:11., le:1.5662850346416235e-03 }
            -
               depth: 4
               value: 0.
               norm_class_idx: 0
            -
               depth: 4
               value: 1.
               norm_class_idx: 1
            -
               depth: 2
               value: 6.
               norm_class_idx: 6
               splits:
                  - { var:108, quality:2.7261181640625000e+02,
                      le:9.8913609981536865e-03 }
            -
               depth: 3
               value: 0.
               norm_class_idx: 0
               splits:
                  - { var:286, quality:1.3307281494140625e+02,
                      le:2.4471944198012352e-03 }
            -
               depth: 4
               value: 1.
               norm_class_idx: 1
               splits:
                  - { var:31, quality:17., le:4.2553190723992884e-04 }
            -
               depth: 5
               value: 1.
               norm_class_idx: 1
            -
               depth: 5
               value: 0.
               norm_class_idx: 0
            -
               depth: 4
               value: 0.
               norm_class_idx: 0
               splits:
                  - { var:304, quality:1.3819999694824219e+02,
                      le:4.9952846020460129e-03 }
            -
               depth: 5
               value: 0.
               norm_class_idx: 0
            -
               depth: 5
               value: 1.
               norm_class_idx: 1
            -
               depth: 3
               value: 6.
               norm_class_idx: 6
               splits:
                  - { var:154, quality:1.9719755554199219e+02,
                      le:5.9591447934508324e-03 }
            -
               depth: 4
               value: 6.
               norm_class_idx: 6
               splits:
                  - { var:303, quality:1.8094300842285156e+02,
                      le:7.5328312814235687e-03 }
            -
               depth: 5
               value: 6.
               norm_class_idx: 6
            -
               depth: 5
               value: 2.
               norm_class_idx: 2
            -
               depth: 4
               value: 0.
               norm_class_idx: 0
               splits:
                  - { var:79, quality:3.9057144165039062e+01,
                      le:3.2594525691820309e-05 }
            -
               depth: 5
               value: 0.
               norm_class_idx: 0
            -
               depth: 5
               value: 6.
               norm_class_idx: 6
            -
               depth: 1
               value: 2.
               norm_class_idx: 2
               splits:
                  - { var:142, quality:3.8209320068359375e+02,
                      le:3.2874634489417076e-03 }
            -
               depth: 2
               value: 9.
               norm_class_idx: 9
               splits:
                  - { var:79, quality:3.2383181762695312e+02,
                      le:4.3121818453073502e-04 }
            -
               depth: 3
               value: 9.
               norm_class_idx: 9
               splits:
                  - { var:101, quality:2.1023944091796875e+02,
                      le:1.0527404025197029e-02 }
            -
               depth: 4
               value: 3.
               norm_class_idx: 3
               splits:
                  - { var:95, quality:3.6466667175292969e+01,
                      le:2.4969603400677443e-03 }
            -
               depth: 5
               value: 0.
               norm_class_idx: 0
            -
               depth: 5
               value: 3.
               norm_class_idx: 3
            -
               depth: 4
               value: 9.
               norm_class_idx: 9
               splits:
                  - { var:25, quality:1.9919999694824219e+02,
                      le:1.9243247807025909e-02 }
            -
               depth: 5
               value: 5.
               norm_class_idx: 5
            -
               depth: 5
               value: 9.
               norm_class_idx: 9
            -
               depth: 3
               value: 5.
               norm_class_idx: 5
               splits:
                  - { var:144, quality:2.0860949707031250e+02,
                      le:3.2279090955853462e-03 }
            -
               depth: 4
               value: 5.
               norm_class_idx: 5
               splits:
                  - { var:67, quality:1.3881062316894531e+02,
                      le:5.7594776153564453e-03 }
            -
               depth: 5
               value: 4.
               norm_class_idx: 4
            -
               depth: 5
               value: 5.
               norm_class_idx: 5
            -
               depth: 4
               value: 3.
               norm_class_idx: 3
               splits:
                  - { var:67, quality:1.1534883880615234e+02,
                      le:1.4765474013984203e-02 }
            -
               depth: 5
               value: 3.
               norm_class_idx: 3
            -
               depth: 5
               value: 4.
               norm_class_idx: 4
            -
               depth: 2
               value: 2.
               norm_class_idx: 2
               splits:
                  - { var:76, quality:3.1741281127929688e+02,
                      le:3.3980284351855516e-03 }
            -
               depth: 3
               value: 2.
               norm_class_idx: 2
               splits:
                  - { var:68, quality:2.5370874023437500e+02,
                      le:1.2505110353231430e-02 }
            -
               depth: 4
               value: 8.
               norm_class_idx: 8
               splits:
                  - { var:53, quality:8.8424240112304688e+01,
                      le:7.3757761856541038e-04 }
            -
               depth: 5
               value: 8.
               norm_class_idx: 8
            -
               depth: 5
               value: 7.
               norm_class_idx: 7
            -
               depth: 4
               value: 2.
               norm_class_idx: 2
               splits:
                  - { var:122, quality:2.5939529418945312e+02,
                      le:3.2068436848931015e-04 }
            -
               depth: 5
               value: 8.
               norm_class_idx: 8
            -
               depth: 5
               value: 2.
               norm_class_idx: 2
            -
               depth: 3
               value: 7.
               norm_class_idx: 7
               splits:
                  - { var:77, quality:2.0129887390136719e+02,
                      le:3.8299597799777985e-03 }
            -
               depth: 4
               value: 8.
               norm_class_idx: 8
               splits:
                  - { var:72, quality:5.4853172302246094e+01,
                      le:9.4134900718927383e-03 }
            -
               depth: 5
               value: 3.
               norm_class_idx: 3
            -
               depth: 5
               value: 8.
               norm_class_idx: 8
            -
               depth: 4
               value: 7.
               norm_class_idx: 7
               splits:
                  - { var:22, quality:1.8634434509277344e+02,
                      le:1.0654497891664505e-02 }
            -
               depth: 5
               value: 4.
               norm_class_idx: 4
            -
               depth: 5
               value: 7.
               norm_class_idx: 7
      -
         nodes:
            -
               depth: 0
               value: 5.
               norm_class_idx: 5
               splits:
                  - { var:125, quality:4.1486526489257812e+02,
                      le:1.6253214329481125e-02 }
            -
               depth: 1
               value: 5.
               norm_class_idx: 5
               splits:
                  - { var:100, quality:3.8280752563476562e+02,
                      le:2.2845326457172632e-03 }
            -
               depth: 2
               value: 6.
               norm_class_idx: 6
               splits:
                  - { var:155, quality:2.6441671752929688e+02,
                      le:5.9343269094824791e-03 }
            -
               depth: 3
               value: 6.
               norm_class_idx: 6
               splits:
                  - { var:144, quality:2.1750251770019531e+02,
                      le:3.7328519392758608e-03 }
            -
               depth: 4
               value: 0.
               norm_class_idx: 0
               splits:
                  - { var:116, quality:3.2176471710205078e+01,
                      le:1.4527683146297932e-02 }
            -
               depth: 5
               value: 0.
               norm_class_idx: 0
            -
               depth: 5
               value: 8.
               norm_class_idx: 8
            -
               depth: 4
               value: 6.
               norm_class_idx: 6
               splits:
                  - { var:93, quality:2.0790589904785156e+02,
                      le:2.6508630253374577e-03 }
            -
               depth: 5
               value: 6.
               norm_class_idx: 6
            -
               depth: 5
               value: 7.
               norm_class_idx: 7
            -
               depth: 3
               value: 0.
               norm_class_idx: 0
               splits:
                  - { var:298, quality:1.0298181915283203e+02,
                      le:1.5584746375679970e-02 }
            -
               depth: 4
               value: 0.
               norm_class_idx: 0
               splits:
                  - { var:156, quality:1.0455660247802734e+02,
                      le:4.9464153125882149e-03 }
            -
               depth: 5
               value: 6.
               norm_class_idx: 6
            -
               depth: 5
               value: 0.
               norm_class_idx: 0
            -
               depth: 4
               value: 6.
               norm_class_idx: 6
            -
               depth: 2
               value: 5.
               norm_class_idx: 5
               splits:
                  - { var:142, quality:3.8415020751953125e+02,
                      le:3.6984460894018412e-03 }
            -
               depth: 3
               value: 9.
               norm_class_idx: 9
               splits:
                  - { var:100, quality:3.3119436645507812e+02,
                      le:1.0861504822969437e-02 }
            -
               depth: 4
               value: 5.
               norm_class_idx: 5
               splits:
                  - { var:95, quality:2.0885337829589844e+02,
                      le:2.1793749183416367e-03 }
            -
               depth: 5
               value: 0.
               norm_class_idx: 0
            -
               depth: 5
               value: 5.
               norm_class_idx: 5
            -
               depth: 4
               value: 9.
               norm_class_idx: 9
               splits:
                  - { var:167, quality:1.9083523559570312e+02,
                      le:3.6061443388462067e-03 }
            -
               depth: 5
               value: 4.
               norm_class_idx: 4
            -
               depth: 5
               value: 9.
               norm_class_idx: 9
            -
               depth: 3
               value: 7.
               norm_class_idx: 7
               splits:
                  - { var:304, quality:2.3988011169433594e+02,
                      le:2.6490066375117749e-05 }
            -
               depth: 4
               value: 8.
               norm_class_idx: 8
               splits:
                  - { var:150, quality:7.8571426391601562e+01,
                      le:6.1974683776497841e-03 }
            -
               depth: 5
               value: 6.
               norm_class_idx: 6
            -
               depth: 5
               value: 8.
               norm_class_idx: 8
            -
               depth: 4
               value: 7.
               norm_class_idx: 7
               splits:
                  - { var:66, quality:2.6300878906250000e+02,
                      le:1.2809313833713531e-02 }
            -
               depth: 5
               value: 7.
               norm_class_idx: 7
            -
               depth: 5
               value: 2.
               norm_class_idx: 2
            -
               depth: 1
               value: 1.
               norm_class_idx: 1
               splits:
                  - { var:153, quality:2.1003828430175781e+02,
                      le:5.3302859887480736e-03 }
            -
               depth: 2
               value: 6.
               norm_class_idx: 6
            -
               depth: 2
               value: 1.
               norm_class_idx: 1
               splits:
                  - { var:304, quality:2.0536363220214844e+02,
                      le:6.5402222389820963e-05 }
            -
               depth: 3
               value: 1.
               norm_class_idx: 1
               splits:
                  - { var:155, quality:2.0095237731933594e+01,
                      le:9.4508817419409752e-03 }
            -
               depth: 4
               value: 1.
               norm_class_idx: 1
               splits:
                  - { var:133, quality:21., le:2.0798535551875830e-03 }
            -
               depth: 5
               value: 0.
               norm_class_idx: 0
            -
               depth: 5
               value: 1.
               norm_class_idx: 1
            -
               depth: 4
               value: 0.
               norm_class_idx: 0
            -
               depth: 3
               value: 1.
               norm_class_idx: 1
      -
         nodes:
            -
               depth: 0
               value: 5.
               norm_class_idx: 5
               splits:
                  - { var:22, quality:4.0254678344726562e+02,
                      le:4.4350251555442810e-02 }
            -
               depth: 1
               value: 5.
               norm_class_idx: 5
               splits:
                  - { var:30, quality:3.2719808959960938e+02,
                      le:2.0033444743603468e-03 }
            -
               depth: 2
               value: 2.
               norm_class_idx: 2
               splits:
                  - { var:99, quality:3.4061373901367188e+02,
                      le:3.3750128932297230e-03 }
            -
               depth: 3
               value: 1.
               norm_class_idx: 1
               splits:
                  - { var:141, quality:3.1475900268554688e+02,
                      le:2.3656612029299140e-04 }
            -
               depth: 4
               value: 1.
               norm_class_idx: 1
               splits:
                  - { var:119, quality:1.7658444213867188e+02,
                      le:4.1914465837180614e-03 }
            -
               depth: 5
               value: 1.
               norm_class_idx: 1
            -
               depth: 5
               value: 0.
               norm_class_idx: 0
            -
               depth: 4
               value: 0.
               norm_class_idx: 0
               splits:
                  - { var:302, quality:1.7067362976074219e+02,
                      le:3.8491198793053627e-03 }
            -
               depth: 5
               value: 0.
               norm_class_idx: 0
            -
               depth: 5
               value: 1.
               norm_class_idx: 1
            -
               depth: 3
               value: 2.
               norm_class_idx: 2
               splits:
                  - { var:140, quality:3.0722369384765625e+02,
                      le:4.5977012632647529e-05 }
            -
               depth: 4
               value: 9.
               norm_class_idx: 9
               splits:
                  - { var:159, quality:1.9204550170898438e+02,
                      le:5.7197390124201775e-03 }
            -
               depth: 5
               value: 5.
               norm_class_idx: 5
            -
               depth: 5
               value: 9.
               norm_class_idx: 9
            -
               depth: 4
               value: 2.
               norm_class_idx: 2
               splits:
                  - { var:138, quality:3.0271899414062500e+02,
                      le:2.4743581889197230e-04 }
            -
               depth: 5
               value: 8.
               norm_class_idx: 8
            -
               depth: 5
               value: 2.
               norm_class_idx: 2
            -
               depth: 2
               value: 5.
               norm_class_idx: 5
               splits:
                  - { var:149, quality:2.1984805297851562e+02,
                      le:5.2460478618741035e-03 }
            -
               depth: 3
               value: 5.
               norm_class_idx: 5
               splits:
                  - { var:34, quality:1.2085713958740234e+02,
                      le:3.4687810693867505e-04 }
            -
               depth: 4
               value: 5.
               norm_class_idx: 5
               splits:
                  - { var:97, quality:1.2959101867675781e+02,
                      le:5.4048122838139534e-03 }
            -
               depth: 5
               value: 4.
               norm_class_idx: 4
            -
               depth: 5
               value: 5.
               norm_class_idx: 5
            -
               depth: 4
               value: 1.
               norm_class_idx: 1
            -
               depth: 3
               value: 3.
               norm_class_idx: 3
               splits:
                  - { var:304, quality:1.6131849670410156e+02,
                      le:3.4973446745425463e-03 }
            -
               depth: 4
               value: 7.
               norm_class_idx: 7
               splits:
                  - { var:153, quality:1.7924346923828125e+02,
                      le:5.9810723178088665e-03 }
            -
               depth: 5
               value: 7.
               norm_class_idx: 7
            -
               depth: 5
               value: 3.
               norm_class_idx: 3
            -
               depth: 4
               value: 3.
               norm_class_idx: 3
               splits:
                  - { var:169, quality:9.0883453369140625e+01,
                      le:2.5380554143339396e-03 }
            -
               depth: 5
               value: 4.
               norm_class_idx: 4
            -
               depth: 5
               value: 3.
               norm_class_idx: 3
            -
               depth: 1
               value: 6.
               norm_class_idx: 6
               splits:
                  - { var:143, quality:1.8919288635253906e+02,
                      le:2.9782925266772509e-03 }
            -
               depth: 2
               value: 0.
               norm_class_idx: 0
            -
               depth: 2
               value: 6.
               norm_class_idx: 6
               splits:
                  - { var:119, quality:1.9304124450683594e+02,
                      le:2.0837683230638504e-02 }
            -
               depth: 3
               value: 6.
               norm_class_idx: 6
               splits:
                  - { var:96, quality:1.9266667175292969e+02,
                      le:1.6259779222309589e-03 }
            -
               depth: 4
               value: 6.
               norm_class_idx: 6
            -
               depth: 4
               value: 7.
               norm_class_idx: 7
            -
               depth: 3
               value: 0.
               norm_class_idx: 0
      -
         nodes:
            -
               depth: 0
               value: 4.
               norm_class_idx: 4
               splits:
                  - { var:94, quality:4.0904757690429688e+02,
                      le:4.8064952716231346e-03 }
            -
               depth: 1
               value: 6.
               norm_class_idx: 6
               splits:
                  - { var:141, quality:3.9406188964843750e+02,
                      le:2.3396449978463352e-04 }
            -
               depth: 2
               value: 1.
               norm_class_idx: 1
               splits:
                  - { var:127, quality:2.1225000000000000e+02,
                      le:1.1340856552124023e-02 }
            -
               depth: 3
               value: 0.
               norm_class_idx: 0
            -
               depth: 3
               value: 1.
               norm_class_idx: 1
            -
               depth: 2
               value: 6.
               norm_class_idx: 6
               splits:
                  - { var:97, quality:3.2384475708007812e+02,
                      le:1.6885764198377728e-03 }
            -
               depth: 3
               value: 6.
               norm_class_idx: 6
               splits:
                  - { var:157, quality:2.9393740844726562e+02,
                      le:6.4116786234080791e-03 }
            -
               depth: 4
               value: 6.
               norm_class_idx: 6
               splits:
                  - { var:67, quality:3.0266265869140625e+02,
                      le:1.3683511875569820e-02 }
            -
               depth: 5
               value: 6.
               norm_class_idx: 6
            -
               depth: 5
               value: 2.
               norm_class_idx: 2
            -
               depth: 4
               value: 0.
               norm_class_idx: 0
               splits:
                  - { var:136, quality:1.4922666931152344e+02,
                      le:3.4566193789942190e-05 }
            -
               depth: 5
               value: 0.
               norm_class_idx: 0
            -
               depth: 5
               value: 6.
               norm_class_idx: 6
            -
               depth: 3
               value: 8.
               norm_class_idx: 8
               splits:
                  - { var:67, quality:2.0433120727539062e+02,
                      le:1.8431194126605988e-02 }
            -
               depth: 4
               value: 8.
               norm_class_idx: 8
               splits:
                  - { var:163, quality:1.7656950378417969e+02,
                      le:6.7676459439098835e-03 }
            -
               depth: 5
               value: 8.
               norm_class_idx: 8
            -
               depth: 5
               value: 3.
               norm_class_idx: 3
            -
               depth: 4
               value: 2.
               norm_class_idx: 2
               splits:
                  - { var:110, quality:7.6053291320800781e+01,
                      le:8.3056474977638572e-05 }
            -
               depth: 5
               value: 2.
               norm_class_idx: 2
            -
               depth: 5
               value: 8.
               norm_class_idx: 8
            -
               depth: 1
               value: 7.
               norm_class_idx: 7
               splits:
                  - { var:22, quality:3.6138659667968750e+02,
                      le:7.6251896098256111e-03 }
            -
               depth: 2
               value: 9.
               norm_class_idx: 9
               splits:
                  - { var:24, quality:1.7999737548828125e+02,
                      le:1.1154470033943653e-02 }
            -
               depth: 3
               value: 3.
               norm_class_idx: 3
               splits:
                  - { var:305, quality:1.3250000000000000e+01,
                      le:4.7238152474164963e-03 }
            -
               depth: 4
               value: 4.
               norm_class_idx: 4
            -
               depth: 4
               value: 3.
               norm_class_idx: 3
            -
               depth: 3
               value: 9.
               norm_class_idx: 9
               splits:
                  - { var:130, quality:1.8573263549804688e+02,
                      le:1.1172427330166101e-03 }
            -
               depth: 4
               value: 9.
               norm_class_idx: 9
               splits:
                  - { var:98, quality:192., le:8.6670406162738800e-03 }
            -
               depth: 5
               value: 4.
               norm_class_idx: 4
            -
               depth: 5
               value: 9.
               norm_class_idx: 9
            -
               depth: 4
               value: 3.
               norm_class_idx: 3
            -
               depth: 2
               value: 7.
               norm_class_idx: 7
               splits:
                  - { var:142, quality:3.7562289428710938e+02,
                      le:3.6984460894018412e-03 }
            -
               depth: 3
               value: 4.
               norm_class_idx: 4
               splits:
                  - { var:177, quality:2.0863414001464844e+02,
                      le:7.9518393613398075e-04 }
            -
               depth: 4
               value: 4.
               norm_class_idx: 4
               splits:
                  - { var:50, quality:1.1689570617675781e+02,
                      le:1.0525696416152641e-04 }
            -
               depth: 5
               value: 4.
               norm_class_idx: 4
            -
               depth: 5
               value: 4.
               norm_class_idx: 4
            -
               depth: 4
               value: 3.
               norm_class_idx: 3
               splits:
                  - { var:143, quality:1.4787919616699219e+02,
                      le:2.8172521851956844e-03 }
            -
               depth: 5
               value: 5.
               norm_class_idx: 5
            -
               depth: 5
               value: 3.
               norm_class_idx: 3
            -
               depth: 3
               value: 7.
               norm_class_idx: 7
               splits:
                  - { var:76, quality:2.1162063598632812e+02,
                      le:2.0933442283421755e-03 }
            -
               depth: 4
               value: 4.
               norm_class_idx: 4
            -
               depth: 4
               value: 7.
               norm_class_idx: 7
               splits:
                  - { var:130, quality:2.1958650207519531e+02,
                      le:2.6722643524408340e-03 }
            -
               depth: 5
               value: 7.
               norm_class_idx: 7
            -
               depth: 5
               value: 5.
               norm_class_idx: 5
      -
         nodes:
            -
               depth: 0
               value: 8.
               norm_class_idx: 8
               splits:
                  - { var:22, quality:4.1846331787109375e+02,
                      le:4.6148143708705902e-02 }
            -
               depth: 1
               value: 8.
               norm_class_idx: 8
               splits:
                  - { var:102, quality:3.8400863647460938e+02,
                      le:1.3177507207728922e-04 }
            -
               depth: 2
               value: 1.
               norm_class_idx: 1
               splits:
                  - { var:121, quality:2.2406422424316406e+02,
                      le:2.0925121381878853e-02 }
            -
               depth: 3
               value: 1.
               norm_class_idx: 1
               splits:
                  - { var:23, quality:1.9950132751464844e+02,
                      le:4.5776544138789177e-03 }
            -
               depth: 4
               value: 1.
               norm_class_idx: 1
               splits:
                  - { var:127, quality:2.0281004333496094e+02,
                      le:9.8322387784719467e-03 }
            -
               depth: 5
               value: 0.
               norm_class_idx: 0
            -
               depth: 5
               value: 1.
               norm_class_idx: 1
            -
               depth: 4
               value: 0.
               norm_class_idx: 0
            -
               depth: 3
               value: 0.
               norm_class_idx: 0
            -
               depth: 2
               value: 8.
               norm_class_idx: 8
               splits:
                  - { var:143, quality:3.6584603881835938e+02,
                      le:4.1839135810732841e-03 }
            -
               depth: 3
               value: 9.
               norm_class_idx: 9
               splits:
                  - { var:140, quality:2.8294021606445312e+02,
                      le:2.5886616640491411e-05 }
            -
               depth: 4
               value: 9.
               norm_class_idx: 9
               splits:
                  - { var:52, quality:1.9960005187988281e+02,
                      le:2.3900573069113307e-05 }
            -
               depth: 5
               value: 9.
               norm_class_idx: 9
            -
               depth: 5
               value: 4.
               norm_class_idx: 4
            -
               depth: 4
               value: 4.
               norm_class_idx: 4
               splits:
                  - { var:95, quality:2.3758738708496094e+02,
                      le:2.6944968849420547e-03 }
            -
               depth: 5
               value: 0.
               norm_class_idx: 0
            -
               depth: 5
               value: 4.
               norm_class_idx: 4
            -
               depth: 3
               value: 8.
               norm_class_idx: 8
               splits:
                  - { var:121, quality:2.8864532470703125e+02,
                      le:1.2929103104397655e-04 }
            -
               depth: 4
               value: 8.
               norm_class_idx: 8
               splits:
                  - { var:128, quality:2.5559930419921875e+02,
                      le:5.3352594841271639e-04 }
            -
               depth: 5
               value: 8.
               norm_class_idx: 8
            -
               depth: 5
               value: 7.
               norm_class_idx: 7
            -
               depth: 4
               value: 2.
               norm_class_idx: 2
               splits:
                  - { var:93, quality:2.7906167602539062e+02,
                      le:4.3439059518277645e-03 }
            -
               depth: 5
               value: 2.
               norm_class_idx: 2
            -
               depth: 5
               value: 7.
               norm_class_idx: 7
            -
               depth: 1
               value: 6.
               norm_class_idx: 6
               splits:
                  - { var:23, quality:2.0666667175292969e+02,
                      le:3.4020215272903442e-02 }
            -
               depth: 2
               value: 0.
               norm_class_idx: 0
            -
               depth: 2
               value: 6.
               norm_class_idx: 6
      -
         nodes:
            -
               depth: 0
               value: 3.
               norm_class_idx: 3
               splits:
                  - { var:98, quality:3.9652432250976562e+02,
                      le:1.7031673341989517e-03 }
            -
               depth: 1
               value: 6.
               norm_class_idx: 6
               splits:
                  - { var:130, quality:3.4519934082031250e+02,
                      le:4.8938752152025700e-03 }
            -
               depth: 2
               value: 6.
               norm_class_idx: 6
               splits:
                  - { var:138, quality:3.1589645385742188e+02,
                      le:1.0172629263252020e-03 }
            -
               depth: 3
               value: 0.
               norm_class_idx: 0
               splits:
                  - { var:126, quality:1.9601170349121094e+02,
                      le:1.5863128006458282e-02 }
            -
               depth: 4
               value: 0.
               norm_class_idx: 0
               splits:
                  - { var:68, quality:1.6933332824707031e+02,
                      le:8.2918684929609299e-03 }
            -
               depth: 5
               value: 0.
               norm_class_idx: 0
            -
               depth: 5
               value: 0.
               norm_class_idx: 0
            -
               depth: 4
               value: 1.
               norm_class_idx: 1
            -
               depth: 3
               value: 6.
               norm_class_idx: 6
               splits:
                  - { var:68, quality:2.4610615539550781e+02,
                      le:1.3110618107020855e-02 }
            -
               depth: 4
               value: 6.
               norm_class_idx: 6
               splits:
                  - { var:52, quality:2.1006573486328125e+02,
                      le:1.3538106577470899e-03 }
            -
               depth: 5
               value: 6.
               norm_class_idx: 6
            -
               depth: 5
               value: 0.
               norm_class_idx: 0
            -
               depth: 4
               value: 2.
               norm_class_idx: 2
               splits:
                  - { var:104, quality:7.0846153259277344e+01,
                      le:6.1808563768863678e-03 }
            -
               depth: 5
               value: 0.
               norm_class_idx: 0
            -
               depth: 5
               value: 2.
               norm_class_idx: 2
            -
               depth: 2
               value: 1.
               norm_class_idx: 1
               splits:
                  - { var:59, quality:1.7903352355957031e+02,
                      le:7.4292803183197975e-03 }
            -
               depth: 3
               value: 1.
               norm_class_idx: 1
               splits:
                  - { var:302, quality:1.7701123046875000e+02,
                      le:4.7710127546451986e-04 }
            -
               depth: 4
               value: 6.
               norm_class_idx: 6
            -
               depth: 4
               value: 1.
               norm_class_idx: 1
               splits:
                  - { var:149, quality:1.7639999389648438e+02,
                      le:4.8726252280175686e-03 }
            -
               depth: 5
               value: 1.
               norm_class_idx: 1
            -
               depth: 5
               value: 1.
               norm_class_idx: 1
            -
               depth: 3
               value: 0.
               norm_class_idx: 0
            -
               depth: 1
               value: 3.
               norm_class_idx: 3
               splits:
                  - { var:147, quality:2.8446493530273438e+02,
                      le:4.6905791386961937e-03 }
            -
               depth: 2
               value: 5.
               norm_class_idx: 5
               splits:
                  - { var:178, quality:1.3351325988769531e+02,
                      le:9.0990238822996616e-04 }
            -
               depth: 3
               value: 5.
               norm_class_idx: 5
               splits:
                  - { var:162, quality:1.4359112548828125e+02,
                      le:8.7019680067896843e-03 }
            -
               depth: 4
               value: 4.
               norm_class_idx: 4
               splits:
                  - { var:148, quality:5.9821666717529297e+01,
                      le:5.0691021606326103e-03 }
            -
               depth: 5
               value: 4.
               norm_class_idx: 4
            -
               depth: 5
               value: 3.
               norm_class_idx: 3
            -
               depth: 4
               value: 5.
               norm_class_idx: 5
               splits:
                  - { var:98, quality:1.1260082244873047e+02,
                      le:7.7682752162218094e-03 }
            -
               depth: 5
               value: 4.
               norm_class_idx: 4
            -
               depth: 5
               value: 5.
               norm_class_idx: 5
            -
               depth: 3
               value: 9.
               norm_class_idx: 9
               splits:
                  - { var:78, quality:2.3450000762939453e+01,
                      le:4.5227762311697006e-03 }
            -
               depth: 4
               value: 9.
               norm_class_idx: 9
               splits:
                  - { var:139, quality:2.1537549972534180e+01,
                      le:1.7914726049639285e-04 }
            -
               depth: 5
               value: 9.
               norm_class_idx: 9
            -
               depth: 5
               value: 0.
               norm_class_idx: 0
            -
               depth: 4
               value: 7.
               norm_class_idx: 7
               splits:
                  - { var:150, quality:2.0727272033691406e+01,
                      le:5.8924723416566849e-03 }
            -
               depth: 5
               value: 1.
               norm_class_idx: 1
            -
               depth: 5
               value: 7.
               norm_class_idx: 7
            -
               depth: 2
               value: 3.
               norm_class_idx: 3
               splits:
                  - { var:142, quality:3.1182107543945312e+02,
                      le:3.7541459314525127e-03 }
            -
               depth: 3
               value: 3.
               norm_class_idx: 3
               splits:
                  - { var:127, quality:2.2339344787597656e+02,
                      le:2.8727377866744064e-05 }
            -
               depth: 4
               value: 9.
               norm_class_idx: 9
               splits:
                  - { var:20, quality:2.0307507324218750e+02,
                      le:7.0150475949048996e-04 }
            -
               depth: 5
               value: 9.
               norm_class_idx: 9
            -
               depth: 5
               value: 3.
               norm_class_idx: 3
            -
               depth: 4
               value: 3.
               norm_class_idx: 3
               splits:
                  - { var:177, quality:1.1874188232421875e+02,
                      le:5.0967861898243427e-04 }
            -
               depth: 5
               value: 4.
               norm_class_idx: 4
            -
               depth: 5
               value: 3.
               norm_class_idx: 3
            -
               depth: 3
               value: 7.
               norm_class_idx: 7
               splits:
                  - { var:306, quality:2.6935714721679688e+02,
                      le:2.4979183217510581e-04 }
            -
               depth: 4
               value: 8.
               norm_class_idx: 8
            -
               depth: 4
               value: 7.
               norm_class_idx: 7
               splits:
                  - { var:56, quality:2.8213415527343750e+02,
                      le:1.0884359944611788e-03 }
            -
               depth: 5
               value: 2.
               norm_class_idx: 2
            -
               depth: 5
               value: 7.
               norm_class_idx: 7
      -
         nodes:
            -
               depth: 0
               value: 8.
               norm_class_idx: 8
               splits:
                  - { var:132, quality:3.3693258666992188e+02,
                      le:3.2639408018440008e-03 }
            -
               depth: 1
               value: 8.
               norm_class_idx: 8
               splits:
                  - { var:303, quality:3.0685494995117188e+02,
                      le:9.1475073713809252e-04 }
            -
               depth: 2
               value: 0.
               norm_class_idx: 0
               splits:
                  - { var:110, quality:2.3196000671386719e+02,
                      le:2.5314399972558022e-02 }
            -
               depth: 3
               value: 0.
               norm_class_idx: 0
               splits:
                  - { var:95, quality:200., le:2.6892311871051788e-03 }
            -
               depth: 4
               value: 0.
               norm_class_idx: 0
            -
               depth: 4
               value: 8.
               norm_class_idx: 8
            -
               depth: 3
               value: 6.
               norm_class_idx: 6
            -
               depth: 2
               value: 2.
               norm_class_idx: 2
               splits:
                  - { var:92, quality:3.1749038696289062e+02,
                      le:1.4673008117824793e-03 }
            -
               depth: 3
               value: 2.
               norm_class_idx: 2
               splits:
                  - { var:22, quality:2.4851379394531250e+02,
                      le:1.5122338198125362e-02 }
            -
               depth: 4
               value: 8.
               norm_class_idx: 8
               splits:
                  - { var:24, quality:1.8321978759765625e+02,
                      le:6.2803551554679871e-02 }
            -
               depth: 5
               value: 1.
               norm_class_idx: 1
            -
               depth: 5
               value: 8.
               norm_class_idx: 8
            -
               depth: 4
               value: 2.
               norm_class_idx: 2
               splits:
                  - { var:66, quality:2.2612902832031250e+02,
                      le:9.9626071751117706e-03 }
            -
               depth: 5
               value: 6.
               norm_class_idx: 6
            -
               depth: 5
               value: 2.
               norm_class_idx: 2
            -
               depth: 3
               value: 7.
               norm_class_idx: 7
               splits:
                  - { var:55, quality:3.4517755126953125e+02,
                      le:1.9204718410037458e-04 }
            -
               depth: 4
               value: 9.
               norm_class_idx: 9
               splits:
                  - { var:126, quality:2.2581393432617188e+02,
                      le:7.2020164225250483e-05 }
            -
               depth: 5
               value: 9.
               norm_class_idx: 9
            -
               depth: 5
               value: 5.
               norm_class_idx: 5
            -
               depth: 4
               value: 7.
               norm_class_idx: 7
               splits:
                  - { var:147, quality:2.2882508850097656e+02,
                      le:4.3298145756125450e-03 }
            -
               depth: 5
               value: 5.
               norm_class_idx: 5
            -
               depth: 5
               value: 7.
               norm_class_idx: 7
            -
               depth: 1
               value: 1.
               norm_class_idx: 1
               splits:
                  - { var:24, quality:1.7620512390136719e+02,
                      le:4.4694896787405014e-03 }
            -
               depth: 2
               value: 1.
               norm_class_idx: 1
            -
               depth: 2
               value: 0.
               norm_class_idx: 0
               splits:
                  - { var:118, quality:2.8511110305786133e+01,
                      le:2.5428051594644785e-04 }
            -
               depth: 3
               value: 0.
               norm_class_idx: 0
               splits:
                  - { var:256, quality:2.8464284896850586e+01,
                      le:1.1864707630593330e-04 }
            -
               depth: 4
               value: 5.
               norm_class_idx: 5
               splits:
                  - { var:176, quality:1.7230770111083984e+01,
                      le:7.9811681061983109e-03 }
            -
               depth: 5
               value: 5.
               norm_class_idx: 5
            -
               depth: 5
               value: 1.
               norm_class_idx: 1
            -
               depth: 4
               value: 0.
               norm_class_idx: 0
               splits:
                  - { var:54, quality:2.4857143402099609e+01,
                      le:3.8801832124590874e-03 }
            -
               depth: 5
               value: 0.
               norm_class_idx: 0
            -
               depth: 5
               value: 1.
               norm_class_idx: 1
            -
               depth: 3
               value: 6.
               norm_class_idx: 6
               splits:
                  - { var:134, quality:1.6666666030883789e+01,
                      le:6.2780184671282768e-03 }
            -
               depth: 4
               value: 6.
               norm_class_idx: 6
            -
               depth: 4
               value: 1.
               norm_class_idx: 1
      -
         nodes:
            -
               depth: 0
               value: 6.
               norm_class_idx: 6
               splits:
                  - { var:143, quality:3.6533312988281250e+02,
                      le:3.9237244054675102e-03 }
            -
               depth: 1
               value: 9.
               norm_class_idx: 9
               splits:
                  - { var:93, quality:2.9267236328125000e+02,
                      le:1.3476012973114848e-03 }
            -
               depth: 2
               value: 1.
               norm_class_idx: 1
               splits:
                  - { var:142, quality:2.6669888305664062e+02,
                      le:3.0030030757188797e-04 }
            -
               depth: 3
               value: 1.
               norm_class_idx: 1
            -
               depth: 3
               value: 0.
               norm_class_idx: 0
               splits:
                  - { var:99, quality:1.5533407592773438e+02,
                      le:3.4923523198813200e-03 }
            -
               depth: 4
               value: 0.
               norm_class_idx: 0
               splits:
                  - { var:155, quality:1.4883204650878906e+02,
                      le:5.1256120204925537e-03 }
            -
               depth: 5
               value: 6.
               norm_class_idx: 6
            -
               depth: 5
               value: 0.
               norm_class_idx: 0
            -
               depth: 4
               value: 5.
               norm_class_idx: 5
               splits:
                  - { var:120, quality:4.5928569793701172e+01,
                      le:1.6373248072341084e-03 }
            -
               depth: 5
               value: 3.
               norm_class_idx: 3
            -
               depth: 5
               value: 5.
               norm_class_idx: 5
            -
               depth: 2
               value: 9.
               norm_class_idx: 9
               splits:
                  - { var:56, quality:3.1021420288085938e+02,
                      le:1.1603613384068012e-03 }
            -
               depth: 3
               value: 9.
               norm_class_idx: 9
               splits:
                  - { var:127, quality:2.0403225708007812e+02,
                      le:1.6051364582381211e-05 }
            -
               depth: 4
               value: 9.
               norm_class_idx: 9
            -
               depth: 4
               value: 3.
               norm_class_idx: 3
               splits:
                  - { var:153, quality:2.3799999237060547e+01,
                      le:6.8178353831171989e-03 }
            -
               depth: 5
               value: 4.
               norm_class_idx: 4
            -
               depth: 5
               value: 3.
               norm_class_idx: 3
            -
               depth: 3
               value: 4.
               norm_class_idx: 4
               splits:
                  - { var:147, quality:1.7506724548339844e+02,
                      le:3.7804008461534977e-03 }
            -
               depth: 4
               value: 5.
               norm_class_idx: 5
               splits:
                  - { var:27, quality:6.6368354797363281e+01,
                      le:1.1766025796532631e-02 }
            -
               depth: 5
               value: 4.
               norm_class_idx: 4
            -
               depth: 5
               value: 5.
               norm_class_idx: 5
            -
               depth: 4
               value: 4.
               norm_class_idx: 4
               splits:
                  - { var:96, quality:1.3714236450195312e+02,
                      le:1.0875495150685310e-02 }
            -
               depth: 5
               value: 4.
               norm_class_idx: 4
            -
               depth: 5
               value: 3.
               norm_class_idx: 3
            -
               depth: 1
               value: 7.
               norm_class_idx: 7
               splits:
                  - { var:110, quality:3.3408294677734375e+02,
                      le:2.6645299047231674e-02 }
            -
               depth: 2
               value: 8.
               norm_class_idx: 8
               splits:
                  - { var:306, quality:2.5225885009765625e+02,
                      le:1.0030090197687969e-04 }
            -
               depth: 3
               value: 8.
               norm_class_idx: 8
               splits:
                  - { var:16, quality:1.3501861572265625e+02,
                      le:3.4141346986871213e-05 }
            -
               depth: 4
               value: 8.
               norm_class_idx: 8
               splits:
                  - { var:121, quality:1.3534541320800781e+02,
                      le:1.2972400872968137e-04 }
            -
               depth: 5
               value: 8.
               norm_class_idx: 8
            -
               depth: 5
               value: 6.
               norm_class_idx: 6
            -
               depth: 4
               value: 0.
               norm_class_idx: 0
               splits:
                  - { var:179, quality:16., le:9.0877671027556062e-04 }
            -
               depth: 5
               value: 6.
               norm_class_idx: 6
            -
               depth: 5
               value: 0.
               norm_class_idx: 0
            -
               depth: 3
               value: 7.
               norm_class_idx: 7
               splits:
                  - { var:76, quality:2.4968272399902344e+02,
                      le:3.9137685671448708e-03 }
            -
               depth: 4
               value: 2.
               norm_class_idx: 2
               splits:
                  - { var:73, quality:1.8402853393554688e+02,
                      le:1.0752586647868156e-02 }
            -
               depth: 5
               value: 2.
               norm_class_idx: 2
            -
               depth: 5
               value: 8.
               norm_class_idx: 8
            -
               depth: 4
               value: 7.
               norm_class_idx: 7
               splits:
                  - { var:140, quality:1.7709382629394531e+02,
                      le:2.5614618789404631e-03 }
            -
               depth: 5
               value: 3.
               norm_class_idx: 3
            -
               depth: 5
               value: 7.
               norm_class_idx: 7
            -
               depth: 2
               value: 6.
               norm_class_idx: 6
               splits:
                  - { var:101, quality:2.0553161621093750e+02,
                      le:2.5121332146227360e-03 }
            -
               depth: 3
               value: 6.
               norm_class_idx: 6
               splits:
                  - { var:91, quality:1.8601075744628906e+02,
                      le:6.2560464721173048e-04 }
            -
               depth: 4
               value: 6.
               norm_class_idx: 6
               splits:
                  - { var:23, quality:1.8466667175292969e+02,
                      le:1.0284140706062317e-01 }
            -
               depth: 5
               value: 6.
               norm_class_idx: 6
            -
               depth: 5
               value: 6.
               norm_class_idx: 6
            -
               depth: 4
               value: 7.
               norm_class_idx: 7
            -
               depth: 3
               value: 7.
               norm_class_idx: 7
               splits:
                  - { var:306, quality:4.7173912048339844e+01,
                      le:5.9738438576459885e-03 }
            -
               depth: 4
               value: 7.
               norm_class_idx: 7
               splits:
                  - { var:170, quality:3.9103446960449219e+01,
                      le:5.3431959822773933e-03 }
            -
               depth: 5
               value: 6.
               norm_class_idx: 6
            -
               depth: 5
               value: 7.
               norm_class_idx: 7
            -
               depth: 4
               value: 2.
               norm_class_idx: 2
      -
         nodes:
            -
               depth: 0
               value: 6.
               norm_class_idx: 6
               splits:
                  - { var:127, quality:3.9517364501953125e+02,
                      le:1.5417112037539482e-02 }
            -
               depth: 1
               value: 4.
               norm_class_idx: 4
               splits:
                  - { var:100, quality:3.9027481079101562e+02,
                      le:2.4592808913439512e-03 }
            -
               depth: 2
               value: 6.
               norm_class_idx: 6
               splits:
                  - { var:23, quality:2.7808013916015625e+02,
                      le:3.1411964446306229e-02 }
            -
               depth: 3
               value: 0.
               norm_class_idx: 0
               splits:
                  - { var:67, quality:1.1812174224853516e+02,
                      le:2.3154363036155701e-02 }
            -
               depth: 4
               value: 0.
               norm_class_idx: 0
               splits:
                  - { var:107, quality:1.1301770019531250e+02,
                      le:5.7482756674289703e-03 }
            -
               depth: 5
               value: 0.
               norm_class_idx: 0
            -
               depth: 5
               value: 8.
               norm_class_idx: 8
            -
               depth: 4
               value: 1.
               norm_class_idx: 1
            -
               depth: 3
               value: 6.
               norm_class_idx: 6
               splits:
                  - { var:107, quality:2.3352731323242188e+02,
                      le:3.0651763081550598e-02 }
            -
               depth: 4
               value: 6.
               norm_class_idx: 6
               splits:
                  - { var:67, quality:2.1691342163085938e+02,
                      le:1.4133820310235023e-02 }
            -
               depth: 5
               value: 6.
               norm_class_idx: 6
            -
               depth: 5
               value: 0.
               norm_class_idx: 0
            -
               depth: 4
               value: 0.
               norm_class_idx: 0
               splits:
                  - { var:60, quality:44., le:1.1011356255039573e-03 }
            -
               depth: 5
               value: 0.
               norm_class_idx: 0
            -
               depth: 5
               value: 2.
               norm_class_idx: 2
            -
               depth: 2
               value: 4.
               norm_class_idx: 4
               splits:
                  - { var:122, quality:3.1176538085937500e+02,
                      le:1.8611575796967372e-05 }
            -
               depth: 3
               value: 9.
               norm_class_idx: 9
               splits:
                  - { var:23, quality:3.0514596557617188e+02,
                      le:2.3214954882860184e-02 }
            -
               depth: 4
               value: 9.
               norm_class_idx: 9
               splits:
                  - { var:54, quality:2.2313601684570312e+02,
                      le:1.1626229388639331e-04 }
            -
               depth: 5
               value: 9.
               norm_class_idx: 9
            -
               depth: 5
               value: 7.
               norm_class_idx: 7
            -
               depth: 4
               value: 8.
               norm_class_idx: 8
               splits:
                  - { var:99, quality:2.2333032226562500e+02,
                      le:3.1717899255454540e-03 }
            -
               depth: 5
               value: 0.
               norm_class_idx: 0
            -
               depth: 5
               value: 8.
               norm_class_idx: 8
            -
               depth: 3
               value: 2.
               norm_class_idx: 2
               splits:
                  - { var:94, quality:3.3625463867187500e+02,
                      le:1.3690390624105930e-03 }
            -
               depth: 4
               value: 2.
               norm_class_idx: 2
               splits:
                  - { var:116, quality:2.1575938415527344e+02,
                      le:1.1646373895928264e-03 }
            -
               depth: 5
               value: 2.
               norm_class_idx: 2
            -
               depth: 5
               value: 5.
               norm_class_idx: 5
            -
               depth: 4
               value: 4.
               norm_class_idx: 4
               splits:
                  - { var:144, quality:2.2536474609375000e+02,
                      le:4.6822484582662582e-03 }
            -
               depth: 5
               value: 4.
               norm_class_idx: 4
            -
               depth: 5
               value: 7.
               norm_class_idx: 7
            -
               depth: 1
               value: 1.
               norm_class_idx: 1
               splits:
                  - { var:301, quality:196., le:1.0873557766899467e-03 }
            -
               depth: 2
               value: 6.
               norm_class_idx: 6
            -
               depth: 2
               value: 1.
               norm_class_idx: 1
      -
         nodes:
            -
               depth: 0
               value: 3.
               norm_class_idx: 3
               splits:
                  - { var:126, quality:3.9704122924804688e+02,
                      le:1.9686762243509293e-02 }
            -
               depth: 1
               value: 3.
               norm_class_idx: 3
               splits:
                  - { var:55, quality:3.3611029052734375e+02,
                      le:3.8490400766022503e-04 }
            -
               depth: 2
               value: 9.
               norm_class_idx: 9
               splits:
                  - { var:91, quality:3.2562222290039062e+02,
                      le:1.8691655714064837e-03 }
            -
               depth: 3
               value: 2.
               norm_class_idx: 2
               splits:
                  - { var:147, quality:2.2081718444824219e+02,
                      le:5.9050517156720161e-03 }
            -
               depth: 4
               value: 0.
               norm_class_idx: 0
               splits:
                  - { var:306, quality:1.3359016418457031e+02,
                      le:1.7088069580495358e-03 }
            -
               depth: 5
               value: 0.
               norm_class_idx: 0
            -
               depth: 5
               value: 3.
               norm_class_idx: 3
            -
               depth: 4
               value: 2.
               norm_class_idx: 2
               splits:
                  - { var:148, quality:2.2580926513671875e+02,
                      le:7.5778765603899956e-03 }
            -
               depth: 5
               value: 2.
               norm_class_idx: 2
            -
               depth: 5
               value: 8.
               norm_class_idx: 8
            -
               depth: 3
               value: 9.
               norm_class_idx: 9
               splits:
                  - { var:96, quality:1.9923809814453125e+02,
                      le:9.1661298647522926e-03 }
            -
               depth: 4
               value: 4.
               norm_class_idx: 4
               splits:
                  - { var:114, quality:7.7333331108093262e+00,
                      le:7.9744815593585372e-04 }
            -
               depth: 5
               value: 4.
               norm_class_idx: 4
            -
               depth: 5
               value: 0.
               norm_class_idx: 0
            -
               depth: 4
               value: 9.
               norm_class_idx: 9
            -
               depth: 2
               value: 4.
               norm_class_idx: 4
               splits:
                  - { var:138, quality:2.6393569946289062e+02,
                      le:1.4297454617917538e-03 }
            -
               depth: 3
               value: 4.
               norm_class_idx: 4
               splits:
                  - { var:142, quality:2.8689526367187500e+02,
                      le:4.2656366713345051e-03 }
            -
               depth: 4
               value: 4.
               norm_class_idx: 4
               splits:
                  - { var:83, quality:2.1747079467773438e+02,
                      le:9.8014366813004017e-04 }
            -
               depth: 5
               value: 5.
               norm_class_idx: 5
            -
               depth: 5
               value: 4.
               norm_class_idx: 4
            -
               depth: 4
               value: 7.
               norm_class_idx: 7
               splits:
                  - { var:21, quality:1.8522801208496094e+02,
                      le:5.2777538076043129e-03 }
            -
               depth: 5
               value: 8.
               norm_class_idx: 8
            -
               depth: 5
               value: 7.
               norm_class_idx: 7
            -
               depth: 3
               value: 6.
               norm_class_idx: 6
               splits:
                  - { var:114, quality:1.5876597595214844e+02,
                      le:6.3200748991221189e-04 }
            -
               depth: 4
               value: 7.
               norm_class_idx: 7
               splits:
                  - { var:20, quality:6.5912696838378906e+01,
                      le:2.7262812363915145e-04 }
            -
               depth: 5
               value: 7.
               norm_class_idx: 7
            -
               depth: 5
               value: 1.
               norm_class_idx: 1
            -
               depth: 4
               value: 6.
               norm_class_idx: 6
               splits:
                  - { var:116, quality:1.2925000000000000e+02,
                      le:2.6659090071916580e-03 }
            -
               depth: 5
               value: 6.
               norm_class_idx: 6
            -
               depth: 5
               value: 7.
               norm_class_idx: 7
            -
               depth: 1
               value: 1.
               norm_class_idx: 1
               splits:
                  - { var:41, quality:185., le:1.0657194070518017e-04 }
            -
               depth: 2
               value: 1.
               norm_class_idx: 1
            -
               depth: 2
               value: 6.
               norm_class_idx: 6
      -
         nodes:
            -
               depth: 0
               value: 7.
               norm_class_idx: 7
               splits:
                  - { var:130, quality:3.8466320800781250e+02,
                      le:4.5482134446501732e-03 }
            -
               depth: 1
               value: 7.
               norm_class_idx: 7
               splits:
                  - { var:142, quality:3.8389556884765625e+02,
                      le:3.3371201716363430e-03 }
            -
               depth: 2
               value: 5.
               norm_class_idx: 5
               splits:
                  - { var:95, quality:3.2225128173828125e+02,
                      le:2.6153256185352802e-03 }
            -
               depth: 3
               value: 0.
               norm_class_idx: 0
               splits:
                  - { var:16, quality:1.4069387817382812e+02,
                      le:2.0492669194936752e-02 }
            -
               depth: 4
               value: 0.
               norm_class_idx: 0
               splits:
                  - { var:138, quality:1.3883288574218750e+02,
                      le:1.2913512764498591e-03 }
            -
               depth: 5
               value: 0.
               norm_class_idx: 0
            -
               depth: 5
               value: 6.
               norm_class_idx: 6
            -
               depth: 4
               value: 1.
               norm_class_idx: 1
            -
               depth: 3
               value: 5.
               norm_class_idx: 5
               splits:
                  - { var:54, quality:3.2864492797851562e+02,
                      le:2.9325512514333241e-05 }
            -
               depth: 4
               value: 9.
               norm_class_idx: 9
               splits:
                  - { var:130, quality:2.0143641662597656e+02,
                      le:1.8646280295797624e-05 }
            -
               depth: 5
               value: 9.
               norm_class_idx: 9
            -
               depth: 5
               value: 3.
               norm_class_idx: 3
            -
               depth: 4
               value: 4.
               norm_class_idx: 4
               splits:
                  - { var:149, quality:2.0772525024414062e+02,
                      le:4.7842673957347870e-03 }
            -
               depth: 5
               value: 5.
               norm_class_idx: 5
            -
               depth: 5
               value: 4.
               norm_class_idx: 4
            -
               depth: 2
               value: 7.
               norm_class_idx: 7
               splits:
                  - { var:103, quality:3.0308044433593750e+02,
                      le:4.0086861699819565e-03 }
            -
               depth: 3
               value: 6.
               norm_class_idx: 6
               splits:
                  - { var:283, quality:1.5273797607421875e+02,
                      le:3.5285933408886194e-03 }
            -
               depth: 4
               value: 6.
               norm_class_idx: 6
               splits:
                  - { var:305, quality:1.4090951538085938e+02,
                      le:1.8629493424668908e-03 }
            -
               depth: 5
               value: 6.
               norm_class_idx: 6
            -
               depth: 5
               value: 1.
               norm_class_idx: 1
            -
               depth: 4
               value: 0.
               norm_class_idx: 0
               splits:
                  - { var:106, quality:6.0322750091552734e+01,
                      le:4.3653063476085663e-03 }
            -
               depth: 5
               value: 0.
               norm_class_idx: 0
            -
               depth: 5
               value: 6.
               norm_class_idx: 6
            -
               depth: 3
               value: 2.
               norm_class_idx: 2
               splits:
                  - { var:150, quality:3.2609216308593750e+02,
                      le:7.6210508123040199e-03 }
            -
               depth: 4
               value: 2.
               norm_class_idx: 2
               splits:
                  - { var:93, quality:3.5430786132812500e+02,
                      le:4.7148428857326508e-03 }
            -
               depth: 5
               value: 2.
               norm_class_idx: 2
            -
               depth: 5
               value: 7.
               norm_class_idx: 7
            -
               depth: 4
               value: 8.
               norm_class_idx: 8
               splits:
                  - { var:21, quality:1.8506123352050781e+02,
                      le:3.2235682010650635e-03 }
            -
               depth: 5
               value: 8.
               norm_class_idx: 8
            -
               depth: 5
               value: 2.
               norm_class_idx: 2
            -
               depth: 1
               value: 1.
               norm_class_idx: 1
               splits:
                  - { var:240, quality:1.7706703186035156e+02,
                      le:3.4940600016852841e-05 }
            -
               depth: 2
               value: 1.
               norm_class_idx: 1
               splits:
                  - { var:289, quality:1.7601130676269531e+02,
                      le:9.3055557226762176e-04 }
            -
               depth: 3
               value: 5.
               norm_class_idx: 5
            -
               depth: 3
               value: 1.
               norm_class_idx: 1
               splits:
                  - { var:166, quality:1.7566667175292969e+02,
                      le:2.4905381724238396e-03 }
            -
               depth: 4
               value: 1.
               norm_class_idx: 1
            -
               depth: 4
               value: 1.
               norm_class_idx: 1
            -
               depth: 2
               value: 6.
               norm_class_idx: 6
      -
         nodes:
            -
               depth: 0
               value: 4.
               norm_class_idx: 4
               splits:
                  - { var:100, quality:4.0652789306640625e+02,
                      le:2.3284519556909800e-03 }
            -
               depth: 1
               value: 6.
               norm_class_idx: 6
               splits:
                  - { var:22, quality:4.0096032714843750e+02,
                      le:4.6098276972770691e-02 }
            -
               depth: 2
               value: 1.
               norm_class_idx: 1
               splits:
                  - { var:140, quality:3.1345297241210938e+02,
                      le:2.1097046555951238e-04 }
            -
               depth: 3
               value: 1.
               norm_class_idx: 1
               splits:
                  - { var:303, quality:2.1600338745117188e+02,
                      le:6.2344137404579669e-05 }
            -
               depth: 4
               value: 0.
               norm_class_idx: 0
               splits:
                  - { var:292, quality:35., le:7.9548358917236328e-03 }
