%YAML:1.0
---
opencv_ml_rtrees:
   format: 3
   is_classifier: 1
   var_all: 25
   var_count: 24
   ord_var_count: 24
   cat_var_count: 1
   training_params:
      use_surrogates: 0
      max_categories: 10
      regression_accuracy: 0.
      max_depth: 5
      min_sample_count: 10
      cross_validation_folds: 0
      nactive_vars: 0
   global_var_idx: 1
   var_idx: [ 0, 1, 2, 3, 4, 5, 6, 7, 8, 9, 10, 11, 12, 13, 14, 15, 16,
       17, 18, 19, 20, 21, 22, 23 ]
   var_type: [ 0, 0, 0, 0, 0, 0, 0, 0, 0, 0, 0, 0, 0, 0, 0, 0, 0, 0, 0,
       0, 0, 0, 0, 0, 1 ]
   cat_ofs: [ 0, 0, 0, 0, 0, 0, 0, 0, 0, 0, 0, 0, 0, 0, 0, 0, 0, 0, 0, 0,
       0, 0, 0, 0, 0, 0, 0, 0, 0, 0, 0, 0, 0, 0, 0, 0, 0, 0, 0, 0, 0, 0,
       0, 0, 0, 0, 0, 0 ]
   class_labels: [ 0, 1, 2, 3, 4, 5, 6, 7, 8, 9 ]
   missing_subst: [ 0., 0., 0., 0., 0., 0., 0., 0., 0., 0., 0., 0., 0.,
       0., 0., 0., 0., 0., 0., 0., 0., 0., 0., 0., 0. ]
   oob_error: 0.
   ntrees: 50
   trees:
      -
         nodes:
            -
               depth: 0
               value: 7.
               norm_class_idx: 7
               splits:
                  - { var:12, quality:4.2064593505859375e+02,
                      le:8.2876291126012802e-03 }
            -
               depth: 1
               value: 1.
               norm_class_idx: 1
               splits:
                  - { var:0, quality:206., le:3.8410690613090992e-03 }
            -
               depth: 2
               value: 1.
               norm_class_idx: 1
            -
               depth: 2
               value: 4.
               norm_class_idx: 4
            -
               depth: 1
               value: 7.
               norm_class_idx: 7
               splits:
                  - { var:14, quality:3.9770291137695312e+02,
                      le:4.0459185838699341e-02 }
            -
               depth: 2
               value: 7.
               norm_class_idx: 7
               splits:
                  - { var:16, quality:3.0356954956054688e+02,
                      le:1.3606965541839600e-01 }
            -
               depth: 3
               value: 5.
               norm_class_idx: 5
               splits:
                  - { var:8, quality:2.1372996520996094e+02,
                      le:2.2352844476699829e-02 }
            -
               depth: 4
               value: 5.
               norm_class_idx: 5
               splits:
                  - { var:6, quality:1.9698020935058594e+02,
                      le:3.4599006175994873e-02 }
            -
               depth: 5
               value: 5.
               norm_class_idx: 5
            -
               depth: 5
               value: 3.
               norm_class_idx: 3
            -
               depth: 4
               value: 4.
               norm_class_idx: 4
               splits:
                  - { var:1, quality:1.4508148193359375e+02,
                      le:1.3595901429653168e-02 }
            -
               depth: 5
               value: 9.
               norm_class_idx: 9
            -
               depth: 5
               value: 4.
               norm_class_idx: 4
            -
               depth: 3
               value: 7.
               norm_class_idx: 7
               splits:
                  - { var:10, quality:3.5242913818359375e+02,
                      le:9.1140732169151306e-02 }
            -
               depth: 4
               value: 7.
               norm_class_idx: 7
               splits:
                  - { var:7, quality:2.7302487182617188e+02,
                      le:2.1820973604917526e-02 }
            -
               depth: 5
               value: 2.
               norm_class_idx: 2
            -
               depth: 5
               value: 7.
               norm_class_idx: 7
            -
               depth: 4
               value: 6.
               norm_class_idx: 6
               splits:
                  - { var:18, quality:3.1244110107421875e+02,
                      le:3.1313579529523849e-02 }
            -
               depth: 5
               value: 0.
               norm_class_idx: 0
            -
               depth: 5
               value: 6.
               norm_class_idx: 6
            -
               depth: 2
               value: 8.
               norm_class_idx: 8
               splits:
                  - { var:21, quality:2.7116195678710938e+02,
                      le:3.9319656789302826e-02 }
            -
               depth: 3
               value: 8.
               norm_class_idx: 8
               splits:
                  - { var:8, quality:2.5882562255859375e+02,
                      le:2.6887597050517797e-03 }
            -
               depth: 4
               value: 8.
               norm_class_idx: 8
               splits:
                  - { var:22, quality:229., le:7.2785019874572754e-03 }
            -
               depth: 5
               value: 3.
               norm_class_idx: 3
            -
               depth: 5
               value: 8.
               norm_class_idx: 8
            -
               depth: 4
               value: 3.
               norm_class_idx: 3
               splits:
                  - { var:12, quality:3.7866664886474609e+01,
                      le:2.7220204472541809e-02 }
            -
               depth: 5
               value: 5.
               norm_class_idx: 5
            -
               depth: 5
               value: 3.
               norm_class_idx: 3
            -
               depth: 3
               value: 3.
               norm_class_idx: 3
               splits:
                  - { var:1, quality:7.9599998474121094e+01,
                      le:2.9533836059272289e-03 }
            -
               depth: 4
               value: 1.
               norm_class_idx: 1
            -
               depth: 4
               value: 3.
               norm_class_idx: 3
      -
         nodes:
            -
               depth: 0
               value: 9.
               norm_class_idx: 9
               splits:
                  - { var:19, quality:3.6880615234375000e+02,
                      le:5.8581084012985229e-02 }
            -
               depth: 1
               value: 9.
               norm_class_idx: 9
               splits:
                  - { var:11, quality:4.1071322631835938e+02,
                      le:1.2558843940496445e-02 }
            -
               depth: 2
               value: 1.
               norm_class_idx: 1
               splits:
                  - { var:12, quality:2.0833332824707031e+02,
                      le:8.8773863390088081e-03 }
            -
               depth: 3
               value: 1.
               norm_class_idx: 1
            -
               depth: 3
               value: 5.
               norm_class_idx: 5
            -
               depth: 2
               value: 9.
               norm_class_idx: 9
               splits:
                  - { var:1, quality:3.4736764526367188e+02,
                      le:1.7172079533338547e-02 }
            -
               depth: 3
               value: 9.
               norm_class_idx: 9
               splits:
                  - { var:6, quality:2.8550653076171875e+02,
                      le:2.3001734167337418e-02 }
            -
               depth: 4
               value: 2.
               norm_class_idx: 2
               splits:
                  - { var:18, quality:106., le:7.6746180653572083e-02 }
            -
               depth: 5
               value: 2.
               norm_class_idx: 2
            -
               depth: 5
               value: 5.
               norm_class_idx: 5
            -
               depth: 4
               value: 9.
               norm_class_idx: 9
               splits:
                  - { var:16, quality:2.6219445800781250e+02,
                      le:1.0844896547496319e-02 }
            -
               depth: 5
               value: 3.
               norm_class_idx: 3
            -
               depth: 5
               value: 9.
               norm_class_idx: 9
            -
               depth: 3
               value: 5.
               norm_class_idx: 5
               splits:
                  - { var:6, quality:2.1548313903808594e+02,
                      le:3.4880407154560089e-02 }
            -
               depth: 4
               value: 5.
               norm_class_idx: 5
               splits:
                  - { var:8, quality:3.1301019287109375e+02,
                      le:3.7122216075658798e-02 }
            -
               depth: 5
               value: 5.
               norm_class_idx: 5
            -
               depth: 5
               value: 4.
               norm_class_idx: 4
            -
               depth: 4
               value: 0.
               norm_class_idx: 0
               splits:
                  - { var:20, quality:6.4254081726074219e+01,
                      le:2.1460916846990585e-02 }
            -
               depth: 5
               value: 0.
               norm_class_idx: 0
            -
               depth: 5
               value: 3.
               norm_class_idx: 3
            -
               depth: 1
               value: 8.
               norm_class_idx: 8
               splits:
                  - { var:18, quality:3.1333612060546875e+02,
                      le:4.0398485958576202e-02 }
            -
               depth: 2
               value: 8.
               norm_class_idx: 8
               splits:
                  - { var:7, quality:197., le:8.3403989672660828e-02 }
            -
               depth: 3
               value: 5.
               norm_class_idx: 5
            -
               depth: 3
               value: 8.
               norm_class_idx: 8
            -
               depth: 2
               value: 3.
               norm_class_idx: 3
               splits:
                  - { var:2, quality:1.5309291076660156e+02,
                      le:3.8745250552892685e-02 }
            -
               depth: 3
               value: 3.
               norm_class_idx: 3
               splits:
                  - { var:1, quality:150., le:1.4714598655700684e-03 }
            -
               depth: 4
               value: 4.
               norm_class_idx: 4
            -
               depth: 4
               value: 3.
               norm_class_idx: 3
            -
               depth: 3
               value: 4.
               norm_class_idx: 4
               splits:
                  - { var:15, quality:2.9133333206176758e+01,
                      le:4.9194609746336937e-03 }
            -
               depth: 4
               value: 4.
               norm_class_idx: 4
            -
               depth: 4
               value: 5.
               norm_class_idx: 5
               splits:
                  - { var:12, quality:15., le:9.5577254891395569e-02 }
            -
               depth: 5
               value: 5.
               norm_class_idx: 5
            -
               depth: 5
               value: 8.
               norm_class_idx: 8
      -
         nodes:
            -
               depth: 0
               value: 8.
               norm_class_idx: 8
               splits:
                  - { var:12, quality:4.0460910034179688e+02,
                      le:7.1761785075068474e-03 }
            -
               depth: 1
               value: 1.
               norm_class_idx: 1
            -
               depth: 1
               value: 8.
               norm_class_idx: 8
               splits:
                  - { var:20, quality:4.0436254882812500e+02,
                      le:5.9636127203702927e-02 }
            -
               depth: 2
               value: 6.
               norm_class_idx: 6
               splits:
                  - { var:10, quality:3.6234716796875000e+02,
                      le:9.2192359268665314e-02 }
            -
               depth: 3
               value: 9.
               norm_class_idx: 9
               splits:
                  - { var:2, quality:2.5771813964843750e+02,
                      le:2.0360603928565979e-02 }
            -
               depth: 4
               value: 9.
               norm_class_idx: 9
               splits:
                  - { var:8, quality:2.6293972778320312e+02,
                      le:2.0218528807163239e-02 }
            -
               depth: 5
               value: 3.
               norm_class_idx: 3
            -
               depth: 5
               value: 9.
               norm_class_idx: 9
            -
               depth: 4
               value: 4.
               norm_class_idx: 4
               splits:
                  - { var:8, quality:1.8569058227539062e+02,
                      le:3.9984919130802155e-02 }
            -
               depth: 5
               value: 0.
               norm_class_idx: 0
            -
               depth: 5
               value: 4.
               norm_class_idx: 4
            -
               depth: 3
               value: 6.
               norm_class_idx: 6
               splits:
                  - { var:23, quality:3.3573519897460938e+02,
                      le:2.1286690607666969e-03 }
            -
               depth: 4
               value: 6.
               norm_class_idx: 6
               splits:
                  - { var:15, quality:2.6878680419921875e+02,
                      le:8.2801450043916702e-03 }
            -
               depth: 5
               value: 6.
               norm_class_idx: 6
            -
               depth: 5
               value: 0.
               norm_class_idx: 0
            -
               depth: 4
               value: 5.
               norm_class_idx: 5
               splits:
                  - { var:4, quality:149., le:7.9127520322799683e-02 }
            -
               depth: 5
               value: 5.
               norm_class_idx: 5
            -
               depth: 5
               value: 0.
               norm_class_idx: 0
            -
               depth: 2
               value: 8.
               norm_class_idx: 8
               splits:
                  - { var:10, quality:2.9492684936523438e+02,
                      le:1.8177758902311325e-02 }
            -
               depth: 3
               value: 8.
               norm_class_idx: 8
               splits:
                  - { var:19, quality:2.4902459716796875e+02,
                      le:8.6716979742050171e-02 }
            -
               depth: 4
               value: 8.
               norm_class_idx: 8
               splits:
                  - { var:16, quality:243., le:5.0916869193315506e-02 }
            -
               depth: 5
               value: 3.
               norm_class_idx: 3
            -
               depth: 5
               value: 8.
               norm_class_idx: 8
            -
               depth: 4
               value: 3.
               norm_class_idx: 3
            -
               depth: 3
               value: 3.
               norm_class_idx: 3
               splits:
                  - { var:10, quality:7.7082191467285156e+01,
                      le:3.7815511226654053e-02 }
            -
               depth: 4
               value: 3.
               norm_class_idx: 3
               splits:
                  - { var:15, quality:7.1027778625488281e+01,
                      le:6.4043045043945312e-02 }
            -
               depth: 5
               value: 3.
               norm_class_idx: 3
            -
               depth: 5
               value: 7.
               norm_class_idx: 7
            -
               depth: 4
               value: 4.
               norm_class_idx: 4
      -
         nodes:
            -
               depth: 0
               value: 5.
               norm_class_idx: 5
               splits:
                  - { var:14, quality:3.9872583007812500e+02,
                      le:4.8365935683250427e-02 }
            -
               depth: 1
               value: 5.
               norm_class_idx: 5
               splits:
                  - { var:10, quality:3.5433908081054688e+02,
                      le:7.6275303959846497e-02 }
            -
               depth: 2
               value: 7.
               norm_class_idx: 7
               splits:
                  - { var:1, quality:2.6749420166015625e+02,
                      le:1.6483034938573837e-02 }
            -
               depth: 3
               value: 7.
               norm_class_idx: 7
               splits:
                  - { var:3, quality:2.6236563110351562e+02,
                      le:4.5402366667985916e-02 }
            -
               depth: 4
               value: 9.
               norm_class_idx: 9
               splits:
                  - { var:13, quality:2.1091366577148438e+02,
                      le:3.4883089363574982e-02 }
            -
               depth: 5
               value: 9.
               norm_class_idx: 9
            -
               depth: 5
               value: 3.
               norm_class_idx: 3
            -
               depth: 4
               value: 7.
               norm_class_idx: 7
               splits:
                  - { var:7, quality:2.0357376098632812e+02,
                      le:2.1826880052685738e-02 }
            -
               depth: 5
               value: 2.
               norm_class_idx: 2
            -
               depth: 5
               value: 7.
               norm_class_idx: 7
            -
               depth: 3
               value: 4.
               norm_class_idx: 4
               splits:
                  - { var:15, quality:1.5317988586425781e+02,
                      le:3.0103460885584354e-03 }
            -
               depth: 4
               value: 4.
               norm_class_idx: 4
               splits:
                  - { var:16, quality:1.0966666412353516e+02,
                      le:2.0772576332092285e-02 }
            -
               depth: 5
               value: 1.
               norm_class_idx: 1
            -
               depth: 5
               value: 4.
               norm_class_idx: 4
            -
               depth: 4
               value: 0.
               norm_class_idx: 0
               splits:
                  - { var:5, quality:93., le:5.5763654410839081e-02 }
            -
               depth: 5
               value: 5.
               norm_class_idx: 5
            -
               depth: 5
               value: 0.
               norm_class_idx: 0
            -
               depth: 2
               value: 6.
               norm_class_idx: 6
               splits:
                  - { var:6, quality:3.3585238647460938e+02,
                      le:2.7045190334320068e-02 }
            -
               depth: 3
               value: 5.
               norm_class_idx: 5
               splits:
                  - { var:9, quality:1.7956338500976562e+02,
                      le:7.4716046452522278e-02 }
            -
               depth: 4
               value: 5.
               norm_class_idx: 5
               splits:
                  - { var:14, quality:179., le:3.1703147105872631e-03 }
            -
               depth: 5
               value: 2.
               norm_class_idx: 2
            -
               depth: 5
               value: 5.
               norm_class_idx: 5
            -
               depth: 4
               value: 4.
               norm_class_idx: 4
               splits:
                  - { var:14, quality:13., le:1.3865146785974503e-02 }
            -
               depth: 5
               value: 4.
               norm_class_idx: 4
            -
               depth: 5
               value: 5.
               norm_class_idx: 5
            -
               depth: 3
               value: 6.
               norm_class_idx: 6
               splits:
                  - { var:16, quality:2.7326831054687500e+02,
                      le:2.3096564412117004e-01 }
            -
               depth: 4
               value: 6.
               norm_class_idx: 6
               splits:
                  - { var:15, quality:2.0570080566406250e+02,
                      le:5.2413633093237877e-03 }
            -
               depth: 5
               value: 6.
               norm_class_idx: 6
            -
               depth: 5
               value: 4.
               norm_class_idx: 4
            -
               depth: 4
               value: 0.
               norm_class_idx: 0
               splits:
                  - { var:15, quality:1.3618182373046875e+02,
                      le:3.5997119266539812e-04 }
            -
               depth: 5
               value: 6.
               norm_class_idx: 6
            -
               depth: 5
               value: 0.
               norm_class_idx: 0
            -
               depth: 1
               value: 8.
               norm_class_idx: 8
               splits:
                  - { var:20, quality:3.8042855834960938e+02,
                      le:1.8494470044970512e-02 }
            -
               depth: 2
               value: 1.
               norm_class_idx: 1
            -
               depth: 2
               value: 8.
               norm_class_idx: 8
               splits:
                  - { var:16, quality:3.4030645751953125e+02,
                      le:8.4994859993457794e-02 }
            -
               depth: 3
               value: 3.
               norm_class_idx: 3
               splits:
                  - { var:5, quality:1.2006611633300781e+02,
                      le:1.1997108347713947e-02 }
            -
               depth: 4
               value: 9.
               norm_class_idx: 9
            -
               depth: 4
               value: 3.
               norm_class_idx: 3
               splits:
                  - { var:2, quality:121., le:3.6700451746582985e-03 }
            -
               depth: 5
               value: 7.
               norm_class_idx: 7
            -
               depth: 5
               value: 3.
               norm_class_idx: 3
            -
               depth: 3
               value: 8.
               norm_class_idx: 8
      -
         nodes:
            -
               depth: 0
               value: 1.
               norm_class_idx: 1
               splits:
                  - { var:11, quality:4.4422631835937500e+02,
                      le:1.2471655383706093e-02 }
            -
               depth: 1
               value: 1.
               norm_class_idx: 1
               splits:
                  - { var:16, quality:2.3639999389648438e+02,
                      le:1.5268320217728615e-02 }
            -
               depth: 2
               value: 1.
               norm_class_idx: 1
            -
               depth: 2
               value: 8.
               norm_class_idx: 8
            -
               depth: 1
               value: 7.
               norm_class_idx: 7
               splits:
                  - { var:13, quality:3.7155752563476562e+02,
                      le:7.8999593853950500e-02 }
            -
               depth: 2
               value: 7.
               norm_class_idx: 7
               splits:
                  - { var:6, quality:3.4664053344726562e+02,
                      le:2.9960557818412781e-02 }
            -
               depth: 3
               value: 5.
               norm_class_idx: 5
               splits:
                  - { var:8, quality:3.3754052734375000e+02,
                      le:3.3835813403129578e-02 }
            -
               depth: 4
               value: 5.
               norm_class_idx: 5
               splits:
                  - { var:2, quality:219., le:3.3029116690158844e-02 }
            -
               depth: 5
               value: 1.
               norm_class_idx: 1
            -
               depth: 5
               value: 5.
               norm_class_idx: 5
            -
               depth: 4
               value: 4.
               norm_class_idx: 4
               splits:
                  - { var:0, quality:2.3640512084960938e+02,
                      le:2.0124721340835094e-03 }
            -
               depth: 5
               value: 2.
               norm_class_idx: 2
            -
               depth: 5
               value: 4.
               norm_class_idx: 4
            -
               depth: 3
               value: 7.
               norm_class_idx: 7
               splits:
                  - { var:0, quality:2.7607138061523438e+02,
                      le:7.6932059600949287e-03 }
            -
               depth: 4
               value: 7.
               norm_class_idx: 7
               splits:
                  - { var:8, quality:2.7568334960937500e+02,
                      le:5.0255957990884781e-02 }
            -
               depth: 5
               value: 6.
               norm_class_idx: 6
            -
               depth: 5
               value: 7.
               norm_class_idx: 7
            -
               depth: 4
               value: 3.
               norm_class_idx: 3
               splits:
                  - { var:1, quality:124., le:2.1278798580169678e-02 }
            -
               depth: 5
               value: 3.
               norm_class_idx: 3
            -
               depth: 5
               value: 4.
               norm_class_idx: 4
            -
               depth: 2
               value: 8.
               norm_class_idx: 8
               splits:
                  - { var:10, quality:2.6030850219726562e+02,
                      le:1.6394454985857010e-02 }
            -
               depth: 3
               value: 8.
               norm_class_idx: 8
               splits:
                  - { var:3, quality:1.9104167175292969e+02,
                      le:1.7081461846828461e-02 }
            -
               depth: 4
               value: 3.
               norm_class_idx: 3
            -
               depth: 4
               value: 8.
               norm_class_idx: 8
               splits:
                  - { var:18, quality:192., le:1.6118217259645462e-02 }
            -
               depth: 5
               value: 1.
               norm_class_idx: 1
            -
               depth: 5
               value: 8.
               norm_class_idx: 8
            -
               depth: 3
               value: 3.
               norm_class_idx: 3
               splits:
                  - { var:16, quality:88., le:5.4356370121240616e-02 }
            -
               depth: 4
               value: 3.
               norm_class_idx: 3
            -
               depth: 4
               value: 8.
               norm_class_idx: 8
      -
         nodes:
            -
               depth: 0
               value: 4.
               norm_class_idx: 4
               splits:
                  - { var:11, quality:4.0724951171875000e+02,
                      le:1.1227214708924294e-02 }
            -
               depth: 1
               value: 1.
               norm_class_idx: 1
               splits:
                  - { var:8, quality:190., le:7.6360598206520081e-02 }
            -
               depth: 2
               value: 1.
               norm_class_idx: 1
            -
               depth: 2
               value: 2.
               norm_class_idx: 2
            -
               depth: 1
               value: 4.
               norm_class_idx: 4
               splits:
                  - { var:14, quality:3.9099841308593750e+02,
                      le:3.9889588952064514e-02 }
            -
               depth: 2
               value: 4.
               norm_class_idx: 4
               splits:
                  - { var:23, quality:3.4175839233398438e+02,
                      le:4.9920110031962395e-03 }
            -
               depth: 3
               value: 4.
               norm_class_idx: 4
               splits:
                  - { var:19, quality:2.7385815429687500e+02,
                      le:6.5356142818927765e-02 }
            -
               depth: 4
               value: 4.
               norm_class_idx: 4
               splits:
                  - { var:8, quality:3.2096124267578125e+02,
                      le:4.5380178838968277e-02 }
            -
               depth: 5
               value: 6.
               norm_class_idx: 6
            -
               depth: 5
               value: 2.
               norm_class_idx: 2
            -
               depth: 4
               value: 3.
               norm_class_idx: 3
               splits:
                  - { var:1, quality:8.7666664123535156e+01,
                      le:1.4196709962561727e-03 }
            -
               depth: 5
               value: 4.
               norm_class_idx: 4
            -
               depth: 5
               value: 3.
               norm_class_idx: 3
            -
               depth: 3
               value: 5.
               norm_class_idx: 5
               splits:
                  - { var:2, quality:2.7690853881835938e+02,
                      le:6.2196172773838043e-02 }
            -
               depth: 4
               value: 9.
               norm_class_idx: 9
               splits:
                  - { var:7, quality:1.4856756591796875e+02,
                      le:1.5895670652389526e-01 }
            -
               depth: 5
               value: 0.
               norm_class_idx: 0
            -
               depth: 5
               value: 9.
               norm_class_idx: 9
            -
               depth: 4
               value: 5.
               norm_class_idx: 5
               splits:
                  - { var:23, quality:2.0239999389648438e+02,
                      le:5.2620409987866879e-03 }
            -
               depth: 5
               value: 5.
               norm_class_idx: 5
            -
               depth: 5
               value: 5.
               norm_class_idx: 5
            -
               depth: 2
               value: 8.
               norm_class_idx: 8
               splits:
                  - { var:5, quality:3.0925314331054688e+02,
                      le:1.9928704947233200e-02 }
            -
               depth: 3
               value: 8.
               norm_class_idx: 8
               splits:
                  - { var:8, quality:2.1400970458984375e+02,
                      le:5.8595067821443081e-03 }
            -
               depth: 4
               value: 8.
               norm_class_idx: 8
               splits:
                  - { var:16, quality:206., le:4.4352803379297256e-02 }
            -
               depth: 5
               value: 1.
               norm_class_idx: 1
            -
               depth: 5
               value: 8.
               norm_class_idx: 8
            -
               depth: 4
               value: 3.
               norm_class_idx: 3
            -
               depth: 3
               value: 3.
               norm_class_idx: 3
               splits:
                  - { var:2, quality:1.3189266967773438e+02,
                      le:3.9915081113576889e-02 }
            -
               depth: 4
               value: 3.
               norm_class_idx: 3
               splits:
                  - { var:1, quality:1.2701562500000000e+02,
                      le:2.3169682826846838e-03 }
            -
               depth: 5
               value: 7.
               norm_class_idx: 7
            -
               depth: 5
               value: 3.
               norm_class_idx: 3
            -
               depth: 4
               value: 8.
               norm_class_idx: 8
               splits:
                  - { var:1, quality:13., le:3.5045705735683441e-02 }
            -
               depth: 5
               value: 8.
               norm_class_idx: 8
            -
               depth: 5
               value: 5.
               norm_class_idx: 5
      -
         nodes:
            -
               depth: 0
               value: 4.
               norm_class_idx: 4
               splits:
                  - { var:11, quality:4.3665402221679688e+02,
                      le:1.2879205867648125e-02 }
            -
               depth: 1
               value: 1.
               norm_class_idx: 1
               splits:
                  - { var:12, quality:2.2566667175292969e+02,
                      le:1.9157418981194496e-02 }
            -
               depth: 2
               value: 1.
               norm_class_idx: 1
            -
               depth: 2
               value: 5.
               norm_class_idx: 5
            -
               depth: 1
               value: 4.
               norm_class_idx: 4
               splits:
                  - { var:20, quality:3.7625201416015625e+02,
                      le:5.7313017547130585e-02 }
            -
               depth: 2
               value: 9.
               norm_class_idx: 9
               splits:
                  - { var:8, quality:3.4826593017578125e+02,
                      le:4.0129896253347397e-02 }
            -
               depth: 3
               value: 5.
               norm_class_idx: 5
               splits:
                  - { var:5, quality:3.1173849487304688e+02,
                      le:3.1310882419347763e-02 }
            -
               depth: 4
               value: 5.
               norm_class_idx: 5
               splits:
                  - { var:10, quality:1.9188322448730469e+02,
                      le:5.8118186891078949e-02 }
            -
               depth: 5
               value: 3.
               norm_class_idx: 3
            -
               depth: 5
               value: 5.
               norm_class_idx: 5
            -
               depth: 4
               value: 0.
               norm_class_idx: 0
               splits:
                  - { var:13, quality:2.3375137329101562e+02,
                      le:2.6295565068721771e-02 }
            -
               depth: 5
               value: 0.
               norm_class_idx: 0
            -
               depth: 5
               value: 3.
               norm_class_idx: 3
            -
               depth: 3
               value: 4.
               norm_class_idx: 4
               splits:
                  - { var:7, quality:2.9240728759765625e+02,
                      le:1.3644040562212467e-02 }
            -
               depth: 4
               value: 4.
               norm_class_idx: 4
               splits:
                  - { var:2, quality:1.4901399230957031e+02,
                      le:2.3960765451192856e-02 }
            -
               depth: 5
               value: 2.
               norm_class_idx: 2
            -
               depth: 5
               value: 4.
               norm_class_idx: 4
            -
               depth: 4
               value: 2.
               norm_class_idx: 2
               splits:
                  - { var:3, quality:2.3326620483398438e+02,
                      le:4.2537763714790344e-02 }
            -
               depth: 5
               value: 9.
               norm_class_idx: 9
            -
               depth: 5
               value: 7.
               norm_class_idx: 7
            -
               depth: 2
               value: 8.
               norm_class_idx: 8
               splits:
                  - { var:16, quality:2.7468292236328125e+02,
                      le:6.2062956392765045e-02 }
            -
               depth: 3
               value: 3.
               norm_class_idx: 3
               splits:
                  - { var:16, quality:7.9333335876464844e+01,
                      le:1.0801792144775391e-02 }
            -
               depth: 4
               value: 3.
               norm_class_idx: 3
            -
               depth: 4
               value: 4.
               norm_class_idx: 4
            -
               depth: 3
               value: 8.
               norm_class_idx: 8
      -
         nodes:
            -
               depth: 0
               value: 3.
               norm_class_idx: 3
               splits:
                  - { var:2, quality:3.7664590454101562e+02,
                      le:7.4260078370571136e-02 }
            -
               depth: 1
               value: 3.
               norm_class_idx: 3
               splits:
                  - { var:16, quality:3.9636349487304688e+02,
                      le:2.1858831867575645e-02 }
            -
               depth: 2
               value: 3.
               norm_class_idx: 3
               splits:
                  - { var:11, quality:3.9146591186523438e+02,
                      le:1.6610171645879745e-02 }
            -
               depth: 3
               value: 1.
               norm_class_idx: 1
               splits:
                  - { var:11, quality:1.8616667175292969e+02,
                      le:9.4782058149576187e-03 }
            -
               depth: 4
               value: 1.
               norm_class_idx: 1
            -
               depth: 4
               value: 1.
               norm_class_idx: 1
               splits:
                  - { var:20, quality:12., le:3.8878135383129120e-02 }
            -
               depth: 5
               value: 1.
               norm_class_idx: 1
            -
               depth: 5
               value: 9.
               norm_class_idx: 9
            -
               depth: 3
               value: 3.
               norm_class_idx: 3
               splits:
                  - { var:2, quality:2.4013539123535156e+02,
                      le:2.8189592063426971e-02 }
            -
               depth: 4
               value: 3.
               norm_class_idx: 3
               splits:
                  - { var:10, quality:226., le:1.1807532981038094e-02 }
            -
               depth: 5
               value: 1.
               norm_class_idx: 1
            -
               depth: 5
               value: 3.
               norm_class_idx: 3
            -
               depth: 4
               value: 0.
               norm_class_idx: 0
               splits:
                  - { var:13, quality:20., le:1.2030450627207756e-02 }
            -
               depth: 5
               value: 5.
               norm_class_idx: 5
            -
               depth: 5
               value: 0.
               norm_class_idx: 0
            -
               depth: 2
               value: 9.
               norm_class_idx: 9
               splits:
                  - { var:13, quality:4.0221578979492188e+02,
                      le:7.6036132872104645e-02 }
            -
               depth: 3
               value: 9.
               norm_class_idx: 9
               splits:
                  - { var:6, quality:2.7374810791015625e+02,
                      le:3.2153785228729248e-02 }
            -
               depth: 4
               value: 4.
               norm_class_idx: 4
               splits:
                  - { var:17, quality:1.4808422851562500e+02,
                      le:5.0605405122041702e-02 }
            -
               depth: 5
               value: 2.
               norm_class_idx: 2
            -
               depth: 5
               value: 4.
               norm_class_idx: 4
            -
               depth: 4
               value: 9.
               norm_class_idx: 9
               splits:
                  - { var:5, quality:2.3576136779785156e+02,
                      le:1.0469700396060944e-01 }
            -
               depth: 5
               value: 7.
               norm_class_idx: 7
            -
               depth: 5
               value: 9.
               norm_class_idx: 9
            -
               depth: 3
               value: 8.
               norm_class_idx: 8
            -
               depth: 1
               value: 5.
               norm_class_idx: 5
               splits:
                  - { var:15, quality:2.4299548339843750e+02,
                      le:1.5347604639828205e-03 }
            -
               depth: 2
               value: 2.
               norm_class_idx: 2
               splits:
                  - { var:16, quality:5.5686958312988281e+01,
                      le:2.2886589169502258e-01 }
            -
               depth: 3
               value: 4.
               norm_class_idx: 4
               splits:
                  - { var:7, quality:23., le:1.5543082263320684e-03 }
            -
               depth: 4
               value: 5.
               norm_class_idx: 5
            -
               depth: 4
               value: 4.
               norm_class_idx: 4
            -
               depth: 3
               value: 2.
               norm_class_idx: 2
               splits:
                  - { var:3, quality:45., le:6.7431494593620300e-02 }
            -
               depth: 4
               value: 4.
               norm_class_idx: 4
            -
               depth: 4
               value: 2.
               norm_class_idx: 2
            -
               depth: 2
               value: 5.
               norm_class_idx: 5
               splits:
                  - { var:22, quality:2.0985714721679688e+02,
                      le:1.0598804801702499e-02 }
            -
               depth: 3
               value: 5.
               norm_class_idx: 5
            -
               depth: 3
               value: 5.
               norm_class_idx: 5
               splits:
                  - { var:7, quality:21., le:1.0691892355680466e-02 }
            -
               depth: 4
               value: 4.
               norm_class_idx: 4
            -
               depth: 4
               value: 5.
               norm_class_idx: 5
      -
         nodes:
            -
               depth: 0
               value: 8.
               norm_class_idx: 8
               splits:
                  - { var:11, quality:4.1756292724609375e+02,
                      le:1.2672684155404568e-02 }
            -
               depth: 1
               value: 1.
               norm_class_idx: 1
               splits:
                  - { var:10, quality:2.1059986877441406e+02,
                      le:4.1479580104351044e-02 }
            -
               depth: 2
               value: 1.
               norm_class_idx: 1
               splits:
                  - { var:16, quality:2.0900952148437500e+02,
                      le:1.2816183269023895e-01 }
            -
               depth: 3
               value: 1.
               norm_class_idx: 1
               splits:
                  - { var:7, quality:210., le:2.5721558928489685e-01 }
            -
               depth: 4
               value: 1.
               norm_class_idx: 1
            -
               depth: 4
               value: 9.
               norm_class_idx: 9
            -
               depth: 3
               value: 2.
               norm_class_idx: 2
            -
               depth: 2
               value: 2.
               norm_class_idx: 2
            -
               depth: 1
               value: 8.
               norm_class_idx: 8
               splits:
                  - { var:7, quality:3.7224316406250000e+02,
                      le:1.4032419025897980e-01 }
            -
               depth: 2
               value: 4.
               norm_class_idx: 4
               splits:
                  - { var:5, quality:3.1980764770507812e+02,
                      le:3.2745644450187683e-02 }
            -
               depth: 3
               value: 5.
               norm_class_idx: 5
               splits:
                  - { var:8, quality:2.2894792175292969e+02,
                      le:4.1539981961250305e-02 }
            -
               depth: 4
               value: 5.
               norm_class_idx: 5
               splits:
                  - { var:7, quality:1.8960000610351562e+02,
                      le:9.8609507083892822e-02 }
            -
               depth: 5
               value: 5.
               norm_class_idx: 5
            -
               depth: 5
               value: 8.
               norm_class_idx: 8
            -
               depth: 4
               value: 4.
               norm_class_idx: 4
               splits:
                  - { var:15, quality:6.0892856597900391e+01,
                      le:6.5772168454714119e-05 }
            -
               depth: 5
               value: 2.
               norm_class_idx: 2
            -
               depth: 5
               value: 4.
               norm_class_idx: 4
            -
               depth: 3
               value: 0.
               norm_class_idx: 0
               splits:
                  - { var:10, quality:3.2395446777343750e+02,
                      le:9.2531964182853699e-02 }
            -
               depth: 4
               value: 7.
               norm_class_idx: 7
               splits:
                  - { var:17, quality:2.4704620361328125e+02,
                      le:3.8439922034740448e-02 }
            -
               depth: 5
               value: 2.
               norm_class_idx: 2
            -
               depth: 5
               value: 7.
               norm_class_idx: 7
            -
               depth: 4
               value: 6.
               norm_class_idx: 6
               splits:
                  - { var:3, quality:2.9090728759765625e+02,
                      le:2.9071390628814697e-02 }
            -
               depth: 5
               value: 0.
               norm_class_idx: 0
            -
               depth: 5
               value: 6.
               norm_class_idx: 6
            -
               depth: 2
               value: 8.
               norm_class_idx: 8
               splits:
                  - { var:9, quality:3.0258734130859375e+02,
                      le:4.2565306648612022e-03 }
            -
               depth: 3
               value: 8.
               norm_class_idx: 8
               splits:
                  - { var:19, quality:2.4800813293457031e+02,
                      le:9.8387502133846283e-02 }
            -
               depth: 4
               value: 8.
               norm_class_idx: 8
               splits:
                  - { var:20, quality:246., le:3.1264048069715500e-02 }
            -
               depth: 5
               value: 6.
               norm_class_idx: 6
            -
               depth: 5
               value: 8.
               norm_class_idx: 8
            -
               depth: 4
               value: 3.
               norm_class_idx: 3
            -
               depth: 3
               value: 9.
               norm_class_idx: 9
               splits:
                  - { var:16, quality:1.2352083587646484e+02,
                      le:3.9071261882781982e-02 }
            -
               depth: 4
               value: 3.
               norm_class_idx: 3
            -
               depth: 4
               value: 9.
               norm_class_idx: 9
               splits:
                  - { var:7, quality:8.9025642395019531e+01,
                      le:1.5958970785140991e-01 }
            -
               depth: 5
               value: 7.
               norm_class_idx: 7
            -
               depth: 5
               value: 9.
               norm_class_idx: 9
      -
         nodes:
            -
               depth: 0
               value: 0.
               norm_class_idx: 0
               splits:
                  - { var:1, quality:3.6283132934570312e+02,
                      le:2.2138105705380440e-02 }
            -
               depth: 1
               value: 2.
               norm_class_idx: 2
               splits:
                  - { var:15, quality:3.4225939941406250e+02,
                      le:1.9568230956792831e-02 }
            -
               depth: 2
               value: 2.
               norm_class_idx: 2
               splits:
                  - { var:8, quality:3.2685653686523438e+02,
                      le:5.1958758383989334e-02 }
            -
               depth: 3
               value: 6.
               norm_class_idx: 6
               splits:
                  - { var:16, quality:2.7534802246093750e+02,
                      le:2.2764670848846436e-01 }
            -
               depth: 4
               value: 6.
               norm_class_idx: 6
               splits:
                  - { var:13, quality:2.3571119689941406e+02,
                      le:3.2350629568099976e-02 }
            -
               depth: 5
               value: 6.
               norm_class_idx: 6
            -
               depth: 5
               value: 3.
               norm_class_idx: 3
            -
               depth: 4
               value: 0.
               norm_class_idx: 0
               splits:
                  - { var:22, quality:1.5250000000000000e+02,
                      le:3.8402457721531391e-04 }
            -
               depth: 5
               value: 6.
               norm_class_idx: 6
            -
               depth: 5
               value: 0.
               norm_class_idx: 0
            -
               depth: 3
               value: 2.
               norm_class_idx: 2
               splits:
                  - { var:5, quality:2.6364907836914062e+02,
                      le:9.0337850153446198e-02 }
            -
               depth: 4
               value: 2.
               norm_class_idx: 2
               splits:
                  - { var:2, quality:2.0138822937011719e+02,
                      le:5.9007361531257629e-02 }
            -
               depth: 5
               value: 7.
               norm_class_idx: 7
            -
               depth: 5
               value: 2.
               norm_class_idx: 2
            -
               depth: 4
               value: 9.
               norm_class_idx: 9
               splits:
                  - { var:14, quality:1.7285491943359375e+02,
                      le:1.3651233166456223e-02 }
            -
               depth: 5
               value: 9.
               norm_class_idx: 9
            -
               depth: 5
               value: 2.
               norm_class_idx: 2
            -
               depth: 2
               value: 8.
               norm_class_idx: 8
               splits:
                  - { var:3, quality:3.2509396362304688e+02,
                      le:1.9954552873969078e-02 }
            -
               depth: 3
               value: 1.
               norm_class_idx: 1
               splits:
                  - { var:23, quality:2.0784671020507812e+02,
                      le:1.0727029293775558e-02 }
            -
               depth: 4
               value: 3.
               norm_class_idx: 3
               splits:
                  - { var:17, quality:62., le:2.4873211979866028e-02 }
            -
               depth: 5
               value: 3.
               norm_class_idx: 3
            -
               depth: 5
               value: 0.
               norm_class_idx: 0
            -
               depth: 4
               value: 1.
               norm_class_idx: 1
               splits:
                  - { var:10, quality:2.3607872009277344e+02,
                      le:3.5466521978378296e-02 }
            -
               depth: 5
               value: 1.
               norm_class_idx: 1
            -
               depth: 5
               value: 9.
               norm_class_idx: 9
            -
               depth: 3
               value: 8.
               norm_class_idx: 8
               splits:
                  - { var:10, quality:2.3760606384277344e+02,
                      le:1.8610918894410133e-02 }
            -
               depth: 4
               value: 8.
               norm_class_idx: 8
            -
               depth: 4
               value: 5.
               norm_class_idx: 5
               splits:
                  - { var:21, quality:2.6555555343627930e+01,
                      le:1.3948301784694195e-02 }
            -
               depth: 5
               value: 5.
               norm_class_idx: 5
            -
               depth: 5
               value: 3.
               norm_class_idx: 3
            -
               depth: 1
               value: 5.
               norm_class_idx: 5
               splits:
                  - { var:15, quality:3.1138720703125000e+02,
                      le:3.9017652161419392e-03 }
            -
               depth: 2
               value: 4.
               norm_class_idx: 4
               splits:
                  - { var:17, quality:141., le:1.1686179041862488e-01 }
            -
               depth: 3
               value: 4.
               norm_class_idx: 4
            -
               depth: 3
               value: 5.
               norm_class_idx: 5
            -
               depth: 2
               value: 5.
               norm_class_idx: 5
               splits:
                  - { var:12, quality:2.0954286193847656e+02,
                      le:4.3282058089971542e-02 }
            -
               depth: 3
               value: 5.
               norm_class_idx: 5
            -
               depth: 3
               value: 0.
               norm_class_idx: 0
               splits:
                  - { var:5, quality:105., le:5.9636212885379791e-02 }
            -
               depth: 4
               value: 5.
               norm_class_idx: 5
            -
               depth: 4
               value: 0.
               norm_class_idx: 0
      -
         nodes:
            -
               depth: 0
               value: 2.
               norm_class_idx: 2
               splits:
                  - { var:13, quality:3.9068029785156250e+02,
                      le:7.8257948160171509e-02 }
            -
               depth: 1
               value: 2.
               norm_class_idx: 2
               splits:
                  - { var:16, quality:3.8274465942382812e+02,
                      le:9.4424290582537651e-03 }
            -
               depth: 2
               value: 1.
               norm_class_idx: 1
               splits:
                  - { var:19, quality:2.4968981933593750e+02,
                      le:1.6045924276113510e-02 }
            -
               depth: 3
               value: 1.
               norm_class_idx: 1
               splits:
                  - { var:7, quality:205., le:3.3951099961996078e-02 }
            -
               depth: 4
               value: 3.
               norm_class_idx: 3
            -
               depth: 4
               value: 1.
               norm_class_idx: 1
            -
               depth: 3
               value: 3.
               norm_class_idx: 3
               splits:
                  - { var:14, quality:60., le:2.4335127323865891e-02 }
            -
               depth: 4
               value: 5.
               norm_class_idx: 5
            -
               depth: 4
               value: 3.
               norm_class_idx: 3
            -
               depth: 2
               value: 2.
               norm_class_idx: 2
               splits:
                  - { var:8, quality:3.5488256835937500e+02,
                      le:3.8484975695610046e-02 }
            -
               depth: 3
               value: 5.
               norm_class_idx: 5
               splits:
                  - { var:3, quality:2.6751004028320312e+02,
                      le:5.7972982525825500e-02 }
            -
               depth: 4
               value: 0.
               norm_class_idx: 0
               splits:
                  - { var:4, quality:2.1442481994628906e+02,
                      le:4.5535013079643250e-02 }
            -
               depth: 5
               value: 7.
               norm_class_idx: 7
            -
               depth: 5
               value: 0.
               norm_class_idx: 0
            -
               depth: 4
               value: 5.
               norm_class_idx: 5
               splits:
                  - { var:2, quality:1.5947511291503906e+02,
                      le:5.8408256620168686e-02 }
            -
               depth: 5
               value: 6.
               norm_class_idx: 6
            -
               depth: 5
               value: 5.
               norm_class_idx: 5
            -
               depth: 3
               value: 2.
               norm_class_idx: 2
               splits:
                  - { var:1, quality:3.2475372314453125e+02,
                      le:1.5381406992673874e-02 }
            -
               depth: 4
               value: 2.
               norm_class_idx: 2
               splits:
                  - { var:15, quality:2.2378016662597656e+02,
                      le:5.6715763639658689e-04 }
            -
               depth: 5
               value: 2.
               norm_class_idx: 2
            -
               depth: 5
               value: 9.
               norm_class_idx: 9
            -
               depth: 4
               value: 4.
               norm_class_idx: 4
            -
               depth: 1
               value: 8.
               norm_class_idx: 8
               splits:
                  - { var:16, quality:2.9307318115234375e+02,
                      le:8.4911249577999115e-02 }
            -
               depth: 2
               value: 3.
               norm_class_idx: 3
               splits:
                  - { var:1, quality:8.0024688720703125e+01,
                      le:1.3286119792610407e-03 }
            -
               depth: 3
               value: 4.
               norm_class_idx: 4
            -
               depth: 3
               value: 3.
               norm_class_idx: 3
               splits:
                  - { var:12, quality:81., le:2.7425585314631462e-02 }
            -
               depth: 4
               value: 1.
               norm_class_idx: 1
            -
               depth: 4
               value: 3.
               norm_class_idx: 3
            -
               depth: 2
               value: 8.
               norm_class_idx: 8
      -
         nodes:
            -
               depth: 0
               value: 4.
               norm_class_idx: 4
               splits:
                  - { var:19, quality:3.7879248046875000e+02,
                      le:5.9189435094594955e-02 }
            -
               depth: 1
               value: 1.
               norm_class_idx: 1
               splits:
                  - { var:16, quality:3.9767599487304688e+02,
                      le:1.4373857527971268e-02 }
            -
               depth: 2
               value: 1.
               norm_class_idx: 1
               splits:
                  - { var:20, quality:3.0018014526367188e+02,
                      le:2.5665232911705971e-02 }
            -
               depth: 3
               value: 1.
               norm_class_idx: 1
               splits:
                  - { var:14, quality:232., le:2.9141498729586601e-02 }
            -
               depth: 4
               value: 0.
               norm_class_idx: 0
            -
               depth: 4
               value: 1.
               norm_class_idx: 1
            -
               depth: 3
               value: 3.
               norm_class_idx: 3
               splits:
                  - { var:12, quality:78., le:1.5674042701721191e-01 }
            -
               depth: 4
               value: 3.
               norm_class_idx: 3
            -
               depth: 4
               value: 1.
               norm_class_idx: 1
            -
               depth: 2
               value: 6.
               norm_class_idx: 6
               splits:
                  - { var:1, quality:3.4120129394531250e+02,
                      le:1.5766348689794540e-02 }
            -
               depth: 3
               value: 6.
               norm_class_idx: 6
               splits:
                  - { var:7, quality:2.7046847534179688e+02,
                      le:2.1880779415369034e-02 }
            -
               depth: 4
               value: 2.
               norm_class_idx: 2
               splits:
                  - { var:0, quality:1.7552397155761719e+02,
                      le:4.9271160969510674e-04 }
            -
               depth: 5
               value: 2.
               norm_class_idx: 2
            -
               depth: 5
               value: 6.
               norm_class_idx: 6
            -
               depth: 4
               value: 7.
               norm_class_idx: 7
               splits:
                  - { var:16, quality:2.3206294250488281e+02,
                      le:2.0845091342926025e-01 }
            -
               depth: 5
               value: 9.
               norm_class_idx: 9
            -
               depth: 5
               value: 0.
               norm_class_idx: 0
            -
               depth: 3
               value: 5.
               norm_class_idx: 5
               splits:
                  - { var:13, quality:2.1027197265625000e+02,
                      le:1.2699335813522339e-02 }
            -
               depth: 4
               value: 4.
               norm_class_idx: 4
               splits:
                  - { var:8, quality:1.0216666412353516e+02,
                      le:3.9435047656297684e-02 }
            -
               depth: 5
               value: 5.
               norm_class_idx: 5
            -
               depth: 5
               value: 4.
               norm_class_idx: 4
            -
               depth: 4
               value: 5.
               norm_class_idx: 5
               splits:
                  - { var:18, quality:1.7388066101074219e+02,
                      le:9.3295276165008545e-02 }
            -
               depth: 5
               value: 5.
               norm_class_idx: 5
            -
               depth: 5
               value: 0.
               norm_class_idx: 0
            -
               depth: 1
               value: 8.
               norm_class_idx: 8
               splits:
                  - { var:18, quality:3.3623483276367188e+02,
                      le:4.1418567299842834e-02 }
            -
               depth: 2
               value: 8.
               norm_class_idx: 8
               splits:
                  - { var:22, quality:2.2166667175292969e+02,
                      le:8.5429335013031960e-03 }
            -
               depth: 3
               value: 3.
               norm_class_idx: 3
            -
               depth: 3
               value: 8.
               norm_class_idx: 8
            -
               depth: 2
               value: 3.
               norm_class_idx: 3
               splits:
                  - { var:9, quality:1.5852691650390625e+02,
                      le:4.0870934724807739e-02 }
            -
               depth: 3
               value: 3.
               norm_class_idx: 3
               splits:
                  - { var:13, quality:1.4847367858886719e+02,
                      le:2.3338649421930313e-02 }
            -
               depth: 4
               value: 5.
               norm_class_idx: 5
            -
               depth: 4
               value: 3.
               norm_class_idx: 3
               splits:
                  - { var:2, quality:152., le:4.6643760055303574e-02 }
            -
               depth: 5
               value: 3.
               norm_class_idx: 3
            -
               depth: 5
               value: 5.
               norm_class_idx: 5
            -
               depth: 3
               value: 4.
               norm_class_idx: 4
               splits:
                  - { var:6, quality:26., le:1.2260824441909790e-02 }
            -
               depth: 4
               value: 5.
               norm_class_idx: 5
            -
               depth: 4
               value: 4.
               norm_class_idx: 4
      -
         nodes:
            -
               depth: 0
               value: 8.
               norm_class_idx: 8
               splits:
                  - { var:13, quality:4.1049319458007812e+02,
                      le:7.4924968183040619e-02 }
            -
               depth: 1
               value: 9.
               norm_class_idx: 9
               splits:
                  - { var:10, quality:3.6236782836914062e+02,
                      le:1.2150904163718224e-02 }
            -
               depth: 2
               value: 1.
               norm_class_idx: 1
               splits:
                  - { var:2, quality:1.7204705810546875e+02,
                      le:1.1274873279035091e-02 }
            -
               depth: 3
               value: 1.
               norm_class_idx: 1
               splits:
                  - { var:20, quality:168., le:3.8878135383129120e-02 }
            -
               depth: 4
               value: 1.
               norm_class_idx: 1
            -
               depth: 4
               value: 1.
               norm_class_idx: 1
            -
               depth: 3
               value: 2.
               norm_class_idx: 2
            -
               depth: 2
               value: 9.
               norm_class_idx: 9
               splits:
                  - { var:5, quality:3.0828698730468750e+02,
                      le:2.9404260218143463e-02 }
            -
               depth: 3
               value: 5.
               norm_class_idx: 5
               splits:
                  - { var:8, quality:1.8543450927734375e+02,
                      le:3.4191932529211044e-02 }
            -
               depth: 4
               value: 5.
               norm_class_idx: 5
               splits:
                  - { var:1, quality:1.8278787231445312e+02,
                      le:1.1858606711030006e-02 }
            -
               depth: 5
               value: 3.
               norm_class_idx: 3
            -
               depth: 5
               value: 5.
               norm_class_idx: 5
            -
               depth: 4
               value: 4.
               norm_class_idx: 4
               splits:
                  - { var:9, quality:6.6612899780273438e+01,
                      le:5.2857875823974609e-02 }
            -
               depth: 5
               value: 2.
               norm_class_idx: 2
            -
               depth: 5
               value: 4.
               norm_class_idx: 4
            -
               depth: 3
               value: 6.
               norm_class_idx: 6
               splits:
                  - { var:8, quality:3.1065124511718750e+02,
                      le:4.8289984464645386e-02 }
            -
               depth: 4
               value: 6.
               norm_class_idx: 6
               splits:
                  - { var:3, quality:2.3126895141601562e+02,
                      le:2.9169615358114243e-02 }
            -
               depth: 5
               value: 0.
               norm_class_idx: 0
            -
               depth: 5
               value: 6.
               norm_class_idx: 6
            -
               depth: 4
               value: 2.
               norm_class_idx: 2
               splits:
                  - { var:1, quality:2.4708905029296875e+02,
                      le:1.5195110812783241e-02 }
            -
               depth: 5
               value: 2.
               norm_class_idx: 2
            -
               depth: 5
               value: 4.
               norm_class_idx: 4
            -
               depth: 1
               value: 8.
               norm_class_idx: 8
               splits:
                  - { var:8, quality:2.8147085571289062e+02,
                      le:2.3547252640128136e-03 }
            -
               depth: 2
               value: 8.
               norm_class_idx: 8
               splits:
                  - { var:10, quality:2.5020408630371094e+02,
                      le:2.0777639001607895e-02 }
            -
               depth: 3
               value: 8.
               norm_class_idx: 8
               splits:
                  - { var:9, quality:245., le:5.0614285282790661e-03 }
            -
               depth: 4
               value: 8.
               norm_class_idx: 8
            -
               depth: 4
               value: 3.
               norm_class_idx: 3
            -
               depth: 3
               value: 3.
               norm_class_idx: 3
            -
               depth: 2
               value: 3.
               norm_class_idx: 3
               splits:
                  - { var:9, quality:6.4031745910644531e+01,
                      le:3.2640506979078054e-03 }
            -
               depth: 3
               value: 8.
               norm_class_idx: 8
            -
               depth: 3
               value: 3.
               norm_class_idx: 3
               splits:
                  - { var:20, quality:63., le:2.3834956809878349e-02 }
            -
               depth: 4
               value: 4.
               norm_class_idx: 4
            -
               depth: 4
               value: 3.
               norm_class_idx: 3
      -
         nodes:
            -
               depth: 0
               value: 3.
               norm_class_idx: 3
               splits:
                  - { var:12, quality:4.0905160522460938e+02,
                      le:8.4052486345171928e-03 }
            -
               depth: 1
               value: 1.
               norm_class_idx: 1
               splits:
                  - { var:21, quality:1.9904020690917969e+02,
                      le:2.1884692832827568e-03 }
            -
               depth: 2
               value: 4.
               norm_class_idx: 4
            -
               depth: 2
               value: 1.
               norm_class_idx: 1
               splits:
                  - { var:20, quality:199., le:9.5655536279082298e-03 }
            -
               depth: 3
               value: 1.
               norm_class_idx: 1
            -
               depth: 3
               value: 5.
               norm_class_idx: 5
            -
               depth: 1
               value: 3.
               norm_class_idx: 3
               splits:
                  - { var:16, quality:3.9158755493164062e+02,
                      le:1.6315136104822159e-02 }
            -
               depth: 2
               value: 3.
               norm_class_idx: 3
               splits:
                  - { var:5, quality:1.8548815917968750e+02,
                      le:1.5774019062519073e-02 }
            -
               depth: 3
               value: 5.
               norm_class_idx: 5
            -
               depth: 3
               value: 3.
               norm_class_idx: 3
               splits:
                  - { var:4, quality:1.8484304809570312e+02,
                      le:4.8250947147607803e-02 }
            -
               depth: 4
               value: 3.
               norm_class_idx: 3
               splits:
                  - { var:8, quality:1.4301388549804688e+02,
                      le:6.4784823916852474e-04 }
            -
               depth: 5
               value: 1.
               norm_class_idx: 1
            -
               depth: 5
               value: 3.
               norm_class_idx: 3
            -
               depth: 4
               value: 3.
               norm_class_idx: 3
               splits:
                  - { var:6, quality:5.9230770111083984e+01,
                      le:6.0179755091667175e-02 }
            -
               depth: 5
               value: 0.
               norm_class_idx: 0
            -
               depth: 5
               value: 3.
               norm_class_idx: 3
            -
               depth: 2
               value: 6.
               norm_class_idx: 6
               splits:
                  - { var:9, quality:3.9379534912109375e+02,
                      le:3.7840923760086298e-03 }
            -
               depth: 3
               value: 8.
               norm_class_idx: 8
               splits:
                  - { var:10, quality:2.2724000549316406e+02,
                      le:4.0298178791999817e-02 }
            -
               depth: 4
               value: 8.
               norm_class_idx: 8
            -
               depth: 4
               value: 6.
               norm_class_idx: 6
               splits:
                  - { var:18, quality:2.3083333969116211e+01,
                      le:3.4011870622634888e-02 }
            -
               depth: 5
               value: 0.
               norm_class_idx: 0
            -
               depth: 5
               value: 6.
               norm_class_idx: 6
            -
               depth: 3
               value: 7.
               norm_class_idx: 7
               splits:
                  - { var:0, quality:3.3662942504882812e+02,
                      le:4.6309162862598896e-03 }
            -
               depth: 4
               value: 2.
               norm_class_idx: 2
               splits:
                  - { var:8, quality:3.2162130737304688e+02,
                      le:5.1958758383989334e-02 }
            -
               depth: 5
               value: 6.
               norm_class_idx: 6
            -
               depth: 5
               value: 2.
               norm_class_idx: 2
            -
               depth: 4
               value: 5.
               norm_class_idx: 5
               splits:
                  - { var:15, quality:2.7185665893554688e+02,
                      le:3.8170225452631712e-03 }
            -
               depth: 5
               value: 4.
               norm_class_idx: 4
            -
               depth: 5
               value: 5.
               norm_class_idx: 5
      -
         nodes:
            -
               depth: 0
               value: 4.
               norm_class_idx: 4
               splits:
                  - { var:13, quality:3.8483984375000000e+02,
                      le:7.7577643096446991e-02 }
            -
               depth: 1
               value: 4.
               norm_class_idx: 4
               splits:
                  - { var:12, quality:4.0234533691406250e+02,
                      le:8.4052486345171928e-03 }
            -
               depth: 2
               value: 1.
               norm_class_idx: 1
               splits:
                  - { var:11, quality:205., le:1.3205648399889469e-02 }
            -
               depth: 3
               value: 1.
               norm_class_idx: 1
            -
               depth: 3
               value: 4.
               norm_class_idx: 4
            -
               depth: 2
               value: 7.
               norm_class_idx: 7
               splits:
                  - { var:6, quality:3.4047613525390625e+02,
                      le:2.9960557818412781e-02 }
            -
               depth: 3
               value: 5.
               norm_class_idx: 5
               splits:
                  - { var:23, quality:2.8692871093750000e+02,
                      le:4.8986813053488731e-03 }
            -
               depth: 4
               value: 4.
               norm_class_idx: 4
               splits:
                  - { var:16, quality:1.7359220886230469e+02,
                      le:2.2886589169502258e-01 }
            -
               depth: 5
               value: 4.
               norm_class_idx: 4
            -
               depth: 5
               value: 2.
               norm_class_idx: 2
            -
               depth: 4
               value: 5.
               norm_class_idx: 5
               splits:
                  - { var:20, quality:1.7916667175292969e+02,
                      le:2.7115223929286003e-02 }
            -
               depth: 5
               value: 5.
               norm_class_idx: 5
            -
               depth: 5
               value: 5.
               norm_class_idx: 5
            -
               depth: 3
               value: 6.
               norm_class_idx: 6
               splits:
                  - { var:10, quality:3.4367648315429688e+02,
                      le:9.3693323433399200e-02 }
            -
               depth: 4
               value: 7.
               norm_class_idx: 7
               splits:
                  - { var:16, quality:2.9455981445312500e+02,
                      le:3.5979069769382477e-02 }
            -
               depth: 5
               value: 3.
               norm_class_idx: 3
            -
               depth: 5
               value: 7.
               norm_class_idx: 7
            -
               depth: 4
               value: 6.
               norm_class_idx: 6
               splits:
                  - { var:16, quality:3.0122811889648438e+02,
                      le:2.2429665923118591e-01 }
            -
               depth: 5
               value: 6.
               norm_class_idx: 6
            -
               depth: 5
               value: 0.
               norm_class_idx: 0
            -
               depth: 1
               value: 8.
               norm_class_idx: 8
               splits:
                  - { var:5, quality:2.7268054199218750e+02,
                      le:2.1204693242907524e-02 }
            -
               depth: 2
               value: 8.
               norm_class_idx: 8
               splits:
                  - { var:9, quality:2.1700942993164062e+02,
                      le:4.9190646968781948e-03 }
            -
               depth: 3
               value: 8.
               norm_class_idx: 8
               splits:
                  - { var:17, quality:212., le:3.1881453469395638e-03 }
            -
               depth: 4
               value: 1.
               norm_class_idx: 1
            -
               depth: 4
               value: 8.
               norm_class_idx: 8
            -
               depth: 3
               value: 3.
               norm_class_idx: 3
            -
               depth: 2
               value: 3.
               norm_class_idx: 3
               splits:
                  - { var:20, quality:7.2027397155761719e+01,
                      le:2.5127850472927094e-02 }
            -
               depth: 3
               value: 1.
               norm_class_idx: 1
            -
               depth: 3
               value: 3.
               norm_class_idx: 3
               splits:
                  - { var:2, quality:73., le:4.3013498187065125e-02 }
            -
               depth: 4
               value: 3.
               norm_class_idx: 3
            -
               depth: 4
               value: 8.
               norm_class_idx: 8
      -
         nodes:
            -
               depth: 0
               value: 2.
               norm_class_idx: 2
               splits:
                  - { var:11, quality:4.1650808715820312e+02,
                      le:1.2471655383706093e-02 }
            -
               depth: 1
               value: 1.
               norm_class_idx: 1
               splits:
                  - { var:12, quality:2.0366667175292969e+02,
                      le:8.4991110488772392e-03 }
            -
               depth: 2
               value: 1.
               norm_class_idx: 1
            -
               depth: 2
               value: 2.
               norm_class_idx: 2
            -
               depth: 1
               value: 2.
               norm_class_idx: 2
               splits:
                  - { var:8, quality:3.7400094604492188e+02,
                      le:4.1763566434383392e-02 }
            -
               depth: 2
               value: 3.
               norm_class_idx: 3
               splits:
                  - { var:2, quality:3.9116363525390625e+02,
                      le:6.9100156426429749e-02 }
            -
               depth: 3
               value: 3.
               norm_class_idx: 3
               splits:
                  - { var:10, quality:3.7669024658203125e+02,
                      le:1.6602970659732819e-02 }
            -
               depth: 4
               value: 8.
               norm_class_idx: 8
               splits:
                  - { var:2, quality:2.1357142639160156e+02,
                      le:1.1794191785156727e-02 }
            -
               depth: 5
               value: 3.
               norm_class_idx: 3
            -
               depth: 5
               value: 8.
               norm_class_idx: 8
            -
               depth: 4
               value: 3.
               norm_class_idx: 3
               splits:
                  - { var:20, quality:2.6608462524414062e+02,
                      le:1.3171590864658356e-02 }
            -
               depth: 5
               value: 0.
               norm_class_idx: 0
            -
               depth: 5
               value: 3.
               norm_class_idx: 3
            -
               depth: 3
               value: 5.
               norm_class_idx: 5
               splits:
                  - { var:10, quality:215., le:5.1260612905025482e-02 }
            -
               depth: 4
               value: 4.
               norm_class_idx: 4
            -
               depth: 4
               value: 5.
               norm_class_idx: 5
            -
               depth: 2
               value: 2.
               norm_class_idx: 2
               splits:
                  - { var:16, quality:2.7332165527343750e+02,
                      le:2.0080189406871796e-01 }
            -
               depth: 3
               value: 4.
               norm_class_idx: 4
               splits:
                  - { var:5, quality:2.0060595703125000e+02,
                      le:8.8329643011093140e-02 }
            -
               depth: 4
               value: 4.
               norm_class_idx: 4
               splits:
                  - { var:6, quality:1.2816497802734375e+02,
                      le:3.9836388081312180e-02 }
            -
               depth: 5
               value: 4.
               norm_class_idx: 4
            -
               depth: 5
               value: 7.
               norm_class_idx: 7
            -
               depth: 4
               value: 9.
               norm_class_idx: 9
               splits:
                  - { var:14, quality:1.1019740295410156e+02,
                      le:1.4429975301027298e-02 }
            -
               depth: 5
               value: 9.
               norm_class_idx: 9
            -
               depth: 5
               value: 4.
               norm_class_idx: 4
            -
               depth: 3
               value: 2.
               norm_class_idx: 2
               splits:
                  - { var:13, quality:2.3448445129394531e+02,
                      le:1.8820550292730331e-02 }
            -
               depth: 4
               value: 7.
               norm_class_idx: 7
               splits:
                  - { var:9, quality:1.3461701965332031e+02,
                      le:5.6019380688667297e-02 }
            -
               depth: 5
               value: 7.
               norm_class_idx: 7
            -
               depth: 5
               value: 4.
               norm_class_idx: 4
            -
               depth: 4
               value: 2.
               norm_class_idx: 2
               splits:
                  - { var:7, quality:1.7372727966308594e+02,
                      le:2.6940857991576195e-02 }
            -
               depth: 5
               value: 2.
               norm_class_idx: 2
            -
               depth: 5
               value: 2.
               norm_class_idx: 2
      -
         nodes:
            -
               depth: 0
               value: 2.
               norm_class_idx: 2
               splits:
                  - { var:11, quality:4.2583648681640625e+02,
                      le:1.3068117201328278e-02 }
            -
               depth: 1
               value: 1.
               norm_class_idx: 1
               splits:
                  - { var:14, quality:2.1350000000000000e+02,
                      le:9.8259404301643372e-02 }
            -
               depth: 2
               value: 9.
               norm_class_idx: 9
            -
               depth: 2
               value: 1.
               norm_class_idx: 1
            -
               depth: 1
               value: 2.
               norm_class_idx: 2
               splits:
                  - { var:13, quality:3.8065725708007812e+02,
                      le:7.4745044112205505e-02 }
            -
               depth: 2
               value: 2.
               norm_class_idx: 2
               splits:
                  - { var:0, quality:3.4858187866210938e+02,
                      le:4.5644892379641533e-03 }
            -
               depth: 3
               value: 2.
               norm_class_idx: 2
               splits:
                  - { var:11, quality:2.7940286254882812e+02,
                      le:5.5767301470041275e-02 }
            -
               depth: 4
               value: 2.
               norm_class_idx: 2
               splits:
                  - { var:8, quality:1.6939422607421875e+02,
                      le:7.3780328035354614e-02 }
            -
               depth: 5
               value: 7.
               norm_class_idx: 7
            -
               depth: 5
               value: 2.
               norm_class_idx: 2
            -
               depth: 4
               value: 0.
               norm_class_idx: 0
               splits:
                  - { var:22, quality:2.6871588134765625e+02,
                      le:1.8936088308691978e-03 }
            -
               depth: 5
               value: 6.
               norm_class_idx: 6
            -
               depth: 5
               value: 0.
               norm_class_idx: 0
            -
               depth: 3
               value: 5.
               norm_class_idx: 5
               splits:
                  - { var:8, quality:2.9046664428710938e+02,
                      le:3.3835813403129578e-02 }
            -
               depth: 4
               value: 5.
               norm_class_idx: 5
               splits:
                  - { var:1, quality:2.7362814331054688e+02,
                      le:1.9293857738375664e-02 }
            -
               depth: 5
               value: 3.
               norm_class_idx: 3
            -
               depth: 5
               value: 5.
               norm_class_idx: 5
            -
               depth: 4
               value: 4.
               norm_class_idx: 4
               splits:
                  - { var:10, quality:1.4241418457031250e+02,
                      le:4.0664799511432648e-02 }
            -
               depth: 5
               value: 7.
               norm_class_idx: 7
            -
               depth: 5
               value: 4.
               norm_class_idx: 4
            -
               depth: 2
               value: 8.
               norm_class_idx: 8
               splits:
                  - { var:5, quality:2.7670104980468750e+02,
                      le:1.9247833639383316e-02 }
            -
               depth: 3
               value: 8.
               norm_class_idx: 8
               splits:
                  - { var:9, quality:205., le:5.0549320876598358e-03 }
            -
               depth: 4
               value: 8.
               norm_class_idx: 8
            -
               depth: 4
               value: 3.
               norm_class_idx: 3
            -
               depth: 3
               value: 3.
               norm_class_idx: 3
               splits:
                  - { var:16, quality:9.7812377929687500e+01,
                      le:5.0176896154880524e-02 }
            -
               depth: 4
               value: 3.
               norm_class_idx: 3
               splits:
                  - { var:9, quality:94., le:2.1000249311327934e-02 }
            -
               depth: 5
               value: 3.
               norm_class_idx: 3
            -
               depth: 5
               value: 1.
               norm_class_idx: 1
            -
               depth: 4
               value: 8.
               norm_class_idx: 8
               splits:
                  - { var:22, quality:11., le:7.3169907554984093e-03 }
            -
               depth: 5
               value: 4.
               norm_class_idx: 4
            -
               depth: 5
               value: 8.
               norm_class_idx: 8
      -
         nodes:
            -
               depth: 0
               value: 9.
               norm_class_idx: 9
               splits:
                  - { var:19, quality:3.8108566284179688e+02,
                      le:5.9189435094594955e-02 }
            -
               depth: 1
               value: 9.
               norm_class_idx: 9
               splits:
                  - { var:12, quality:4.1624987792968750e+02,
                      le:8.4052486345171928e-03 }
            -
               depth: 2
               value: 1.
               norm_class_idx: 1
               splits:
                  - { var:10, quality:220., le:5.2990689873695374e-02 }
            -
               depth: 3
               value: 1.
               norm_class_idx: 1
            -
               depth: 3
               value: 4.
               norm_class_idx: 4
            -
               depth: 2
               value: 9.
               norm_class_idx: 9
               splits:
                  - { var:6, quality:3.2981677246093750e+02,
                      le:2.8458034619688988e-02 }
            -
               depth: 3
               value: 5.
               norm_class_idx: 5
               splits:
                  - { var:15, quality:2.6952648925781250e+02,
                      le:1.5644582454115152e-03 }
            -
               depth: 4
               value: 2.
               norm_class_idx: 2
               splits:
                  - { var:9, quality:1.6110353088378906e+02,
                      le:6.1273932456970215e-02 }
            -
               depth: 5
               value: 2.
               norm_class_idx: 2
            -
               depth: 5
               value: 4.
               norm_class_idx: 4
            -
               depth: 4
               value: 5.
               norm_class_idx: 5
               splits:
                  - { var:1, quality:1.8398638916015625e+02,
                      le:4.6959002502262592e-03 }
            -
               depth: 5
               value: 4.
               norm_class_idx: 4
            -
               depth: 5
               value: 5.
               norm_class_idx: 5
            -
               depth: 3
               value: 9.
               norm_class_idx: 9
               splits:
                  - { var:10, quality:3.3825225830078125e+02,
                      le:8.3884730935096741e-02 }
            -
               depth: 4
               value: 9.
               norm_class_idx: 9
               splits:
                  - { var:16, quality:2.4872607421875000e+02,
                      le:4.1115261614322662e-02 }
            -
               depth: 5
               value: 3.
               norm_class_idx: 3
            -
               depth: 5
               value: 9.
               norm_class_idx: 9
            -
               depth: 4
               value: 6.
               norm_class_idx: 6
               splits:
                  - { var:23, quality:2.5376702880859375e+02,
                      le:6.0648983344435692e-04 }
            -
               depth: 5
               value: 6.
               norm_class_idx: 6
            -
               depth: 5
               value: 0.
               norm_class_idx: 0
            -
               depth: 1
               value: 8.
               norm_class_idx: 8
               splits:
                  - { var:18, quality:3.2724365234375000e+02,
                      le:4.2764574289321899e-02 }
            -
               depth: 2
               value: 8.
               norm_class_idx: 8
               splits:
                  - { var:17, quality:223., le:1.5199663117527962e-02 }
            -
               depth: 3
               value: 8.
               norm_class_idx: 8
            -
               depth: 3
               value: 3.
               norm_class_idx: 3
            -
               depth: 2
               value: 3.
               norm_class_idx: 3
               splits:
                  - { var:19, quality:1.3122308349609375e+02,
                      le:7.0094302296638489e-02 }
            -
               depth: 3
               value: 4.
               norm_class_idx: 4
               splits:
                  - { var:23, quality:2.0777778625488281e+01,
                      le:8.2228593528270721e-03 }
            -
               depth: 4
               value: 4.
               norm_class_idx: 4
               splits:
                  - { var:9, quality:1.6666666030883789e+01,
                      le:3.3388040959835052e-02 }
            -
               depth: 5
               value: 3.
               norm_class_idx: 3
            -
               depth: 5
               value: 4.
               norm_class_idx: 4
            -
               depth: 4
               value: 5.
               norm_class_idx: 5
            -
               depth: 3
               value: 3.
               norm_class_idx: 3
               splits:
                  - { var:3, quality:1.2938345336914062e+02,
                      le:5.1632054150104523e-02 }
            -
               depth: 4
               value: 3.
               norm_class_idx: 3
               splits:
                  - { var:3, quality:1.2659999847412109e+02,
                      le:3.1442970037460327e-02 }
            -
               depth: 5
               value: 3.
               norm_class_idx: 3
            -
               depth: 5
               value: 3.
               norm_class_idx: 3
            -
               depth: 4
               value: 5.
               norm_class_idx: 5
      -
         nodes:
            -
               depth: 0
               value: 5.
               norm_class_idx: 5
               splits:
                  - { var:14, quality:4.2739279174804688e+02,
                      le:1.3664463162422180e-01 }
            -
               depth: 1
               value: 5.
               norm_class_idx: 5
               splits:
                  - { var:9, quality:3.9908660888671875e+02,
                      le:3.7048561498522758e-03 }
            -
               depth: 2
               value: 8.
               norm_class_idx: 8
               splits:
                  - { var:10, quality:1.9984616088867188e+02,
                      le:1.9561303779482841e-02 }
            -
               depth: 3
               value: 8.
               norm_class_idx: 8
            -
               depth: 3
               value: 6.
               norm_class_idx: 6
               splits:
                  - { var:22, quality:9.3333330154418945e+00,
                      le:1.6737347468733788e-03 }
            -
               depth: 4
               value: 6.
               norm_class_idx: 6
            -
               depth: 4
               value: 3.
               norm_class_idx: 3
            -
               depth: 2
               value: 5.
               norm_class_idx: 5
               splits:
                  - { var:8, quality:3.5938159179687500e+02,
                      le:4.0129896253347397e-02 }
            -
               depth: 3
               value: 5.
               norm_class_idx: 5
               splits:
                  - { var:6, quality:3.9543273925781250e+02,
                      le:2.8693066909909248e-02 }
            -
               depth: 4
               value: 5.
               norm_class_idx: 5
               splits:
                  - { var:18, quality:2.3815133666992188e+02,
                      le:2.2282045334577560e-02 }
            -
               depth: 5
               value: 1.
               norm_class_idx: 1
            -
               depth: 5
               value: 5.
               norm_class_idx: 5
            -
               depth: 4
               value: 0.
               norm_class_idx: 0
               splits:
                  - { var:13, quality:2.9696667480468750e+02,
                      le:3.3248484134674072e-02 }
            -
               depth: 5
               value: 0.
               norm_class_idx: 0
            -
               depth: 5
               value: 3.
               norm_class_idx: 3
            -
               depth: 3
               value: 2.
               norm_class_idx: 2
               splits:
                  - { var:17, quality:2.8985345458984375e+02,
                      le:5.1827192306518555e-02 }
            -
               depth: 4
               value: 2.
               norm_class_idx: 2
               splits:
                  - { var:13, quality:2.1469297790527344e+02,
                      le:1.1586552485823631e-02 }
            -
               depth: 5
               value: 7.
               norm_class_idx: 7
            -
               depth: 5
               value: 2.
               norm_class_idx: 2
            -
               depth: 4
               value: 4.
               norm_class_idx: 4
               splits:
                  - { var:7, quality:2.2515803527832031e+02,
                      le:1.5863791108131409e-02 }
            -
               depth: 5
               value: 4.
               norm_class_idx: 4
            -
               depth: 5
               value: 9.
               norm_class_idx: 9
            -
               depth: 1
               value: 1.
               norm_class_idx: 1
               splits:
                  - { var:11, quality:219., le:2.1796882152557373e-02 }
            -
               depth: 2
               value: 1.
               norm_class_idx: 1
            -
               depth: 2
               value: 3.
               norm_class_idx: 3
      -
         nodes:
            -
               depth: 0
               value: 2.
               norm_class_idx: 2
               splits:
                  - { var:16, quality:3.9436318969726562e+02,
                      le:1.8193101510405540e-02 }
            -
               depth: 1
               value: 1.
               norm_class_idx: 1
               splits:
                  - { var:1, quality:3.5336676025390625e+02,
                      le:2.2982591763138771e-03 }
            -
               depth: 2
               value: 1.
               norm_class_idx: 1
               splits:
                  - { var:15, quality:207., le:1.7530095577239990e-01 }
            -
               depth: 3
               value: 1.
               norm_class_idx: 1
            -
               depth: 3
               value: 1.
               norm_class_idx: 1
            -
               depth: 2
               value: 3.
               norm_class_idx: 3
               splits:
                  - { var:2, quality:1.7972677612304688e+02,
                      le:2.8787877410650253e-02 }
            -
               depth: 3
               value: 3.
               norm_class_idx: 3
               splits:
                  - { var:1, quality:171., le:2.2745549678802490e-02 }
            -
               depth: 4
               value: 3.
               norm_class_idx: 3
            -
               depth: 4
               value: 1.
               norm_class_idx: 1
            -
               depth: 3
               value: 0.
               norm_class_idx: 0
               splits:
                  - { var:9, quality:25., le:6.1321496963500977e-02 }
            -
               depth: 4
               value: 5.
               norm_class_idx: 5
            -
               depth: 4
               value: 0.
