%YAML:1.0
---
opencv_ml_rtrees:
   format: 3
   is_classifier: 1
   var_all: 25
   var_count: 24
   ord_var_count: 24
   cat_var_count: 1
   training_params:
      use_surrogates: 0
      max_categories: 10
      regression_accuracy: 0.
      max_depth: 5
      min_sample_count: 10
      cross_validation_folds: 0
      nactive_vars: 0
   global_var_idx: 1
   var_idx: [ 0, 1, 2, 3, 4, 5, 6, 7, 8, 9, 10, 11, 12, 13, 14, 15, 16,
       17, 18, 19, 20, 21, 22, 23 ]
   var_type: [ 0, 0, 0, 0, 0, 0, 0, 0, 0, 0, 0, 0, 0, 0, 0, 0, 0, 0, 0,
       0, 0, 0, 0, 0, 1 ]
   cat_ofs: [ 0, 0, 0, 0, 0, 0, 0, 0, 0, 0, 0, 0, 0, 0, 0, 0, 0, 0, 0, 0,
       0, 0, 0, 0, 0, 0, 0, 0, 0, 0, 0, 0, 0, 0, 0, 0, 0, 0, 0, 0, 0, 0,
       0, 0, 0, 0, 0, 0 ]
   class_labels: [ 0, 1, 2, 3, 4, 5, 6, 7, 8, 9 ]
   missing_subst: [ 0., 0., 0., 0., 0., 0., 0., 0., 0., 0., 0., 0., 0.,
       0., 0., 0., 0., 0., 0., 0., 0., 0., 0., 0., 0. ]
   oob_error: 0.
   ntrees: 50
   trees:
      -
         nodes:
            -
               depth: 0
               value: 7.
               norm_class_idx: 7
               splits:
                  - { var:12, quality:4.2615072631835938e+02,
                      le:6.0155820101499557e-03 }
            -
               depth: 1
               value: 1.
               norm_class_idx: 1
            -
               depth: 1
               value: 7.
               norm_class_idx: 7
               splits:
                  - { var:9, quality:4.3677252197265625e+02,
                      le:3.5011987201869488e-03 }
            -
               depth: 2
               value: 8.
               norm_class_idx: 8
               splits:
                  - { var:17, quality:223., le:4.7553226351737976e-02 }
            -
               depth: 3
               value: 8.
               norm_class_idx: 8
            -
               depth: 3
               value: 6.
               norm_class_idx: 6
            -
               depth: 2
               value: 7.
               norm_class_idx: 7
               splits:
                  - { var:16, quality:3.7599139404296875e+02,
                      le:3.7084065377712250e-02 }
            -
               depth: 3
               value: 3.
               norm_class_idx: 3
               splits:
                  - { var:9, quality:2.0394313049316406e+02,
                      le:3.2738715410232544e-02 }
            -
               depth: 4
               value: 3.
               norm_class_idx: 3
               splits:
                  - { var:8, quality:2.1803941345214844e+02,
                      le:5.6300037540495396e-03 }
            -
               depth: 5
               value: 5.
               norm_class_idx: 5
            -
               depth: 5
               value: 3.
               norm_class_idx: 3
            -
               depth: 4
               value: 0.
               norm_class_idx: 0
               splits:
                  - { var:20, quality:2.8571428298950195e+01,
                      le:1.2741174548864365e-02 }
            -
               depth: 5
               value: 0.
               norm_class_idx: 0
            -
               depth: 5
               value: 5.
               norm_class_idx: 5
            -
               depth: 3
               value: 7.
               norm_class_idx: 7
               splits:
                  - { var:10, quality:3.7783557128906250e+02,
                      le:6.7177854478359222e-02 }
            -
               depth: 4
               value: 7.
               norm_class_idx: 7
               splits:
                  - { var:7, quality:3.1216952514648438e+02,
                      le:1.8190726637840271e-02 }
            -
               depth: 5
               value: 4.
               norm_class_idx: 4
            -
               depth: 5
               value: 7.
               norm_class_idx: 7
            -
               depth: 4
               value: 6.
               norm_class_idx: 6
               splits:
                  - { var:18, quality:3.0047760009765625e+02,
                      le:2.5916442275047302e-02 }
            -
               depth: 5
               value: 0.
               norm_class_idx: 0
            -
               depth: 5
               value: 6.
               norm_class_idx: 6
      -
         nodes:
            -
               depth: 0
               value: 6.
               norm_class_idx: 6
               splits:
                  - { var:11, quality:4.2875640869140625e+02,
                      le:1.1960995383560658e-02 }
            -
               depth: 1
               value: 1.
               norm_class_idx: 1
            -
               depth: 1
               value: 6.
               norm_class_idx: 6
               splits:
                  - { var:13, quality:3.7957763671875000e+02,
                      le:8.0041237175464630e-02 }
            -
               depth: 2
               value: 6.
               norm_class_idx: 6
               splits:
                  - { var:1, quality:3.6726663208007812e+02,
                      le:1.7877252772450447e-02 }
            -
               depth: 3
               value: 6.
               norm_class_idx: 6
               splits:
                  - { var:7, quality:2.9573483276367188e+02,
                      le:2.1857675164937973e-02 }
            -
               depth: 4
               value: 6.
               norm_class_idx: 6
               splits:
                  - { var:8, quality:2.7105923461914062e+02,
                      le:7.2372004389762878e-02 }
            -
               depth: 5
               value: 6.
               norm_class_idx: 6
            -
               depth: 5
               value: 2.
               norm_class_idx: 2
            -
               depth: 4
               value: 9.
               norm_class_idx: 9
               splits:
                  - { var:10, quality:2.8291549682617188e+02,
                      le:8.9258752763271332e-02 }
            -
               depth: 5
               value: 9.
               norm_class_idx: 9
            -
               depth: 5
               value: 0.
               norm_class_idx: 0
            -
               depth: 3
               value: 5.
               norm_class_idx: 5
               splits:
                  - { var:2, quality:2.9445852661132812e+02,
                      le:6.9661051034927368e-02 }
            -
               depth: 4
               value: 4.
               norm_class_idx: 4
               splits:
                  - { var:17, quality:1.6901374816894531e+02,
                      le:9.9874928593635559e-02 }
            -
               depth: 5
               value: 4.
               norm_class_idx: 4
            -
               depth: 5
               value: 0.
               norm_class_idx: 0
            -
               depth: 4
               value: 5.
               norm_class_idx: 5
               splits:
                  - { var:23, quality:2.1623364257812500e+02,
                      le:8.0936541780829430e-04 }
            -
               depth: 5
               value: 4.
               norm_class_idx: 4
            -
               depth: 5
               value: 5.
               norm_class_idx: 5
            -
               depth: 2
               value: 8.
               norm_class_idx: 8
               splits:
                  - { var:3, quality:2.5349073791503906e+02,
                      le:1.9187975674867630e-02 }
            -
               depth: 3
               value: 3.
               norm_class_idx: 3
            -
               depth: 3
               value: 8.
               norm_class_idx: 8
               splits:
                  - { var:21, quality:211., le:5.2783444523811340e-02 }
            -
               depth: 4
               value: 8.
               norm_class_idx: 8
            -
               depth: 4
               value: 3.
               norm_class_idx: 3
               splits:
                  - { var:17, quality:1.2666666984558105e+01,
                      le:7.3670423589646816e-03 }
            -
               depth: 5
               value: 3.
               norm_class_idx: 3
            -
               depth: 5
               value: 1.
               norm_class_idx: 1
      -
         nodes:
            -
               depth: 0
               value: 6.
               norm_class_idx: 6
               splits:
                  - { var:13, quality:4.0166531372070312e+02,
                      le:8.0041237175464630e-02 }
            -
               depth: 1
               value: 6.
               norm_class_idx: 6
               splits:
                  - { var:14, quality:3.9926467895507812e+02,
                      le:1.3618923723697662e-01 }
            -
               depth: 2
               value: 6.
               norm_class_idx: 6
               splits:
                  - { var:5, quality:3.3879907226562500e+02,
                      le:2.9866900295019150e-02 }
            -
               depth: 3
               value: 5.
               norm_class_idx: 5
               splits:
                  - { var:6, quality:1.8023674011230469e+02,
                      le:4.2915668338537216e-02 }
            -
               depth: 4
               value: 5.
               norm_class_idx: 5
               splits:
                  - { var:10, quality:2.3079661560058594e+02,
                      le:6.4023166894912720e-02 }
            -
               depth: 5
               value: 4.
               norm_class_idx: 4
            -
               depth: 5
               value: 5.
               norm_class_idx: 5
            -
               depth: 4
               value: 3.
               norm_class_idx: 3
               splits:
                  - { var:12, quality:2.9375000000000000e+01,
                      le:5.4686695337295532e-02 }
            -
               depth: 5
               value: 9.
               norm_class_idx: 9
            -
               depth: 5
               value: 3.
               norm_class_idx: 3
            -
               depth: 3
               value: 6.
               norm_class_idx: 6
               splits:
                  - { var:3, quality:2.7747210693359375e+02,
                      le:3.1810730695724487e-02 }
            -
               depth: 4
               value: 0.
               norm_class_idx: 0
               splits:
                  - { var:20, quality:2.1934413146972656e+02,
                      le:1.3025075197219849e-02 }
            -
               depth: 5
               value: 0.
               norm_class_idx: 0
            -
               depth: 5
               value: 3.
               norm_class_idx: 3
            -
               depth: 4
               value: 6.
               norm_class_idx: 6
               splits:
                  - { var:10, quality:3.4202062988281250e+02,
                      le:8.8791131973266602e-02 }
            -
               depth: 5
               value: 4.
               norm_class_idx: 4
            -
               depth: 5
               value: 6.
               norm_class_idx: 6
            -
               depth: 2
               value: 1.
               norm_class_idx: 1
               splits:
                  - { var:19, quality:202., le:1.8627680838108063e-02 }
            -
               depth: 3
               value: 1.
               norm_class_idx: 1
            -
               depth: 3
               value: 3.
               norm_class_idx: 3
            -
               depth: 1
               value: 8.
               norm_class_idx: 8
               splits:
                  - { var:9, quality:3.1958065795898438e+02,
                      le:5.2494029514491558e-03 }
            -
               depth: 2
               value: 8.
               norm_class_idx: 8
            -
               depth: 2
               value: 3.
               norm_class_idx: 3
               splits:
                  - { var:2, quality:8.7199996948242188e+01,
                      le:3.2629005610942841e-02 }
            -
               depth: 3
               value: 3.
               norm_class_idx: 3
               splits:
                  - { var:2, quality:8.5384613037109375e+01,
                      le:1.0495666414499283e-02 }
            -
               depth: 4
               value: 3.
               norm_class_idx: 3
               splits:
                  - { var:0, quality:13., le:1.5811055898666382e-02 }
            -
               depth: 5
               value: 1.
               norm_class_idx: 1
            -
               depth: 5
               value: 3.
               norm_class_idx: 3
            -
               depth: 4
               value: 3.
               norm_class_idx: 3
            -
               depth: 3
               value: 4.
               norm_class_idx: 4
      -
         nodes:
            -
               depth: 0
               value: 7.
               norm_class_idx: 7
               splits:
                  - { var:11, quality:4.0381866455078125e+02,
                      le:9.4192782416939735e-03 }
            -
               depth: 1
               value: 1.
               norm_class_idx: 1
               splits:
                  - { var:22, quality:191., le:1.2871702015399933e-01 }
            -
               depth: 2
               value: 9.
               norm_class_idx: 9
            -
               depth: 2
               value: 1.
               norm_class_idx: 1
            -
               depth: 1
               value: 7.
               norm_class_idx: 7
               splits:
                  - { var:10, quality:4.1374963378906250e+02,
                      le:1.6695411875844002e-02 }
            -
               depth: 2
               value: 8.
               norm_class_idx: 8
               splits:
                  - { var:8, quality:2.5205555725097656e+02,
                      le:7.5845113024115562e-03 }
            -
               depth: 3
               value: 8.
               norm_class_idx: 8
            -
               depth: 3
               value: 2.
               norm_class_idx: 2
               splits:
                  - { var:8, quality:3.2571430206298828e+01,
                      le:7.4352264404296875e-02 }
            -
               depth: 4
               value: 3.
               norm_class_idx: 3
            -
               depth: 4
               value: 2.
               norm_class_idx: 2
            -
               depth: 2
               value: 7.
               norm_class_idx: 7
               splits:
                  - { var:8, quality:3.5195214843750000e+02,
                      le:5.7969804853200912e-02 }
            -
               depth: 3
               value: 5.
               norm_class_idx: 5
               splits:
                  - { var:2, quality:3.8423266601562500e+02,
                      le:7.0171847939491272e-02 }
            -
               depth: 4
               value: 3.
               norm_class_idx: 3
               splits:
                  - { var:21, quality:2.9262487792968750e+02,
                      le:3.0876701697707176e-02 }
            -
               depth: 5
               value: 0.
               norm_class_idx: 0
            -
               depth: 5
               value: 3.
               norm_class_idx: 3
            -
               depth: 4
               value: 5.
               norm_class_idx: 5
            -
               depth: 3
               value: 2.
               norm_class_idx: 2
               splits:
                  - { var:1, quality:2.7932568359375000e+02,
                      le:1.9936161115765572e-02 }
            -
               depth: 4
               value: 2.
               norm_class_idx: 2
               splits:
                  - { var:8, quality:1.9004226684570312e+02,
                      le:7.3808349668979645e-02 }
            -
               depth: 5
               value: 4.
               norm_class_idx: 4
            -
               depth: 5
               value: 2.
               norm_class_idx: 2
            -
               depth: 4
               value: 4.
               norm_class_idx: 4
      -
         nodes:
            -
               depth: 0
               value: 7.
               norm_class_idx: 7
               splits:
                  - { var:12, quality:4.3681182861328125e+02,
                      le:6.0155820101499557e-03 }
            -
               depth: 1
               value: 1.
               norm_class_idx: 1
            -
               depth: 1
               value: 7.
               norm_class_idx: 7
               splits:
                  - { var:14, quality:3.8936892700195312e+02,
                      le:4.7964230179786682e-02 }
            -
               depth: 2
               value: 7.
               norm_class_idx: 7
               splits:
                  - { var:8, quality:3.5077658081054688e+02,
                      le:6.0532137751579285e-02 }
            -
               depth: 3
               value: 0.
               norm_class_idx: 0
               splits:
                  - { var:23, quality:2.8435418701171875e+02,
                      le:4.7738399007357657e-04 }
            -
               depth: 4
               value: 6.
               norm_class_idx: 6
               splits:
                  - { var:15, quality:2.1742384338378906e+02,
                      le:9.0957265347242355e-03 }
            -
               depth: 5
               value: 6.
               norm_class_idx: 6
            -
               depth: 5
               value: 7.
               norm_class_idx: 7
            -
               depth: 4
               value: 5.
               norm_class_idx: 5
               splits:
                  - { var:6, quality:3.0684704589843750e+02,
                      le:3.3239070326089859e-02 }
            -
               depth: 5
               value: 5.
               norm_class_idx: 5
            -
               depth: 5
               value: 0.
               norm_class_idx: 0
            -
               depth: 3
               value: 2.
               norm_class_idx: 2
               splits:
                  - { var:0, quality:3.1784066772460938e+02,
                      le:1.2236168608069420e-02 }
            -
               depth: 4
               value: 2.
               norm_class_idx: 2
               splits:
                  - { var:17, quality:2.6731845092773438e+02,
                      le:4.7009140253067017e-02 }
            -
               depth: 5
               value: 2.
               norm_class_idx: 2
            -
               depth: 5
               value: 9.
               norm_class_idx: 9
            -
               depth: 4
               value: 4.
               norm_class_idx: 4
            -
               depth: 2
               value: 8.
               norm_class_idx: 8
               splits:
                  - { var:8, quality:3.2805041503906250e+02,
                      le:3.5952138714492321e-03 }
            -
               depth: 3
               value: 8.
               norm_class_idx: 8
            -
               depth: 3
               value: 3.
               norm_class_idx: 3
               splits:
                  - { var:1, quality:118., le:4.4355220161378384e-03 }
            -
               depth: 4
               value: 7.
               norm_class_idx: 7
            -
               depth: 4
               value: 3.
               norm_class_idx: 3
      -
         nodes:
            -
               depth: 0
               value: 4.
               norm_class_idx: 4
               splits:
                  - { var:14, quality:3.9905609130859375e+02,
                      le:4.8330523073673248e-02 }
            -
               depth: 1
               value: 4.
               norm_class_idx: 4
               splits:
                  - { var:6, quality:3.2961117553710938e+02,
                      le:2.7910675853490829e-02 }
            -
               depth: 2
               value: 5.
               norm_class_idx: 5
               splits:
                  - { var:15, quality:2.8125381469726562e+02,
                      le:4.2695002630352974e-03 }
            -
               depth: 3
               value: 4.
               norm_class_idx: 4
               splits:
                  - { var:0, quality:2.0065040588378906e+02,
                      le:5.6164925917983055e-03 }
            -
               depth: 4
               value: 2.
               norm_class_idx: 2
            -
               depth: 4
               value: 4.
               norm_class_idx: 4
               splits:
                  - { var:17, quality:1.0985379791259766e+02,
                      le:3.5988103598356247e-02 }
            -
               depth: 5
               value: 7.
               norm_class_idx: 7
            -
               depth: 5
               value: 4.
               norm_class_idx: 4
            -
               depth: 3
               value: 5.
               norm_class_idx: 5
               splits:
                  - { var:1, quality:2.0323237609863281e+02,
                      le:1.3610605150461197e-02 }
            -
               depth: 4
               value: 3.
               norm_class_idx: 3
               splits:
                  - { var:1, quality:1.4857142448425293e+01,
                      le:1.0377543047070503e-02 }
            -
               depth: 5
               value: 4.
               norm_class_idx: 4
            -
               depth: 5
               value: 3.
               norm_class_idx: 3
            -
               depth: 4
               value: 5.
               norm_class_idx: 5
               splits:
                  - { var:10, quality:197., le:3.6546550691127777e-02 }
            -
               depth: 5
               value: 3.
               norm_class_idx: 3
            -
               depth: 5
               value: 5.
               norm_class_idx: 5
            -
               depth: 2
               value: 9.
               norm_class_idx: 9
               splits:
                  - { var:10, quality:3.3419073486328125e+02,
                      le:9.0595431625843048e-02 }
            -
               depth: 3
               value: 9.
               norm_class_idx: 9
               splits:
                  - { var:16, quality:2.6249185180664062e+02,
                      le:5.0154671072959900e-02 }
            -
               depth: 4
               value: 3.
               norm_class_idx: 3
               splits:
                  - { var:1, quality:1.5610667419433594e+02,
                      le:2.4067830294370651e-02 }
            -
               depth: 5
               value: 3.
               norm_class_idx: 3
            -
               depth: 5
               value: 0.
               norm_class_idx: 0
            -
               depth: 4
               value: 9.
               norm_class_idx: 9
               splits:
                  - { var:23, quality:2.6719561767578125e+02,
                      le:1.9759051792789251e-04 }
            -
               depth: 5
               value: 7.
               norm_class_idx: 7
            -
               depth: 5
               value: 9.
               norm_class_idx: 9
            -
               depth: 3
               value: 6.
               norm_class_idx: 6
               splits:
                  - { var:14, quality:2.3735969543457031e+02,
                      le:5.6580668315291405e-03 }
            -
               depth: 4
               value: 6.
               norm_class_idx: 6
               splits:
                  - { var:23, quality:157., le:6.0464959824457765e-04 }
            -
               depth: 5
               value: 6.
               norm_class_idx: 6
            -
               depth: 5
               value: 0.
               norm_class_idx: 0
            -
               depth: 4
               value: 0.
               norm_class_idx: 0
               splits:
                  - { var:5, quality:1.5268705749511719e+02,
                      le:6.0170598328113556e-02 }
            -
               depth: 5
               value: 6.
               norm_class_idx: 6
            -
               depth: 5
               value: 0.
               norm_class_idx: 0
            -
               depth: 1
               value: 8.
               norm_class_idx: 8
               splits:
                  - { var:10, quality:3.0022628784179688e+02,
                      le:1.5825396403670311e-02 }
            -
               depth: 2
               value: 8.
               norm_class_idx: 8
               splits:
                  - { var:23, quality:390., le:1.5790764242410660e-02 }
            -
               depth: 3
               value: 8.
               norm_class_idx: 8
            -
               depth: 3
               value: 1.
               norm_class_idx: 1
            -
               depth: 2
               value: 3.
               norm_class_idx: 3
               splits:
                  - { var:19, quality:1.3444700622558594e+02,
                      le:1.1804193258285522e-02 }
            -
               depth: 3
               value: 1.
               norm_class_idx: 1
               splits:
                  - { var:20, quality:23., le:2.8716286644339561e-02 }
            -
               depth: 4
               value: 1.
               norm_class_idx: 1
            -
               depth: 4
               value: 3.
               norm_class_idx: 3
            -
               depth: 3
               value: 3.
               norm_class_idx: 3
               splits:
                  - { var:17, quality:1.1801680755615234e+02,
                      le:2.5460515171289444e-02 }
            -
               depth: 4
               value: 3.
               norm_class_idx: 3
               splits:
                  - { var:0, quality:119., le:2.5794114917516708e-03 }
            -
               depth: 5
               value: 8.
               norm_class_idx: 8
            -
               depth: 5
               value: 3.
               norm_class_idx: 3
            -
               depth: 4
               value: 1.
               norm_class_idx: 1
      -
         nodes:
            -
               depth: 0
               value: 0.
               norm_class_idx: 0
               splits:
                  - { var:20, quality:3.8446551513671875e+02,
                      le:6.2756486237049103e-02 }
            -
               depth: 1
               value: 0.
               norm_class_idx: 0
               splits:
                  - { var:6, quality:3.5370565795898438e+02,
                      le:1.0050692409276962e-01 }
            -
               depth: 2
               value: 0.
               norm_class_idx: 0
               splits:
                  - { var:8, quality:3.4247076416015625e+02,
                      le:6.0532137751579285e-02 }
            -
               depth: 3
               value: 0.
               norm_class_idx: 0
               splits:
                  - { var:5, quality:3.2770867919921875e+02,
                      le:2.9866900295019150e-02 }
            -
               depth: 4
               value: 5.
               norm_class_idx: 5
               splits:
                  - { var:2, quality:2.1746153259277344e+02,
                      le:3.9673484861850739e-02 }
            -
               depth: 5
               value: 3.
               norm_class_idx: 3
            -
               depth: 5
               value: 5.
               norm_class_idx: 5
            -
               depth: 4
               value: 0.
               norm_class_idx: 0
               splits:
                  - { var:22, quality:2.6247866821289062e+02,
                      le:2.0559127442538738e-03 }
            -
               depth: 5
               value: 6.
               norm_class_idx: 6
            -
               depth: 5
               value: 0.
               norm_class_idx: 0
            -
               depth: 3
               value: 4.
               norm_class_idx: 4
               splits:
                  - { var:22, quality:2.3430131530761719e+02,
                      le:4.5912479981780052e-03 }
            -
               depth: 4
               value: 2.
               norm_class_idx: 2
               splits:
                  - { var:5, quality:2.5302438354492188e+02,
                      le:9.3460537493228912e-02 }
            -
               depth: 5
               value: 2.
               norm_class_idx: 2
            -
               depth: 5
               value: 9.
               norm_class_idx: 9
            -
               depth: 4
               value: 4.
               norm_class_idx: 4
               splits:
                  - { var:16, quality:92., le:1.9502851366996765e-01 }
            -
               depth: 5
               value: 4.
               norm_class_idx: 4
            -
               depth: 5
               value: 2.
               norm_class_idx: 2
            -
               depth: 2
               value: 1.
               norm_class_idx: 1
               splits:
                  - { var:1, quality:2.4477359008789062e+02,
                      le:5.0689219497144222e-03 }
            -
               depth: 3
               value: 1.
               norm_class_idx: 1
               splits:
                  - { var:3, quality:212., le:2.0661605522036552e-02 }
            -
               depth: 4
               value: 1.
               norm_class_idx: 1
            -
               depth: 4
               value: 2.
               norm_class_idx: 2
            -
               depth: 3
               value: 3.
               norm_class_idx: 3
            -
               depth: 1
               value: 8.
               norm_class_idx: 8
               splits:
                  - { var:16, quality:2.6650747680664062e+02,
                      le:8.8368490338325500e-02 }
            -
               depth: 2
               value: 3.
               norm_class_idx: 3
               splits:
                  - { var:9, quality:6.3799999237060547e+01,
                      le:2.2148013114929199e-02 }
            -
               depth: 3
               value: 3.
               norm_class_idx: 3
            -
               depth: 3
               value: 1.
               norm_class_idx: 1
            -
               depth: 2
               value: 8.
               norm_class_idx: 8
      -
         nodes:
            -
               depth: 0
               value: 4.
               norm_class_idx: 4
               splits:
                  - { var:2, quality:3.8409649658203125e+02,
                      le:7.0257529616355896e-02 }
            -
               depth: 1
               value: 3.
               norm_class_idx: 3
               splits:
                  - { var:14, quality:3.8084902954101562e+02,
                      le:4.4260494410991669e-02 }
            -
               depth: 2
               value: 4.
               norm_class_idx: 4
               splits:
                  - { var:16, quality:2.8656561279296875e+02,
                      le:3.7287853658199310e-02 }
            -
               depth: 3
               value: 3.
               norm_class_idx: 3
               splits:
                  - { var:1, quality:1.2566458892822266e+02,
                      le:2.3875826969742775e-02 }
            -
               depth: 4
               value: 3.
               norm_class_idx: 3
               splits:
                  - { var:16, quality:1.0901834869384766e+02,
                      le:4.3737175874412060e-03 }
            -
               depth: 5
               value: 1.
               norm_class_idx: 1
            -
               depth: 5
               value: 3.
               norm_class_idx: 3
            -
               depth: 4
               value: 0.
               norm_class_idx: 0
               splits:
                  - { var:9, quality:2.4666666030883789e+01,
                      le:5.8536961674690247e-02 }
            -
               depth: 5
               value: 1.
               norm_class_idx: 1
            -
               depth: 5
               value: 0.
               norm_class_idx: 0
            -
               depth: 3
               value: 4.
               norm_class_idx: 4
               splits:
                  - { var:10, quality:3.6941699218750000e+02,
                      le:8.9340470731258392e-02 }
            -
               depth: 4
               value: 4.
               norm_class_idx: 4
               splits:
                  - { var:1, quality:3.0618078613281250e+02,
                      le:2.0664244890213013e-02 }
            -
               depth: 5
               value: 9.
               norm_class_idx: 9
            -
               depth: 5
               value: 4.
               norm_class_idx: 4
            -
               depth: 4
               value: 6.
               norm_class_idx: 6
               splits:
                  - { var:14, quality:2.4243511962890625e+02,
                      le:5.9399283491075039e-03 }
            -
               depth: 5
               value: 6.
               norm_class_idx: 6
            -
               depth: 5
               value: 0.
               norm_class_idx: 0
            -
               depth: 2
               value: 8.
               norm_class_idx: 8
               splits:
                  - { var:12, quality:3.7834625244140625e+02,
                      le:6.0155820101499557e-03 }
            -
               depth: 3
               value: 1.
               norm_class_idx: 1
            -
               depth: 3
               value: 8.
               norm_class_idx: 8
               splits:
                  - { var:0, quality:3.2360974121093750e+02,
                      le:4.5524812303483486e-03 }
            -
               depth: 4
               value: 8.
               norm_class_idx: 8
               splits:
                  - { var:9, quality:2.3769302368164062e+02,
                      le:6.4584575593471527e-03 }
            -
               depth: 5
               value: 8.
               norm_class_idx: 8
            -
               depth: 5
               value: 3.
               norm_class_idx: 3
            -
               depth: 4
               value: 3.
               norm_class_idx: 3
            -
               depth: 1
               value: 5.
               norm_class_idx: 5
               splits:
                  - { var:15, quality:2.6344824218750000e+02,
                      le:1.3021784834563732e-03 }
            -
               depth: 2
               value: 2.
               norm_class_idx: 2
               splits:
                  - { var:3, quality:6.5135589599609375e+01,
                      le:6.4340859651565552e-02 }
            -
               depth: 3
               value: 4.
               norm_class_idx: 4
            -
               depth: 3
               value: 2.
               norm_class_idx: 2
               splits:
                  - { var:0, quality:59., le:9.6469288691878319e-03 }
            -
               depth: 4
               value: 2.
               norm_class_idx: 2
            -
               depth: 4
               value: 4.
               norm_class_idx: 4
            -
               depth: 2
               value: 5.
               norm_class_idx: 5
               splits:
                  - { var:8, quality:2.2400904846191406e+02,
                      le:5.6331388652324677e-02 }
            -
               depth: 3
               value: 5.
               norm_class_idx: 5
               splits:
                  - { var:23, quality:221., le:9.3971361638978124e-04 }
            -
               depth: 4
               value: 0.
               norm_class_idx: 0
            -
               depth: 4
               value: 5.
               norm_class_idx: 5
            -
               depth: 3
               value: 4.
               norm_class_idx: 4
      -
         nodes:
            -
               depth: 0
               value: 1.
               norm_class_idx: 1
               splits:
                  - { var:16, quality:4.1578402709960938e+02,
                      le:2.7637008577585220e-02 }
            -
               depth: 1
               value: 1.
               norm_class_idx: 1
               splits:
                  - { var:2, quality:4.0053317260742188e+02,
                      le:7.4583031237125397e-03 }
            -
               depth: 2
               value: 1.
               norm_class_idx: 1
               splits:
                  - { var:0, quality:225., le:2.3394157178699970e-03 }
            -
               depth: 3
               value: 1.
               norm_class_idx: 1
            -
               depth: 3
               value: 9.
               norm_class_idx: 9
            -
               depth: 2
               value: 3.
               norm_class_idx: 3
               splits:
                  - { var:2, quality:1.9557991027832031e+02,
                      le:3.0579043552279472e-02 }
            -
               depth: 3
               value: 3.
               norm_class_idx: 3
               splits:
                  - { var:10, quality:193., le:1.4233905822038651e-02 }
            -
               depth: 4
               value: 1.
               norm_class_idx: 1
            -
               depth: 4
               value: 3.
               norm_class_idx: 3
            -
               depth: 3
               value: 5.
               norm_class_idx: 5
               splits:
                  - { var:8, quality:13., le:1.2682585045695305e-02 }
            -
               depth: 4
               value: 5.
               norm_class_idx: 5
            -
               depth: 4
               value: 0.
               norm_class_idx: 0
            -
               depth: 1
               value: 8.
               norm_class_idx: 8
               splits:
                  - { var:17, quality:4.2485647583007812e+02,
                      le:1.0004373267292976e-02 }
            -
               depth: 2
               value: 8.
               norm_class_idx: 8
               splits:
                  - { var:22, quality:2.3080000305175781e+02,
                      le:6.4316424541175365e-03 }
            -
               depth: 3
               value: 2.
               norm_class_idx: 2
            -
               depth: 3
               value: 8.
               norm_class_idx: 8
            -
               depth: 2
               value: 4.
               norm_class_idx: 4
               splits:
                  - { var:2, quality:3.5934924316406250e+02,
                      le:6.8533539772033691e-02 }
            -
               depth: 3
               value: 6.
               norm_class_idx: 6
               splits:
                  - { var:11, quality:3.0858148193359375e+02,
                      le:5.5079996585845947e-02 }
            -
               depth: 4
               value: 7.
               norm_class_idx: 7
               splits:
                  - { var:1, quality:2.5652627563476562e+02,
                      le:2.0794052630662918e-02 }
            -
               depth: 5
               value: 7.
               norm_class_idx: 7
            -
               depth: 5
               value: 4.
               norm_class_idx: 4
            -
               depth: 4
               value: 0.
               norm_class_idx: 0
               splits:
                  - { var:3, quality:2.8758282470703125e+02,
                      le:3.1810730695724487e-02 }
            -
               depth: 5
               value: 0.
               norm_class_idx: 0
            -
               depth: 5
               value: 6.
               norm_class_idx: 6
            -
               depth: 3
               value: 5.
               norm_class_idx: 5
               splits:
                  - { var:16, quality:2.3423823547363281e+02,
                      le:2.2513568401336670e-01 }
            -
               depth: 4
               value: 5.
               norm_class_idx: 5
               splits:
                  - { var:8, quality:219., le:4.9238957464694977e-02 }
            -
               depth: 5
               value: 5.
               norm_class_idx: 5
            -
               depth: 5
               value: 4.
               norm_class_idx: 4
            -
               depth: 4
               value: 2.
               norm_class_idx: 2
               splits:
                  - { var:1, quality:58., le:3.4766066819429398e-02 }
            -
               depth: 5
               value: 2.
               norm_class_idx: 2
            -
               depth: 5
               value: 4.
               norm_class_idx: 4
      -
         nodes:
            -
               depth: 0
               value: 7.
               norm_class_idx: 7
               splits:
                  - { var:12, quality:4.3732714843750000e+02,
                      le:6.0964785516262054e-03 }
            -
               depth: 1
               value: 1.
               norm_class_idx: 1
            -
               depth: 1
               value: 7.
               norm_class_idx: 7
               splits:
                  - { var:14, quality:3.9751284790039062e+02,
                      le:4.8330523073673248e-02 }
            -
               depth: 2
               value: 7.
               norm_class_idx: 7
               splits:
                  - { var:10, quality:3.7778244018554688e+02,
                      le:7.1899428963661194e-02 }
            -
               depth: 3
               value: 7.
               norm_class_idx: 7
               splits:
                  - { var:7, quality:2.7813229370117188e+02,
                      le:1.2619648128747940e-02 }
            -
               depth: 4
               value: 4.
               norm_class_idx: 4
               splits:
                  - { var:2, quality:1.2209091186523438e+02,
                      le:7.9548597335815430e-02 }
            -
               depth: 5
               value: 4.
               norm_class_idx: 4
            -
               depth: 5
               value: 5.
               norm_class_idx: 5
            -
               depth: 4
               value: 7.
               norm_class_idx: 7
               splits:
                  - { var:19, quality:2.7114004516601562e+02,
                      le:6.2542773783206940e-02 }
            -
               depth: 5
               value: 7.
               norm_class_idx: 7
            -
               depth: 5
               value: 3.
               norm_class_idx: 3
            -
               depth: 3
               value: 6.
               norm_class_idx: 6
               splits:
                  - { var:6, quality:3.7016049194335938e+02,
                      le:3.4291017800569534e-02 }
            -
               depth: 4
               value: 5.
               norm_class_idx: 5
               splits:
                  - { var:6, quality:1.9373684692382812e+02,
                      le:2.2408129647374153e-02 }
            -
               depth: 5
               value: 5.
               norm_class_idx: 5
            -
               depth: 5
               value: 4.
               norm_class_idx: 4
            -
               depth: 4
               value: 6.
               norm_class_idx: 6
               splits:
                  - { var:22, quality:3.3055548095703125e+02,
                      le:2.1907091140747070e-03 }
            -
               depth: 5
               value: 6.
               norm_class_idx: 6
            -
               depth: 5
               value: 0.
               norm_class_idx: 0
            -
               depth: 2
               value: 8.
               norm_class_idx: 8
               splits:
                  - { var:2, quality:3.0486486816406250e+02,
                      le:1.8482657149434090e-02 }
            -
               depth: 3
               value: 3.
               norm_class_idx: 3
               splits:
                  - { var:9, quality:1.0901960754394531e+02,
                      le:4.4286549091339111e-03 }
            -
               depth: 4
               value: 8.
               norm_class_idx: 8
            -
               depth: 4
               value: 3.
               norm_class_idx: 3
               splits:
                  - { var:10, quality:102., le:1.3729179278016090e-02 }
            -
               depth: 5
               value: 1.
               norm_class_idx: 1
            -
               depth: 5
               value: 3.
               norm_class_idx: 3
            -
               depth: 3
               value: 8.
               norm_class_idx: 8
               splits:
                  - { var:17, quality:222., le:1.5375876799225807e-02 }
            -
               depth: 4
               value: 8.
               norm_class_idx: 8
            -
               depth: 4
               value: 3.
               norm_class_idx: 3
      -
         nodes:
            -
               depth: 0
               value: 2.
               norm_class_idx: 2
               splits:
                  - { var:11, quality:4.2214721679687500e+02,
                      le:1.1960995383560658e-02 }
            -
               depth: 1
               value: 1.
               norm_class_idx: 1
               splits:
                  - { var:23, quality:2.0900956726074219e+02,
                      le:6.2747122719883919e-03 }
            -
               depth: 2
               value: 2.
               norm_class_idx: 2
            -
               depth: 2
               value: 1.
               norm_class_idx: 1
               splits:
                  - { var:16, quality:2.0766667175292969e+02,
                      le:1.4887617900967598e-02 }
            -
               depth: 3
               value: 1.
               norm_class_idx: 1
            -
               depth: 3
               value: 1.
               norm_class_idx: 1
            -
               depth: 1
               value: 2.
               norm_class_idx: 2
               splits:
                  - { var:5, quality:3.6552267456054688e+02,
                      le:3.0837509781122208e-02 }
            -
               depth: 2
               value: 8.
               norm_class_idx: 8
               splits:
                  - { var:21, quality:3.3682760620117188e+02,
                      le:2.1469362080097198e-02 }
            -
               depth: 3
               value: 5.
               norm_class_idx: 5
               splits:
                  - { var:8, quality:2.4134376525878906e+02,
                      le:5.6881487369537354e-02 }
            -
               depth: 4
               value: 5.
               norm_class_idx: 5
               splits:
                  - { var:9, quality:2.1333332824707031e+02,
                      le:6.2295384705066681e-03 }
            -
               depth: 5
               value: 6.
               norm_class_idx: 6
            -
               depth: 5
               value: 5.
               norm_class_idx: 5
            -
               depth: 4
               value: 4.
               norm_class_idx: 4
               splits:
                  - { var:8, quality:71., le:1.6970810294151306e-01 }
            -
               depth: 5
               value: 4.
               norm_class_idx: 4
            -
               depth: 5
               value: 2.
               norm_class_idx: 2
            -
               depth: 3
               value: 8.
               norm_class_idx: 8
               splits:
                  - { var:16, quality:2.7116665649414062e+02,
                      le:5.0346687436103821e-02 }
            -
               depth: 4
               value: 3.
               norm_class_idx: 3
            -
               depth: 4
               value: 8.
               norm_class_idx: 8
               splits:
                  - { var:3, quality:2.2616667175292969e+02,
                      le:1.7486335709691048e-02 }
            -
               depth: 5
               value: 9.
               norm_class_idx: 9
            -
               depth: 5
               value: 8.
               norm_class_idx: 8
            -
               depth: 2
               value: 7.
               norm_class_idx: 7
               splits:
                  - { var:3, quality:2.9097521972656250e+02,
                      le:3.0987177044153214e-02 }
            -
               depth: 3
               value: 0.
               norm_class_idx: 0
               splits:
                  - { var:12, quality:2.0138841247558594e+02,
                      le:5.9115551412105560e-02 }
            -
               depth: 4
               value: 0.
               norm_class_idx: 0
               splits:
                  - { var:20, quality:2.0812028503417969e+02,
                      le:1.2852077372372150e-02 }
            -
               depth: 5
               value: 0.
               norm_class_idx: 0
            -
               depth: 5
               value: 9.
               norm_class_idx: 9
            -
               depth: 4
               value: 3.
               norm_class_idx: 3
               splits:
                  - { var:16, quality:1.2487999725341797e+02,
                      le:4.2257249355316162e-02 }
            -
               depth: 5
               value: 3.
               norm_class_idx: 3
            -
               depth: 5
               value: 7.
               norm_class_idx: 7
            -
               depth: 3
               value: 6.
               norm_class_idx: 6
               splits:
                  - { var:8, quality:3.0868945312500000e+02,
                      le:5.8387883007526398e-02 }
            -
               depth: 4
               value: 6.
               norm_class_idx: 6
               splits:
                  - { var:19, quality:2.0734564208984375e+02,
                      le:2.9731899499893188e-02 }
            -
               depth: 5
               value: 6.
               norm_class_idx: 6
            -
               depth: 5
               value: 4.
               norm_class_idx: 4
            -
               depth: 4
               value: 4.
               norm_class_idx: 4
               splits:
                  - { var:16, quality:2.2704782104492188e+02,
                      le:2.2178807854652405e-01 }
            -
               depth: 5
               value: 4.
               norm_class_idx: 4
            -
               depth: 5
               value: 2.
               norm_class_idx: 2
      -
         nodes:
            -
               depth: 0
               value: 1.
               norm_class_idx: 1
               splits:
                  - { var:22, quality:4.1664968872070312e+02,
                      le:1.3942509889602661e-01 }
            -
               depth: 1
               value: 0.
               norm_class_idx: 0
               splits:
                  - { var:19, quality:3.8221273803710938e+02,
                      le:6.1261761933565140e-02 }
            -
               depth: 2
               value: 0.
               norm_class_idx: 0
               splits:
                  - { var:10, quality:3.6338293457031250e+02,
                      le:7.2571188211441040e-02 }
            -
               depth: 3
               value: 9.
               norm_class_idx: 9
               splits:
                  - { var:16, quality:2.8845141601562500e+02,
                      le:2.2181445360183716e-01 }
            -
               depth: 4
               value: 9.
               norm_class_idx: 9
               splits:
                  - { var:12, quality:2.1523417663574219e+02,
                      le:3.9906956255435944e-02 }
            -
               depth: 5
               value: 9.
               norm_class_idx: 9
            -
               depth: 5
               value: 7.
               norm_class_idx: 7
            -
               depth: 4
               value: 2.
               norm_class_idx: 2
               splits:
                  - { var:14, quality:1.8687034606933594e+02,
                      le:3.5647964105010033e-03 }
            -
               depth: 5
               value: 7.
               norm_class_idx: 7
            -
               depth: 5
               value: 2.
               norm_class_idx: 2
            -
               depth: 3
               value: 6.
               norm_class_idx: 6
               splits:
                  - { var:5, quality:3.2752441406250000e+02,
                      le:3.1633913516998291e-02 }
            -
               depth: 4
               value: 5.
               norm_class_idx: 5
               splits:
                  - { var:0, quality:169., le:5.4264342179521918e-04 }
            -
               depth: 5
               value: 6.
               norm_class_idx: 6
            -
               depth: 5
               value: 5.
               norm_class_idx: 5
            -
               depth: 4
               value: 6.
               norm_class_idx: 6
               splits:
                  - { var:23, quality:3.0703222656250000e+02,
                      le:2.6995537336915731e-04 }
            -
               depth: 5
               value: 6.
               norm_class_idx: 6
            -
               depth: 5
               value: 0.
               norm_class_idx: 0
            -
               depth: 2
               value: 8.
               norm_class_idx: 8
               splits:
                  - { var:16, quality:3.4037579345703125e+02,
                      le:7.7557623386383057e-02 }
            -
               depth: 3
               value: 3.
               norm_class_idx: 3
               splits:
                  - { var:7, quality:1.3522535705566406e+02,
                      le:2.8516728430986404e-02 }
            -
               depth: 4
               value: 3.
               norm_class_idx: 3
            -
               depth: 4
               value: 3.
               norm_class_idx: 3
               splits:
                  - { var:6, quality:1.3851449584960938e+02,
                      le:1.9702393561601639e-02 }
            -
               depth: 5
               value: 5.
               norm_class_idx: 5
            -
               depth: 5
               value: 3.
               norm_class_idx: 3
            -
               depth: 3
               value: 8.
               norm_class_idx: 8
               splits:
                  - { var:20, quality:209., le:4.6936161816120148e-02 }
            -
               depth: 4
               value: 4.
               norm_class_idx: 4
            -
               depth: 4
               value: 8.
               norm_class_idx: 8
            -
               depth: 1
               value: 1.
               norm_class_idx: 1
               splits:
                  - { var:19, quality:259., le:1.3555402867496014e-02 }
            -
               depth: 2
               value: 1.
               norm_class_idx: 1
            -
               depth: 2
               value: 3.
               norm_class_idx: 3
      -
         nodes:
            -
               depth: 0
               value: 9.
               norm_class_idx: 9
               splits:
                  - { var:14, quality:4.1491394042968750e+02,
                      le:1.2852865457534790e-01 }
            -
               depth: 1
               value: 9.
               norm_class_idx: 9
               splits:
                  - { var:19, quality:3.9911578369140625e+02,
                      le:6.1439614742994308e-02 }
            -
               depth: 2
               value: 9.
               norm_class_idx: 9
               splits:
                  - { var:18, quality:2.9814764404296875e+02,
                      le:2.6122773066163063e-02 }
            -
               depth: 3
               value: 2.
               norm_class_idx: 2
               splits:
                  - { var:17, quality:1.8421609497070312e+02,
                      le:6.8355826660990715e-03 }
            -
               depth: 4
               value: 3.
               norm_class_idx: 3
            -
               depth: 4
               value: 2.
               norm_class_idx: 2
               splits:
                  - { var:10, quality:2.6432189941406250e+02,
                      le:8.7130248546600342e-02 }
            -
               depth: 5
               value: 2.
               norm_class_idx: 2
            -
               depth: 5
               value: 0.
               norm_class_idx: 0
            -
               depth: 3
               value: 6.
               norm_class_idx: 6
               splits:
                  - { var:23, quality:2.8893701171875000e+02,
                      le:7.5357465539127588e-04 }
            -
               depth: 4
               value: 6.
               norm_class_idx: 6
               splits:
                  - { var:5, quality:2.1552197265625000e+02,
                      le:9.3866072595119476e-02 }
            -
               depth: 5
               value: 4.
               norm_class_idx: 4
            -
               depth: 5
               value: 6.
               norm_class_idx: 6
            -
               depth: 4
               value: 5.
               norm_class_idx: 5
               splits:
                  - { var:0, quality:2.7792221069335938e+02,
                      le:2.3049372248351574e-03 }
            -
               depth: 5
               value: 9.
               norm_class_idx: 9
            -
               depth: 5
               value: 5.
               norm_class_idx: 5
            -
               depth: 2
               value: 8.
               norm_class_idx: 8
               splits:
                  - { var:18, quality:3.5939190673828125e+02,
                      le:3.7937354296445847e-02 }
            -
               depth: 3
               value: 8.
               norm_class_idx: 8
            -
               depth: 3
               value: 3.
               norm_class_idx: 3
               splits:
                  - { var:13, quality:1.4017021179199219e+02,
                      le:2.2701691836118698e-02 }
            -
               depth: 4
               value: 5.
               norm_class_idx: 5
            -
               depth: 4
               value: 3.
               norm_class_idx: 3
               splits:
                  - { var:9, quality:139., le:3.7162236869335175e-02 }
            -
               depth: 5
               value: 3.
               norm_class_idx: 3
            -
               depth: 5
               value: 4.
               norm_class_idx: 4
            -
               depth: 1
               value: 1.
               norm_class_idx: 1
               splits:
                  - { var:7, quality:230., le:3.4791797399520874e-02 }
            -
               depth: 2
               value: 3.
               norm_class_idx: 3
            -
               depth: 2
               value: 1.
               norm_class_idx: 1
      -
         nodes:
            -
               depth: 0
               value: 2.
               norm_class_idx: 2
               splits:
                  - { var:11, quality:4.2402459716796875e+02,
                      le:9.3033462762832642e-03 }
            -
               depth: 1
               value: 1.
               norm_class_idx: 1
               splits:
                  - { var:0, quality:211., le:2.1501467563211918e-03 }
            -
               depth: 2
               value: 1.
               norm_class_idx: 1
            -
               depth: 2
               value: 9.
               norm_class_idx: 9
            -
               depth: 1
               value: 2.
               norm_class_idx: 2
               splits:
                  - { var:9, quality:4.1567489624023438e+02,
                      le:3.5375971347093582e-03 }
            -
               depth: 2
               value: 8.
               norm_class_idx: 8
               splits:
                  - { var:20, quality:207., le:3.4944936633110046e-02 }
            -
               depth: 3
               value: 6.
               norm_class_idx: 6
            -
               depth: 3
               value: 8.
               norm_class_idx: 8
            -
               depth: 2
               value: 2.
               norm_class_idx: 2
               splits:
                  - { var:23, quality:3.3388076782226562e+02,
                      le:4.9515347927808762e-04 }
            -
               depth: 3
               value: 2.
               norm_class_idx: 2
               splits:
                  - { var:8, quality:3.0529962158203125e+02,
                      le:5.9964507818222046e-02 }
            -
               depth: 4
               value: 6.
               norm_class_idx: 6
               splits:
                  - { var:19, quality:2.2360897827148438e+02,
                      le:6.1037845909595490e-02 }
            -
               depth: 5
               value: 6.
               norm_class_idx: 6
            -
               depth: 5
               value: 3.
               norm_class_idx: 3
            -
               depth: 4
               value: 2.
               norm_class_idx: 2
               splits:
                  - { var:17, quality:2.5559205627441406e+02,
                      le:2.6782639324665070e-02 }
            -
               depth: 5
               value: 2.
               norm_class_idx: 2
            -
               depth: 5
               value: 7.
               norm_class_idx: 7
            -
               depth: 3
               value: 5.
               norm_class_idx: 5
               splits:
                  - { var:17, quality:2.6195019531250000e+02,
                      le:2.5416722521185875e-02 }
            -
               depth: 4
               value: 3.
               norm_class_idx: 3
               splits:
                  - { var:21, quality:1.7190316772460938e+02,
                      le:2.9824990779161453e-02 }
            -
               depth: 5
               value: 0.
               norm_class_idx: 0
            -
               depth: 5
               value: 3.
               norm_class_idx: 3
            -
               depth: 4
               value: 5.
               norm_class_idx: 5
               splits:
                  - { var:5, quality:2.6605526733398438e+02,
                      le:3.0764281749725342e-02 }
            -
               depth: 5
               value: 5.
               norm_class_idx: 5
            -
               depth: 5
               value: 9.
               norm_class_idx: 9
      -
         nodes:
            -
               depth: 0
               value: 3.
               norm_class_idx: 3
               splits:
                  - { var:16, quality:4.1984454345703125e+02,
                      le:3.7084065377712250e-02 }
            -
               depth: 1
               value: 3.
               norm_class_idx: 3
               splits:
                  - { var:1, quality:4.1403598022460938e+02,
                      le:4.2696888558566570e-03 }
            -
               depth: 2
               value: 1.
               norm_class_idx: 1
            -
               depth: 2
               value: 3.
               norm_class_idx: 3
               splits:
                  - { var:9, quality:2.4610498046875000e+02,
                      le:3.3829621970653534e-02 }
            -
               depth: 3
               value: 3.
               norm_class_idx: 3
               splits:
                  - { var:13, quality:2.5200833129882812e+02,
                      le:2.0492289215326309e-02 }
            -
               depth: 4
               value: 5.
               norm_class_idx: 5
            -
               depth: 4
               value: 3.
               norm_class_idx: 3
               splits:
                  - { var:6, quality:240., le:1.3684369623661041e-02 }
            -
               depth: 5
               value: 5.
               norm_class_idx: 5
            -
               depth: 5
               value: 3.
               norm_class_idx: 3
            -
               depth: 3
               value: 0.
               norm_class_idx: 0
               splits:
                  - { var:6, quality:24., le:2.1371729671955109e-02 }
            -
               depth: 4
               value: 1.
               norm_class_idx: 1
            -
               depth: 4
               value: 0.
               norm_class_idx: 0
            -
               depth: 1
               value: 2.
               norm_class_idx: 2
               splits:
                  - { var:19, quality:4.1520294189453125e+02,
                      le:5.9413865208625793e-02 }
            -
               depth: 2
               value: 2.
               norm_class_idx: 2
               splits:
                  - { var:10, quality:3.8057260131835938e+02,
                      le:7.2962418198585510e-02 }
            -
               depth: 3
               value: 2.
               norm_class_idx: 2
               splits:
                  - { var:1, quality:3.1266534423828125e+02,
                      le:2.0486129447817802e-02 }
            -
               depth: 4
               value: 2.
               norm_class_idx: 2
               splits:
                  - { var:7, quality:3.0106466674804688e+02,
                      le:2.6128336787223816e-02 }
            -
               depth: 5
               value: 2.
               norm_class_idx: 2
            -
               depth: 5
               value: 9.
               norm_class_idx: 9
            -
               depth: 4
               value: 4.
               norm_class_idx: 4
               splits:
                  - { var:7, quality:1.4916983032226562e+02,
                      le:1.7778158187866211e-02 }
            -
               depth: 5
               value: 4.
               norm_class_idx: 4
            -
               depth: 5
               value: 0.
               norm_class_idx: 0
            -
               depth: 3
               value: 6.
               norm_class_idx: 6
               splits:
                  - { var:23, quality:3.3393408203125000e+02,
                      le:2.5063031353056431e-03 }
            -
               depth: 4
               value: 6.
               norm_class_idx: 6
               splits:
                  - { var:23, quality:2.8311676025390625e+02,
                      le:2.5118741905316710e-04 }
            -
               depth: 5
               value: 6.
               norm_class_idx: 6
            -
               depth: 5
               value: 0.
               norm_class_idx: 0
            -
               depth: 4
               value: 5.
               norm_class_idx: 5
               splits:
                  - { var:18, quality:1.7876518249511719e+02,
                      le:9.6999987959861755e-02 }
            -
               depth: 5
               value: 5.
               norm_class_idx: 5
            -
               depth: 5
               value: 0.
               norm_class_idx: 0
            -
               depth: 2
               value: 8.
               norm_class_idx: 8
               splits:
                  - { var:22, quality:2.1614285278320312e+02,
                      le:6.9679650478065014e-03 }
            -
               depth: 3
               value: 4.
               norm_class_idx: 4
            -
               depth: 3
               value: 8.
               norm_class_idx: 8
      -
         nodes:
            -
               depth: 0
               value: 5.
               norm_class_idx: 5
               splits:
                  - { var:1, quality:3.7892095947265625e+02,
                      le:2.0813751965761185e-02 }
            -
               depth: 1
               value: 9.
               norm_class_idx: 9
               splits:
                  - { var:16, quality:4.0343890380859375e+02,
                      le:3.8734603673219681e-02 }
            -
               depth: 2
               value: 3.
               norm_class_idx: 3
               splits:
                  - { var:1, quality:4.1888970947265625e+02,
                      le:4.0762014687061310e-03 }
            -
               depth: 3
               value: 1.
               norm_class_idx: 1
               splits:
                  - { var:0, quality:207., le:2.1870820783078671e-03 }
            -
               depth: 4
               value: 1.
               norm_class_idx: 1
            -
               depth: 4
               value: 9.
               norm_class_idx: 9
            -
               depth: 3
               value: 3.
               norm_class_idx: 3
               splits:
                  - { var:8, quality:235., le:4.0933536365628242e-03 }
            -
               depth: 4
               value: 5.
               norm_class_idx: 5
            -
               depth: 4
               value: 3.
               norm_class_idx: 3
            -
               depth: 2
               value: 9.
               norm_class_idx: 9
               splits:
                  - { var:8, quality:3.6168054199218750e+02,
                      le:2.7926606126129627e-03 }
            -
               depth: 3
               value: 8.
               norm_class_idx: 8
               splits:
                  - { var:21, quality:2.1851515197753906e+02,
                      le:1.5056645497679710e-02 }
            -
               depth: 4
               value: 6.
               norm_class_idx: 6
               splits:
                  - { var:13, quality:3.1200000762939453e+01,
                      le:2.4822127074003220e-02 }
            -
               depth: 5
               value: 0.
               norm_class_idx: 0
            -
               depth: 5
               value: 6.
               norm_class_idx: 6
            -
               depth: 4
               value: 8.
               norm_class_idx: 8
            -
               depth: 3
               value: 9.
               norm_class_idx: 9
               splits:
                  - { var:10, quality:3.5458108520507812e+02,
                      le:8.9258752763271332e-02 }
            -
               depth: 4
               value: 9.
               norm_class_idx: 9
               splits:
                  - { var:17, quality:2.7748477172851562e+02,
                      le:2.7061104774475098e-02 }
            -
               depth: 5
               value: 2.
               norm_class_idx: 2
            -
               depth: 5
               value: 9.
               norm_class_idx: 9
            -
               depth: 4
               value: 6.
               norm_class_idx: 6
               splits:
                  - { var:3, quality:2.9531109619140625e+02,
                      le:2.9958069324493408e-02 }
            -
               depth: 5
               value: 0.
               norm_class_idx: 0
            -
               depth: 5
               value: 6.
               norm_class_idx: 6
            -
               depth: 1
               value: 5.
               norm_class_idx: 5
               splits:
                  - { var:15, quality:3.3258105468750000e+02,
                      le:3.4160113427788019e-03 }
            -
               depth: 2
               value: 4.
               norm_class_idx: 4
               splits:
                  - { var:17, quality:1.6211180114746094e+02,
                      le:1.1394684761762619e-01 }
            -
               depth: 3
               value: 4.
               norm_class_idx: 4
               splits:
                  - { var:10, quality:161., le:7.6079189777374268e-02 }
            -
               depth: 4
               value: 4.
               norm_class_idx: 4
            -
               depth: 4
               value: 5.
               norm_class_idx: 5
            -
               depth: 3
               value: 5.
               norm_class_idx: 5
            -
               depth: 2
               value: 5.
               norm_class_idx: 5
               splits:
                  - { var:5, quality:2.9502630615234375e+02,
                      le:5.4420430213212967e-02 }
            -
               depth: 3
               value: 5.
               norm_class_idx: 5
            -
               depth: 3
               value: 0.
               norm_class_idx: 0
               splits:
                  - { var:12, quality:76., le:1.2051650881767273e-01 }
            -
               depth: 4
               value: 0.
               norm_class_idx: 0
            -
               depth: 4
               value: 1.
               norm_class_idx: 1
      -
         nodes:
            -
               depth: 0
               value: 2.
               norm_class_idx: 2
               splits:
                  - { var:22, quality:4.0116409301757812e+02,
                      le:1.3783973455429077e-01 }
            -
               depth: 1
               value: 2.
               norm_class_idx: 2
               splits:
                  - { var:17, quality:3.7840634155273438e+02,
                      le:9.0681975707411766e-03 }
            -
               depth: 2
               value: 8.
               norm_class_idx: 8
               splits:
                  - { var:9, quality:2.3769085693359375e+02,
                      le:6.1755543574690819e-03 }
            -
               depth: 3
               value: 8.
               norm_class_idx: 8
               splits:
                  - { var:11, quality:200., le:1.1324441060423851e-02 }
            -
               depth: 4
               value: 9.
               norm_class_idx: 9
            -
               depth: 4
               value: 8.
               norm_class_idx: 8
            -
               depth: 3
               value: 3.
               norm_class_idx: 3
               splits:
                  - { var:9, quality:47., le:1.4365041628479958e-02 }
            -
               depth: 4
               value: 3.
               norm_class_idx: 3
            -
               depth: 4
               value: 2.
               norm_class_idx: 2
            -
               depth: 2
               value: 2.
               norm_class_idx: 2
               splits:
                  - { var:11, quality:2.9638946533203125e+02,
                      le:5.5068761110305786e-02 }
            -
               depth: 3
               value: 2.
               norm_class_idx: 2
               splits:
                  - { var:2, quality:2.2554402160644531e+02,
                      le:3.7649344652891159e-02 }
            -
               depth: 4
               value: 2.
               norm_class_idx: 2
               splits:
                  - { var:0, quality:1.9254913330078125e+02,
                      le:2.7257963083684444e-03 }
            -
               depth: 5
               value: 2.
               norm_class_idx: 2
            -
               depth: 5
               value: 3.
               norm_class_idx: 3
            -
               depth: 4
               value: 4.
               norm_class_idx: 4
               splits:
                  - { var:12, quality:1.2806901550292969e+02,
                      le:1.9830305129289627e-02 }
            -
               depth: 5
               value: 5.
               norm_class_idx: 5
            -
               depth: 5
               value: 4.
               norm_class_idx: 4
            -
               depth: 3
               value: 0.
               norm_class_idx: 0
               splits:
                  - { var:23, quality:2.5710861206054688e+02,
                      le:4.8514371155761182e-04 }
            -
               depth: 4
               value: 6.
               norm_class_idx: 6
               splits:
                  - { var:16, quality:1.8009037780761719e+02,
                      le:5.9103928506374359e-02 }
            -
               depth: 5
               value: 3.
               norm_class_idx: 3
            -
               depth: 5
               value: 6.
               norm_class_idx: 6
            -
               depth: 4
               value: 0.
               norm_class_idx: 0
               splits:
                  - { var:6, quality:2.6476315307617188e+02,
                      le:2.5787994265556335e-02 }
            -
               depth: 5
               value: 5.
               norm_class_idx: 5
            -
               depth: 5
               value: 0.
               norm_class_idx: 0
            -
               depth: 1
               value: 1.
               norm_class_idx: 1
               splits:
                  - { var:15, quality:234., le:1.2465728446841240e-02 }
            -
               depth: 2
               value: 3.
               norm_class_idx: 3
            -
               depth: 2
               value: 1.
               norm_class_idx: 1
      -
         nodes:
            -
               depth: 0
               value: 8.
               norm_class_idx: 8
               splits:
                  - { var:16, quality:4.0728530883789062e+02,
                      le:2.8287723660469055e-02 }
            -
               depth: 1
               value: 1.
               norm_class_idx: 1
               splits:
                  - { var:20, quality:3.8212265014648438e+02,
                      le:7.6964311301708221e-03 }
            -
               depth: 2
               value: 1.
               norm_class_idx: 1
            -
               depth: 2
               value: 3.
               norm_class_idx: 3
               splits:
                  - { var:13, quality:1.9634397888183594e+02,
                      le:2.2394033148884773e-02 }
            -
               depth: 3
               value: 5.
               norm_class_idx: 5
               splits:
                  - { var:6, quality:2.0571428298950195e+01,
                      le:3.1424649059772491e-02 }
            -
               depth: 4
               value: 5.
               norm_class_idx: 5
               splits:
                  - { var:21, quality:14., le:3.6179307848215103e-02 }
            -
               depth: 5
               value: 5.
               norm_class_idx: 5
            -
               depth: 5
               value: 9.
               norm_class_idx: 9
            -
               depth: 4
               value: 0.
               norm_class_idx: 0
            -
               depth: 3
               value: 3.
               norm_class_idx: 3
               splits:
                  - { var:2, quality:1.8606060791015625e+02,
                      le:1.0502753779292107e-02 }
            -
               depth: 4
               value: 3.
               norm_class_idx: 3
               splits:
                  - { var:2, quality:33., le:1.0316690430045128e-02 }
            -
               depth: 5
               value: 3.
               norm_class_idx: 3
            -
               depth: 5
               value: 1.
               norm_class_idx: 1
            -
               depth: 4
               value: 3.
               norm_class_idx: 3
            -
               depth: 1
               value: 8.
               norm_class_idx: 8
               splits:
                  - { var:14, quality:4.4735931396484375e+02,
                      le:4.8330523073673248e-02 }
            -
               depth: 2
               value: 5.
               norm_class_idx: 5
               splits:
                  - { var:15, quality:2.9885781860351562e+02,
                      le:1.0721900034695864e-03 }
            -
               depth: 3
               value: 6.
               norm_class_idx: 6
               splits:
                  - { var:8, quality:2.7643948364257812e+02,
                      le:6.2372274696826935e-02 }
            -
               depth: 4
               value: 6.
               norm_class_idx: 6
               splits:
                  - { var:13, quality:168., le:3.4039370715618134e-02 }
            -
               depth: 5
               value: 6.
               norm_class_idx: 6
            -
               depth: 5
               value: 3.
               norm_class_idx: 3
            -
               depth: 4
               value: 2.
               norm_class_idx: 2
               splits:
                  - { var:1, quality:2.4806338500976562e+02,
                      le:2.0230822265148163e-02 }
            -
               depth: 5
               value: 2.
               norm_class_idx: 2
            -
               depth: 5
               value: 4.
               norm_class_idx: 4
            -
               depth: 3
               value: 5.
               norm_class_idx: 5
               splits:
                  - { var:23, quality:2.5997210693359375e+02,
                      le:2.9627436306327581e-03 }
            -
               depth: 4
               value: 0.
               norm_class_idx: 0
               splits:
                  - { var:16, quality:1.9934242248535156e+02,
                      le:2.2464707493782043e-01 }
            -
               depth: 5
               value: 9.
               norm_class_idx: 9
            -
               depth: 5
               value: 0.
               norm_class_idx: 0
            -
               depth: 4
               value: 5.
               norm_class_idx: 5
               splits:
                  - { var:6, quality:2.4477171325683594e+02,
                      le:4.2258419096469879e-02 }
            -
               depth: 5
               value: 5.
               norm_class_idx: 5
            -
               depth: 5
               value: 9.
               norm_class_idx: 9
            -
               depth: 2
               value: 8.
               norm_class_idx: 8
               splits:
                  - { var:17, quality:238., le:1.7475951462984085e-02 }
            -
               depth: 3
               value: 8.
               norm_class_idx: 8
            -
               depth: 3
               value: 7.
               norm_class_idx: 7
      -
         nodes:
            -
               depth: 0
               value: 5.
               norm_class_idx: 5
               splits:
                  - { var:20, quality:3.8544924926757812e+02,
                      le:6.2756486237049103e-02 }
            -
               depth: 1
               value: 5.
               norm_class_idx: 5
               splits:
                  - { var:22, quality:4.1649270629882812e+02,
                      le:1.2814754247665405e-01 }
            -
               depth: 2
               value: 5.
               norm_class_idx: 5
               splits:
                  - { var:5, quality:3.5544955444335938e+02,
                      le:3.1180966645479202e-02 }
            -
               depth: 3
               value: 5.
               norm_class_idx: 5
               splits:
                  - { var:0, quality:2.1626698303222656e+02,
                      le:1.4704221393913031e-03 }
            -
               depth: 4
               value: 2.
               norm_class_idx: 2
               splits:
                  - { var:3, quality:4.4740741729736328e+01,
                      le:1.1315490305423737e-01 }
            -
               depth: 5
               value: 9.
               norm_class_idx: 9
            -
               depth: 5
               value: 2.
               norm_class_idx: 2
            -
               depth: 4
               value: 5.
               norm_class_idx: 5
               splits:
                  - { var:10, quality:2.4673260498046875e+02,
                      le:6.1609201133251190e-02 }
            -
               depth: 5
               value: 4.
               norm_class_idx: 4
            -
               depth: 5
               value: 5.
               norm_class_idx: 5
            -
               depth: 3
               value: 0.
               norm_class_idx: 0
               splits:
                  - { var:23, quality:2.9361828613281250e+02,
                      le:1.9796384731307626e-04 }
            -
               depth: 4
               value: 6.
               norm_class_idx: 6
               splits:
                  - { var:8, quality:2.3680036926269531e+02,
                      le:6.2592163681983948e-02 }
            -
               depth: 5
               value: 6.
               norm_class_idx: 6
            -
               depth: 5
               value: 7.
               norm_class_idx: 7
            -
               depth: 4
               value: 0.
               norm_class_idx: 0
               splits:
                  - { var:8, quality:2.3840901184082031e+02,
                      le:5.4521705955266953e-02 }
            -
               depth: 5
               value: 0.
               norm_class_idx: 0
            -
               depth: 5
               value: 9.
               norm_class_idx: 9
            -
               depth: 2
               value: 1.
               norm_class_idx: 1
               splits:
                  - { var:15, quality:240., le:1.1366963386535645e-02 }
            -
               depth: 3
               value: 3.
               norm_class_idx: 3
            -
               depth: 3
               value: 1.
               norm_class_idx: 1
            -
               depth: 1
               value: 8.
               norm_class_idx: 8
               splits:
                  - { var:0, quality:2.5393861389160156e+02,
                      le:3.8369381800293922e-03 }
            -
               depth: 2
               value: 8.
               norm_class_idx: 8
               splits:
                  - { var:17, quality:203., le:1.1742448434233665e-02 }
            -
               depth: 3
               value: 8.
               norm_class_idx: 8
            -
               depth: 3
               value: 3.
               norm_class_idx: 3
            -
               depth: 2
               value: 3.
               norm_class_idx: 3
               splits:
                  - { var:17, quality:6.8930229187011719e+01,
                      le:3.3797763288021088e-02 }
            -
               depth: 3
               value: 3.
               norm_class_idx: 3
               splits:
                  - { var:6, quality:6.8666664123535156e+01,
                      le:5.2934471517801285e-02 }
            -
               depth: 4
               value: 3.
               norm_class_idx: 3
               splits:
                  - { var:10, quality:39., le:1.4042859897017479e-02 }
            -
               depth: 5
               value: 8.
               norm_class_idx: 8
            -
               depth: 5
               value: 3.
               norm_class_idx: 3
            -
               depth: 4
               value: 3.
               norm_class_idx: 3
            -
               depth: 3
               value: 4.
               norm_class_idx: 4
      -
         nodes:
            -
               depth: 0
               value: 2.
               norm_class_idx: 2
               splits:
                  - { var:12, quality:4.1773715209960938e+02,
                      le:5.5863596498966217e-03 }
            -
               depth: 1
               value: 1.
               norm_class_idx: 1
            -
               depth: 1
               value: 2.
               norm_class_idx: 2
               splits:
                  - { var:19, quality:4.0042913818359375e+02,
                      le:6.1812862753868103e-02 }
            -
               depth: 2
               value: 2.
               norm_class_idx: 2
               splits:
                  - { var:5, quality:3.4777514648437500e+02,
                      le:3.0797105282545090e-02 }
            -
               depth: 3
               value: 5.
               norm_class_idx: 5
               splits:
                  - { var:15, quality:2.1372613525390625e+02,
                      le:4.7083236277103424e-03 }
            -
               depth: 4
               value: 2.
               norm_class_idx: 2
               splits:
                  - { var:10, quality:6.5188682556152344e+01,
                      le:3.8527041673660278e-02 }
            -
               depth: 5
               value: 2.
               norm_class_idx: 2
            -
               depth: 5
               value: 4.
               norm_class_idx: 4
            -
               depth: 4
               value: 5.
               norm_class_idx: 5
               splits:
                  - { var:1, quality:2.1147428894042969e+02,
                      le:4.9620009958744049e-03 }
            -
               depth: 5
               value: 9.
               norm_class_idx: 9
            -
               depth: 5
               value: 5.
               norm_class_idx: 5
            -
               depth: 3
               value: 7.
               norm_class_idx: 7
               splits:
                  - { var:10, quality:3.6658093261718750e+02,
                      le:9.0522125363349915e-02 }
            -
               depth: 4
               value: 7.
               norm_class_idx: 7
               splits:
                  - { var:0, quality:2.6062469482421875e+02,
                      le:1.1786295101046562e-02 }
            -
               depth: 5
               value: 7.
               norm_class_idx: 7
            -
               depth: 5
               value: 4.
               norm_class_idx: 4
            -
               depth: 4
               value: 6.
               norm_class_idx: 6
               splits:
                  - { var:18, quality:3.4542608642578125e+02,
                      le:2.6824425905942917e-02 }
            -
               depth: 5
               value: 0.
               norm_class_idx: 0
            -
               depth: 5
               value: 6.
               norm_class_idx: 6
            -
               depth: 2
               value: 8.
               norm_class_idx: 8
               splits:
                  - { var:17, quality:3.4606292724609375e+02,
                      le:1.0694164782762527e-02 }
            -
               depth: 3
               value: 8.
               norm_class_idx: 8
            -
               depth: 3
               value: 3.
               norm_class_idx: 3
               splits:
                  - { var:6, quality:1.3523358154296875e+02,
                      le:1.8136765807867050e-02 }
            -
               depth: 4
               value: 5.
               norm_class_idx: 5
            -
               depth: 4
               value: 3.
               norm_class_idx: 3
               splits:
                  - { var:3, quality:137., le:3.4393943846225739e-02 }
            -
               depth: 5
               value: 3.
               norm_class_idx: 3
            -
               depth: 5
               value: 4.
               norm_class_idx: 4
      -
         nodes:
            -
               depth: 0
               value: 8.
               norm_class_idx: 8
               splits:
                  - { var:14, quality:4.1389886474609375e+02,
                      le:4.8330523073673248e-02 }
            -
               depth: 1
               value: 0.
               norm_class_idx: 0
               splits:
                  - { var:5, quality:3.4005596923828125e+02,
                      le:3.0766613781452179e-02 }
            -
               depth: 2
               value: 5.
               norm_class_idx: 5
               splits:
                  - { var:7, quality:1.8703591918945312e+02,
                      le:1.0358506441116333e-01 }
            -
               depth: 3
               value: 5.
               norm_class_idx: 5
               splits:
                  - { var:16, quality:2.1656968688964844e+02,
                      le:2.1391150355339050e-01 }
            -
               depth: 4
               value: 5.
               norm_class_idx: 5
               splits:
                  - { var:15, quality:2.1378572082519531e+02,
                      le:3.7636812776327133e-03 }
            -
               depth: 5
               value: 4.
               norm_class_idx: 4
            -
               depth: 5
               value: 5.
               norm_class_idx: 5
            -
               depth: 4
               value: 2.
               norm_class_idx: 2
               splits:
                  - { var:16, quality:4.6117645263671875e+01,
                      le:2.5078737735748291e-01 }
            -
               depth: 5
               value: 4.
               norm_class_idx: 4
            -
               depth: 5
               value: 2.
               norm_class_idx: 2
            -
               depth: 3
               value: 3.
               norm_class_idx: 3
               splits:
                  - { var:20, quality:4.0454544067382812e+01,
                      le:4.0714763104915619e-02 }
            -
               depth: 4
               value: 9.
               norm_class_idx: 9
               splits:
                  - { var:20, quality:22., le:1.5436448156833649e-02 }
            -
               depth: 5
               value: 6.
               norm_class_idx: 6
            -
               depth: 5
               value: 9.
               norm_class_idx: 9
            -
               depth: 4
               value: 3.
               norm_class_idx: 3
            -
               depth: 2
               value: 0.
               norm_class_idx: 0
               splits:
                  - { var:23, quality:2.9161239624023438e+02,
                      le:4.9485405907034874e-04 }
            -
               depth: 3
               value: 6.
               norm_class_idx: 6
               splits:
                  - { var:8, quality:2.6582189941406250e+02,
                      le:6.3694179058074951e-02 }
            -
               depth: 4
               value: 6.
               norm_class_idx: 6
               splits:
                  - { var:11, quality:2.1797959899902344e+02,
                      le:4.9414362758398056e-02 }
            -
               depth: 5
               value: 7.
               norm_class_idx: 7
            -
               depth: 5
               value: 6.
               norm_class_idx: 6
            -
               depth: 4
               value: 2.
               norm_class_idx: 2
               splits:
                  - { var:10, quality:1.7164860534667969e+02,
                      le:4.6277791261672974e-02 }
            -
               depth: 5
               value: 2.
               norm_class_idx: 2
            -
               depth: 5
               value: 4.
               norm_class_idx: 4
            -
               depth: 3
               value: 0.
               norm_class_idx: 0
               splits:
                  - { var:20, quality:2.4834475708007812e+02,
                      le:1.2570261023938656e-02 }
            -
               depth: 4
               value: 0.
               norm_class_idx: 0
               splits:
                  - { var:8, quality:1.8315599060058594e+02,
                      le:5.9568949043750763e-02 }
            -
               depth: 5
               value: 0.
               norm_class_idx: 0
            -
               depth: 5
               value: 2.
               norm_class_idx: 2
            -
               depth: 4
               value: 9.
               norm_class_idx: 9
               splits:
                  - { var:16, quality:1.3181433105468750e+02,
                      le:9.1352812945842743e-02 }
            -
               depth: 5
               value: 4.
               norm_class_idx: 4
            -
               depth: 5
               value: 9.
               norm_class_idx: 9
            -
               depth: 1
               value: 8.
               norm_class_idx: 8
               splits:
                  - { var:19, quality:4.0290771484375000e+02,
                      le:1.1476673185825348e-02 }
            -
               depth: 2
               value: 1.
               norm_class_idx: 1
               splits:
                  - { var:14, quality:205., le:9.9027663469314575e-02 }
            -
               depth: 3
               value: 3.
               norm_class_idx: 3
            -
               depth: 3
               value: 1.
               norm_class_idx: 1
            -
               depth: 2
               value: 8.
               norm_class_idx: 8
               splits:
                  - { var:21, quality:3.2182046508789062e+02,
                      le:3.3529669046401978e-02 }
            -
               depth: 3
               value: 8.
               norm_class_idx: 8
               splits:
                  - { var:0, quality:2.3803347778320312e+02,
                      le:5.0935335457324982e-03 }
            -
               depth: 4
               value: 8.
               norm_class_idx: 8
               splits:
                  - { var:12, quality:2.3572727966308594e+02,
                      le:1.0823007673025131e-01 }
            -
               depth: 5
               value: 8.
               norm_class_idx: 8
            -
               depth: 5
               value: 8.
               norm_class_idx: 8
            -
               depth: 4
               value: 3.
               norm_class_idx: 3
            -
               depth: 3
               value: 3.
               norm_class_idx: 3
               splits:
                  - { var:16, quality:9.9333335876464844e+01,
                      le:5.0821848213672638e-02 }
            -
               depth: 4
               value: 3.
               norm_class_idx: 3
            -
               depth: 4
               value: 8.
               norm_class_idx: 8
      -
         nodes:
            -
               depth: 0
               value: 5.
               norm_class_idx: 5
               splits:
                  - { var:20, quality:3.8396060180664062e+02,
                      le:6.2571600079536438e-02 }
            -
               depth: 1
               value: 5.
               norm_class_idx: 5
               splits:
                  - { var:11, quality:4.2911584472656250e+02,
                      le:1.0376812890172005e-02 }
            -
               depth: 2
               value: 1.
               norm_class_idx: 1
            -
               depth: 2
               value: 5.
               norm_class_idx: 5
               splits:
                  - { var:6, quality:3.4178555297851562e+02,
                      le:2.9037829488515854e-02 }
            -
               depth: 3
               value: 5.
               norm_class_idx: 5
               splits:
                  - { var:8, quality:3.0447546386718750e+02,
                      le:5.0015032291412354e-02 }
            -
               depth: 4
               value: 5.
               norm_class_idx: 5
               splits:
                  - { var:19, quality:220., le:9.3162760138511658e-02 }
            -
               depth: 5
               value: 5.
               norm_class_idx: 5
            -
               depth: 5
               value: 3.
               norm_class_idx: 3
            -
               depth: 4
               value: 2.
